<?xml version="1.0"?>
<MethodSetup Method="MLP::MLP">
  <GeneralInfo>
    <Info name="TMVA Release" value="4.2.1 [262657]"/>
    <Info name="ROOT Release" value="6.12/06 [396294]"/>
    <Info name="Creator" value="boraisildak"/>
    <Info name="Date" value="Fri Aug 10 21:55:42 2018"/>
    <Info name="Host" value="Darwin ElCapitan-2.local 15.6.0 Darwin Kernel Version 15.6.0: Tue Jan 9 20:12:05 PST 2018; root:xnu-3248.73.5~1/RELEASE_X86_64 x86_64"/>
    <Info name="Dir" value="/Users/boraisildak/Documents/GitHub/SMCEDM/Analysis"/>
    <Info name="Training events" value="2000"/>
    <Info name="TrainingTime" value="3.02871289e+01"/>
    <Info name="AnalysisType" value="Classification"/>
  </GeneralInfo>
  <Options>
    <Option name="NCycles" modified="Yes">600</Option>
    <Option name="HiddenLayers" modified="Yes">N+5</Option>
    <Option name="NeuronType" modified="Yes">tanh</Option>
    <Option name="RandomSeed" modified="No">1</Option>
    <Option name="EstimatorType" modified="No">CE</Option>
    <Option name="NeuronInputType" modified="No">sum</Option>
    <Option name="V" modified="Yes">False</Option>
    <Option name="VerbosityLevel" modified="No">Default</Option>
    <Option name="VarTransform" modified="Yes">N</Option>
    <Option name="H" modified="Yes">True</Option>
    <Option name="CreateMVAPdfs" modified="No">False</Option>
    <Option name="IgnoreNegWeightsInTraining" modified="No">False</Option>
    <Option name="TrainingMethod" modified="No">BP</Option>
    <Option name="LearningRate" modified="No">2.000000e-02</Option>
    <Option name="DecayRate" modified="No">1.000000e-02</Option>
    <Option name="TestRate" modified="Yes">5</Option>
    <Option name="EpochMonitoring" modified="No">False</Option>
    <Option name="Sampling" modified="No">1.000000e+00</Option>
    <Option name="SamplingEpoch" modified="No">1.000000e+00</Option>
    <Option name="SamplingImportance" modified="No">1.000000e+00</Option>
    <Option name="SamplingTraining" modified="No">True</Option>
    <Option name="SamplingTesting" modified="No">False</Option>
    <Option name="ResetStep" modified="No">50</Option>
    <Option name="Tau" modified="No">3.000000e+00</Option>
    <Option name="BPMode" modified="No">sequential</Option>
    <Option name="BatchSize" modified="No">-1</Option>
    <Option name="ConvergenceImprove" modified="No">1.000000e-30</Option>
    <Option name="ConvergenceTests" modified="No">-1</Option>
    <Option name="UseRegulator" modified="Yes">False</Option>
    <Option name="UpdateLimit" modified="No">10000</Option>
    <Option name="CalculateErrors" modified="No">False</Option>
    <Option name="WeightRange" modified="No">1.000000e+00</Option>
  </Options>
  <Variables NVar="21">
    <Variable VarIndex="0" Expression="nJets" Label="nJets" Title="nJets" Unit="" Internal="nJets" Type="F" Min="2.00000000e+00" Max="1.40000000e+01"/>
    <Variable VarIndex="1" Expression="ht" Label="ht" Title="ht" Unit="" Internal="ht" Type="F" Min="5.26264954e+01" Max="1.93714246e+03"/>
    <Variable VarIndex="2" Expression="jetPt[0]" Label="jetPt[0]" Title="jetPt[0]" Unit="" Internal="jetPt_0_" Type="F" Min="2.53388882e+01" Max="7.71893127e+02"/>
    <Variable VarIndex="3" Expression="jetPt[1]" Label="jetPt[1]" Title="jetPt[1]" Unit="" Internal="jetPt_1_" Type="F" Min="2.34578686e+01" Max="6.23182190e+02"/>
    <Variable VarIndex="4" Expression="jetPt[2]" Label="jetPt[2]" Title="jetPt[2]" Unit="" Internal="jetPt_2_" Type="F" Min="0.00000000e+00" Max="2.85220459e+02"/>
    <Variable VarIndex="5" Expression="jetPt[3]" Label="jetPt[3]" Title="jetPt[3]" Unit="" Internal="jetPt_3_" Type="F" Min="0.00000000e+00" Max="1.70677139e+02"/>
    <Variable VarIndex="6" Expression="jetPt[4]" Label="jetPt[4]" Title="jetPt[4]" Unit="" Internal="jetPt_4_" Type="F" Min="0.00000000e+00" Max="1.24699615e+02"/>
    <Variable VarIndex="7" Expression="sphericity" Label="sphericity" Title="sphericity" Unit="" Internal="sphericity" Type="F" Min="5.32507722e-04" Max="8.64658773e-01"/>
    <Variable VarIndex="8" Expression="aplanarity" Label="aplanarity" Title="aplanarity" Unit="" Internal="aplanarity" Type="F" Min="-4.65982097e-08" Max="3.34201902e-01"/>
    <Variable VarIndex="9" Expression="foxWolfram[0]" Label="foxWolfram[0]" Title="foxWolfram[0]" Unit="" Internal="foxWolfram_0_" Type="F" Min="5.79231046e-02" Max="4.40202236e-01"/>
    <Variable VarIndex="10" Expression="foxWolfram[1]" Label="foxWolfram[1]" Title="foxWolfram[1]" Unit="" Internal="foxWolfram_1_" Type="F" Min="-2.49687493e-01" Max="2.68297285e-01"/>
    <Variable VarIndex="11" Expression="foxWolfram[2]" Label="foxWolfram[2]" Title="foxWolfram[2]" Unit="" Internal="foxWolfram_2_" Type="F" Min="-1.15398824e-01" Max="3.64943802e-01"/>
    <Variable VarIndex="12" Expression="foxWolfram[3]" Label="foxWolfram[3]" Title="foxWolfram[3]" Unit="" Internal="foxWolfram_3_" Type="F" Min="-2.49678865e-01" Max="2.37365618e-01"/>
    <Variable VarIndex="13" Expression="mTop" Label="mTop" Title="mTop" Unit="" Internal="mTop" Type="F" Min="8.17731799e-30" Max="1.83393469e+03"/>
    <Variable VarIndex="14" Expression="yTop" Label="yTop" Title="yTop" Unit="" Internal="yTop" Type="F" Min="-3.98403978e+00" Max="3.63517523e+00"/>
    <Variable VarIndex="15" Expression="ptTop" Label="ptTop" Title="ptTop" Unit="" Internal="ptTop" Type="F" Min="0.00000000e+00" Max="6.76800476e+02"/>
    <Variable VarIndex="16" Expression="met" Label="met" Title="met" Unit="" Internal="met" Type="F" Min="3.20985377e-01" Max="4.33431000e+02"/>
    <Variable VarIndex="17" Expression="metPhi" Label="metPhi" Title="metPhi" Unit="" Internal="metPhi" Type="F" Min="-3.13918328e+00" Max="3.13974905e+00"/>
    <Variable VarIndex="18" Expression="nLeptons" Label="nLeptons" Title="nLeptons" Unit="" Internal="nLeptons" Type="F" Min="0.00000000e+00" Max="2.00000000e+00"/>
    <Variable VarIndex="19" Expression="mW" Label="mW" Title="mW" Unit="" Internal="mW" Type="F" Min="6.50278473e+01" Max="9.49839554e+01"/>
    <Variable VarIndex="20" Expression="nBJets" Label="nBJets" Title="nBJets" Unit="" Internal="nBJets" Type="F" Min="0.00000000e+00" Max="4.00000000e+00"/>
  </Variables>
  <Spectators NSpec="0"/>
  <Classes NClass="2">
    <Class Name="Signal" Index="0"/>
    <Class Name="Background" Index="1"/>
  </Classes>
  <Transformations NTransformations="1">
    <Transform Name="Normalize">
      <Selection>
        <Input NInputs="21">
          <Input Type="Variable" Label="nJets" Expression="nJets"/>
          <Input Type="Variable" Label="ht" Expression="ht"/>
          <Input Type="Variable" Label="jetPt[0]" Expression="jetPt[0]"/>
          <Input Type="Variable" Label="jetPt[1]" Expression="jetPt[1]"/>
          <Input Type="Variable" Label="jetPt[2]" Expression="jetPt[2]"/>
          <Input Type="Variable" Label="jetPt[3]" Expression="jetPt[3]"/>
          <Input Type="Variable" Label="jetPt[4]" Expression="jetPt[4]"/>
          <Input Type="Variable" Label="sphericity" Expression="sphericity"/>
          <Input Type="Variable" Label="aplanarity" Expression="aplanarity"/>
          <Input Type="Variable" Label="foxWolfram[0]" Expression="foxWolfram[0]"/>
          <Input Type="Variable" Label="foxWolfram[1]" Expression="foxWolfram[1]"/>
          <Input Type="Variable" Label="foxWolfram[2]" Expression="foxWolfram[2]"/>
          <Input Type="Variable" Label="foxWolfram[3]" Expression="foxWolfram[3]"/>
          <Input Type="Variable" Label="mTop" Expression="mTop"/>
          <Input Type="Variable" Label="yTop" Expression="yTop"/>
          <Input Type="Variable" Label="ptTop" Expression="ptTop"/>
          <Input Type="Variable" Label="met" Expression="met"/>
          <Input Type="Variable" Label="metPhi" Expression="metPhi"/>
          <Input Type="Variable" Label="nLeptons" Expression="nLeptons"/>
          <Input Type="Variable" Label="mW" Expression="mW"/>
          <Input Type="Variable" Label="nBJets" Expression="nBJets"/>
        </Input>
        <Output NOutputs="21">
          <Output Type="Variable" Label="nJets" Expression="nJets"/>
          <Output Type="Variable" Label="ht" Expression="ht"/>
          <Output Type="Variable" Label="jetPt[0]" Expression="jetPt[0]"/>
          <Output Type="Variable" Label="jetPt[1]" Expression="jetPt[1]"/>
          <Output Type="Variable" Label="jetPt[2]" Expression="jetPt[2]"/>
          <Output Type="Variable" Label="jetPt[3]" Expression="jetPt[3]"/>
          <Output Type="Variable" Label="jetPt[4]" Expression="jetPt[4]"/>
          <Output Type="Variable" Label="sphericity" Expression="sphericity"/>
          <Output Type="Variable" Label="aplanarity" Expression="aplanarity"/>
          <Output Type="Variable" Label="foxWolfram[0]" Expression="foxWolfram[0]"/>
          <Output Type="Variable" Label="foxWolfram[1]" Expression="foxWolfram[1]"/>
          <Output Type="Variable" Label="foxWolfram[2]" Expression="foxWolfram[2]"/>
          <Output Type="Variable" Label="foxWolfram[3]" Expression="foxWolfram[3]"/>
          <Output Type="Variable" Label="mTop" Expression="mTop"/>
          <Output Type="Variable" Label="yTop" Expression="yTop"/>
          <Output Type="Variable" Label="ptTop" Expression="ptTop"/>
          <Output Type="Variable" Label="met" Expression="met"/>
          <Output Type="Variable" Label="metPhi" Expression="metPhi"/>
          <Output Type="Variable" Label="nLeptons" Expression="nLeptons"/>
          <Output Type="Variable" Label="mW" Expression="mW"/>
          <Output Type="Variable" Label="nBJets" Expression="nBJets"/>
        </Output>
      </Selection>
      <Class ClassIndex="0">
        <Ranges>
          <Range Index="0" Min="2.0000000000000000e+00" Max="1.4000000000000000e+01"/>
          <Range Index="1" Min="1.1878989410400391e+02" Max="1.9371424560546875e+03"/>
          <Range Index="2" Min="3.5916069030761719e+01" Max="7.7189312744140625e+02"/>
          <Range Index="3" Min="3.0643133163452148e+01" Max="6.2318218994140625e+02"/>
          <Range Index="4" Min="0.0000000000000000e+00" Max="2.8522045898437500e+02"/>
          <Range Index="5" Min="0.0000000000000000e+00" Max="1.7067713928222656e+02"/>
          <Range Index="6" Min="0.0000000000000000e+00" Max="1.2469961547851562e+02"/>
          <Range Index="7" Min="2.3813499137759209e-03" Max="8.6465877294540405e-01"/>
          <Range Index="8" Min="-1.1888646511692968e-08" Max="3.3420190215110779e-01"/>
          <Range Index="9" Min="1.0946169495582581e-01" Max="4.4020223617553711e-01"/>
          <Range Index="10" Min="-1.9575169682502747e-01" Max="2.6829728484153748e-01"/>
          <Range Index="11" Min="-6.1902064830064774e-02" Max="3.6494380235671997e-01"/>
          <Range Index="12" Min="-1.8553806841373444e-01" Max="2.2340098023414612e-01"/>
          <Range Index="13" Min="8.5399467468261719e+01" Max="9.9571307373046875e+02"/>
          <Range Index="14" Min="-2.8380181789398193e+00" Max="2.9021801948547363e+00"/>
          <Range Index="15" Min="2.2337939739227295e+00" Max="6.7680047607421875e+02"/>
          <Range Index="16" Min="8.8367205858230591e-01" Max="4.3343099975585938e+02"/>
          <Range Index="17" Min="-3.1360762119293213e+00" Max="3.1397490501403809e+00"/>
          <Range Index="18" Min="0.0000000000000000e+00" Max="1.0000000000000000e+00"/>
          <Range Index="19" Min="6.5033592224121094e+01" Max="9.4983955383300781e+01"/>
          <Range Index="20" Min="0.0000000000000000e+00" Max="4.0000000000000000e+00"/>
        </Ranges>
      </Class>
      <Class ClassIndex="1">
        <Ranges>
          <Range Index="0" Min="2.0000000000000000e+00" Max="1.0000000000000000e+01"/>
          <Range Index="1" Min="5.2626495361328125e+01" Max="1.0344407958984375e+03"/>
          <Range Index="2" Min="2.5338888168334961e+01" Max="4.1790350341796875e+02"/>
          <Range Index="3" Min="2.3457868576049805e+01" Max="3.6259146118164062e+02"/>
          <Range Index="4" Min="0.0000000000000000e+00" Max="1.8738911437988281e+02"/>
          <Range Index="5" Min="0.0000000000000000e+00" Max="1.2020700073242188e+02"/>
          <Range Index="6" Min="0.0000000000000000e+00" Max="8.1121292114257812e+01"/>
          <Range Index="7" Min="5.3250772180035710e-04" Max="7.9547005891799927e-01"/>
          <Range Index="8" Min="-4.6598209735293494e-08" Max="3.0361366271972656e-01"/>
          <Range Index="9" Min="5.7923104614019394e-02" Max="4.3145501613616943e-01"/>
          <Range Index="10" Min="-2.4968749284744263e-01" Max="2.6663649082183838e-01"/>
          <Range Index="11" Min="-1.1539882421493530e-01" Max="3.3504158258438110e-01"/>
          <Range Index="12" Min="-2.4967886507511139e-01" Max="2.3736561834812164e-01"/>
          <Range Index="13" Min="8.1773179879359171e-30" Max="1.8339346923828125e+03"/>
          <Range Index="14" Min="-3.9840397834777832e+00" Max="3.6351752281188965e+00"/>
          <Range Index="15" Min="0.0000000000000000e+00" Max="4.2603518676757812e+02"/>
          <Range Index="16" Min="3.2098537683486938e-01" Max="1.9626014709472656e+02"/>
          <Range Index="17" Min="-3.1391832828521729e+00" Max="3.1320466995239258e+00"/>
          <Range Index="18" Min="0.0000000000000000e+00" Max="2.0000000000000000e+00"/>
          <Range Index="19" Min="6.5027847290039062e+01" Max="9.4883247375488281e+01"/>
          <Range Index="20" Min="0.0000000000000000e+00" Max="2.0000000000000000e+00"/>
        </Ranges>
      </Class>
      <Class ClassIndex="2">
        <Ranges>
          <Range Index="0" Min="2.0000000000000000e+00" Max="1.4000000000000000e+01"/>
          <Range Index="1" Min="5.2626495361328125e+01" Max="1.9371424560546875e+03"/>
          <Range Index="2" Min="2.5338888168334961e+01" Max="7.7189312744140625e+02"/>
          <Range Index="3" Min="2.3457868576049805e+01" Max="6.2318218994140625e+02"/>
          <Range Index="4" Min="0.0000000000000000e+00" Max="2.8522045898437500e+02"/>
          <Range Index="5" Min="0.0000000000000000e+00" Max="1.7067713928222656e+02"/>
          <Range Index="6" Min="0.0000000000000000e+00" Max="1.2469961547851562e+02"/>
          <Range Index="7" Min="5.3250772180035710e-04" Max="8.6465877294540405e-01"/>
          <Range Index="8" Min="-4.6598209735293494e-08" Max="3.3420190215110779e-01"/>
          <Range Index="9" Min="5.7923104614019394e-02" Max="4.4020223617553711e-01"/>
          <Range Index="10" Min="-2.4968749284744263e-01" Max="2.6829728484153748e-01"/>
          <Range Index="11" Min="-1.1539882421493530e-01" Max="3.6494380235671997e-01"/>
          <Range Index="12" Min="-2.4967886507511139e-01" Max="2.3736561834812164e-01"/>
          <Range Index="13" Min="8.1773179879359171e-30" Max="1.8339346923828125e+03"/>
          <Range Index="14" Min="-3.9840397834777832e+00" Max="3.6351752281188965e+00"/>
          <Range Index="15" Min="0.0000000000000000e+00" Max="6.7680047607421875e+02"/>
          <Range Index="16" Min="3.2098537683486938e-01" Max="4.3343099975585938e+02"/>
          <Range Index="17" Min="-3.1391832828521729e+00" Max="3.1397490501403809e+00"/>
          <Range Index="18" Min="0.0000000000000000e+00" Max="2.0000000000000000e+00"/>
          <Range Index="19" Min="6.5027847290039062e+01" Max="9.4983955383300781e+01"/>
          <Range Index="20" Min="0.0000000000000000e+00" Max="4.0000000000000000e+00"/>
        </Ranges>
      </Class>
    </Transform>
  </Transformations>
  <MVAPdfs/>
  <Weights>
    <Layout NLayers="3">
      <Layer Index="0" NNeurons="22">
        <Neuron NSynapses="26">
          -3.3977736017886856e-01 2.0240421047376844e+00 5.4131173116800180e-01 1.1485666247982389e+00 -1.9008329146638732e+00 -1.5854468082527045e+00 -7.9189300522247297e-01 3.2445178363268323e+00 -1.2281036723002619e+00 -1.7270300618766035e+00 -9.0060230914049888e-01 -1.6554629344601113e+00 -1.2260331735698393e+00 1.0197501081002529e+00 -6.2635036868593996e-01 3.0447100377789760e-01 -4.3738768178816900e-01 2.3852544062285750e+00 1.1450847254169181e+00 1.3508685113175731e+00 -1.2851471434555362e+00 -6.7035596787855856e-01 5.1271503522627204e-01 2.4789613541789027e-01 -6.2516380018567919e-01 -9.2263385670191411e-01 
        </Neuron>
        <Neuron NSynapses="26">
          1.5009464745870325e+00 -1.0214879670918151e+00 -1.0999013427353167e-01 -1.4628242533061744e+00 4.8996481741576253e-01 1.8130655486289935e+00 -3.6002411311206889e-01 -5.9773247245318128e-01 8.2589935119182178e-01 -6.3096406606622291e-01 -6.3795569512083039e-01 1.7168932301358315e+00 -1.2596523412585336e+00 1.0892901668225783e+00 1.3326624482555480e+00 8.7963651052026481e-01 1.4416528719863373e+00 1.0923686982695433e+00 -1.1267226482616843e+00 -1.6196089853644593e+00 2.6501260622003794e-03 2.5868098628246033e-01 1.4031410106247348e+00 1.4303205506075283e+00 1.7910897652834701e+00 4.7027203137007489e-01 
        </Neuron>
        <Neuron NSynapses="26">
          -1.6742772288683603e+00 1.4140822635012229e+00 -3.7871849478570163e-01 -1.2377970703013721e+00 -1.4640801144142142e+00 -1.4307396779140369e+00 1.4657954340953954e+00 -8.6874829651376406e-01 -1.3396007469494091e+00 6.7246285962502372e-01 1.0950276844245623e-02 5.8823763937190976e-01 1.7215775227696006e+00 -7.6294101378578971e-01 -7.4564933799649680e-02 -1.2019552126281445e+00 1.0900912932160274e+00 -1.5241920981965844e+00 -7.8055256694817032e-01 -1.4260249934267319e+00 2.1417677766700483e-01 1.8238482503302162e+00 1.4534717834102437e+00 -4.7439514574465491e-01 -1.7206047551225523e+00 -1.6544265241518588e+00 
        </Neuron>
        <Neuron NSynapses="26">
          9.8391417111812729e-01 6.1200427965752324e-01 1.3536760415919995e+00 7.9226576000797888e-01 9.4276552685788073e-01 -5.1767251477348941e-01 -9.4324357597211061e-01 1.0263671688148386e-01 1.3251655949134382e+00 9.5263271688426565e-01 -2.3803561818926782e+00 -9.5604742065959625e-01 -2.5542507820316096e-01 -9.7020116045124806e-05 1.5099596505380346e+00 -1.5188713179306859e+00 -1.3581322330414745e+00 9.9463997454894149e-01 -5.7721998677299280e-01 -1.5559399388684236e+00 -1.5498978568329942e+00 3.5928342583292794e-01 -1.7913743548234498e+00 -1.7285929296499667e+00 9.1021453928780927e-01 1.0609317248654859e+00 
        </Neuron>
        <Neuron NSynapses="26">
          -1.1622416584600190e+00 1.7172491919097330e+00 1.8735255626977265e-01 -1.8470392990516549e+00 -2.0734862605990287e-01 1.4845261283888522e-01 -1.7826508557519172e+00 1.0444000245109495e+00 5.3894528134535702e-01 7.0114866804962217e-01 -1.4476546021203729e+00 2.5219915927990528e+00 3.5630669636216539e-01 -1.0696716643278450e+00 9.0354645234864339e-01 -9.7786766497141142e-01 -1.5980444118075112e+00 -8.2729586696572988e-02 -1.1570790292961355e+00 1.8546899315614136e+00 3.1105616934336461e-01 -8.8029297375296120e-02 -4.2816672693446534e-01 2.1212416329776876e-01 -1.5335134706179094e+00 -1.3100730091749058e-01 
        </Neuron>
        <Neuron NSynapses="26">
          1.3807235371881091e-01 -1.7714101206063959e+00 9.1559968655060942e-01 -2.4059716831402325e+00 -2.2087454289031341e-01 9.0314225810005044e-01 1.8047450767982236e+00 1.1804200303387764e+00 5.6507190782562766e-01 6.3583842556447079e-01 2.8070173245606074e+00 -1.3247653423172390e+00 -1.4221833280242648e+00 3.0899980404190336e-01 -1.6916238094424867e+00 9.6095905950989735e-01 2.2197598932169833e+00 -6.4979090538246198e-01 -1.0886924591311504e+00 2.1577223691155226e-01 -1.6580075500973990e+00 1.4144855354114803e+00 9.3110061106437059e-01 -6.2370446461711027e-01 -3.0481340809995583e-01 -9.1511912443331944e-01 
        </Neuron>
        <Neuron NSynapses="26">
          9.9771357005661065e-01 6.1310401017594818e-01 -8.1753945047134136e-01 -7.2737110777962932e-01 1.1646712598349984e+00 5.9169833199246469e-01 4.8460218606450589e-01 3.4503635072793232e-01 1.6288397326385253e+00 -5.0216493797084694e-01 3.0414888050098305e-02 2.6856065609505295e-02 -1.1738700003930997e+00 -1.6334240528455832e+00 1.6199550987106308e+00 7.7563741569943367e-01 -5.0703729291355394e-02 2.7002068171017326e+00 3.7592712710377123e+00 -1.9212185950363827e+00 -2.0731606453867507e-01 1.7611952637420814e-01 5.4519799090942789e-02 -1.6954701916084749e+00 -8.0913530489893137e-01 1.6506477085695768e+00 
        </Neuron>
        <Neuron NSynapses="26">
          1.8083068101548829e+00 -1.6010502142117660e+00 -9.1595202174974377e-01 -3.2403804372499651e-01 7.4892437860973227e-01 1.1599473767681625e+00 -3.7989227191893543e-01 -1.3053256674734433e+00 -1.9868634693346123e+00 1.1194096285950770e+00 4.8513282277798220e-01 5.1544324730624480e-01 3.1282319904677652e-01 -1.2917687094481771e+00 -2.0045819554274313e+00 8.2431794775350808e-01 3.4659296595531397e-01 9.4763701262026045e-02 -4.6679863108516495e-01 2.1824513873843962e-01 1.4550314500409272e+00 -2.0179518674990260e+00 1.9301735466240773e+00 1.0872358833646625e+00 -7.6618970621388904e-01 8.9557255374284817e-01 
        </Neuron>
        <Neuron NSynapses="26">
          1.6277483171112792e+00 1.2262831496556068e+00 1.3956944384583942e+00 1.3934760876497685e+00 -1.9742607938315846e+00 -5.0483705740501572e-01 1.6865945708478451e+00 1.4222246211257639e+00 6.3466572240518437e-01 2.4330383152565110e-01 3.0799874894511010e+00 -1.6603870506104537e+00 -1.3261996020132800e+00 -1.8183984814600986e+00 -1.0162406605419338e+00 7.3249806492932124e-01 2.2355347341095122e+00 2.6027536940963436e-01 9.7004579743976038e-01 -2.8590258090270149e-01 -1.7528304819186418e+00 -2.0914495077317605e+00 1.1329524545484022e+00 2.3942912404358757e-01 1.1348150119810847e+00 -1.2562872056362253e+00 
        </Neuron>
        <Neuron NSynapses="26">
          1.7093525443637447e+00 -1.8307279442987188e+00 -5.0951415700354045e-02 -1.2634196872539438e-01 -1.1267219134400275e+00 -1.7602249790805340e+00 -1.8299786925465922e+00 2.1337740516473960e-01 -2.7048373986695773e+00 -1.4088875112592192e+00 -2.7004799801158934e+00 6.0318330787971453e-01 -8.5995774333264241e-01 -1.9398294411864594e+00 1.0397805519703702e+00 -8.8642183512077688e-01 -1.7483686075615856e-01 -1.0321533290641940e+00 4.4113142758380069e-01 1.9057814371158137e+00 1.8054379887468410e+00 -9.4041768201132347e-01 -1.6298703336901061e+00 -1.0698493368968212e+00 -1.0455471163054586e+00 -2.8017115522528009e+00 
        </Neuron>
        <Neuron NSynapses="26">
          3.3673421672108511e-01 3.6957175672699999e-01 3.2220197942797371e+00 1.9019488194985041e+00 1.4334368513624114e+00 -4.1272479093701514e-01 -1.9475984326647431e+00 -1.4466879466328269e-03 1.8694333437520978e+00 6.0146996568026723e-01 -1.8066027162536207e+00 1.5707645608727687e+00 1.3297383345737146e+00 1.4506181556797285e-01 -8.0276319427203383e-02 -1.2369782095784031e-01 2.8167777580228410e+00 1.7481616246511911e+00 -1.3742491038547355e-01 -3.7893976098937288e-01 -8.0476424842152849e-01 4.9577362810265230e-02 -1.5682284043328791e+00 -5.7710185796592983e-02 -1.5196197477465678e+00 -3.0040580507917811e+00 
        </Neuron>
        <Neuron NSynapses="26">
          -1.5161332165168182e+00 1.7459679633196772e+00 -1.0866656344680672e+00 5.4906085866463450e-01 -1.1949341450790143e+00 1.9111343904602715e-01 -1.1037604158192404e+00 6.6734045081508198e-01 2.0382295613923933e+00 -1.9649464577051607e+00 -1.0059881810858169e+00 4.6599306397985374e-01 -1.9609825157974827e+00 3.4021381605015233e-01 -2.0543246571452767e+00 -9.3452533880524224e-01 1.0714908603976416e+00 3.2266809130862745e-01 5.3035384305997346e-01 -8.8984528479713365e-01 -1.5534874809213710e+00 -1.8995248055183149e+00 -1.6687791326514185e+00 -1.9727875863895581e+00 7.8219449757892523e-01 -1.4421317500959587e+00 
        </Neuron>
        <Neuron NSynapses="26">
          -1.2240143024622885e+00 1.7694704200038531e+00 -9.1132908410640900e-01 6.1722012360063572e-01 2.0885054351483823e+00 -1.0503123869507829e+00 1.4008876534435508e+00 4.2480637295535528e-01 -9.2441420114209971e-01 -1.2752167938550729e+00 -1.3694149640155855e+00 -3.7656426549318278e-01 3.8580625009969011e-01 2.7504677111418578e+00 -9.5044818465577038e-02 1.7667947079959008e+00 -1.0767291271853010e+00 1.2297756402560844e+00 -9.2330451106061329e-01 4.5124021792494268e-01 -2.0097489619574000e+00 -1.5432362749486215e+00 2.8434943389097445e-01 1.7934631700671979e+00 4.4860836970074697e-01 3.0381171429052262e-01 
        </Neuron>
        <Neuron NSynapses="26">
          2.5611269132174397e-01 -4.3979579813525918e-02 -1.7685347414875128e+00 1.6674772759765317e+00 1.8763113481309019e+00 -9.2821163565105858e-01 2.8029911323180340e-01 -5.3724092969411819e-01 -1.4396607692930286e-01 5.0956059356926497e-01 -3.1521461432642611e-01 -2.6858384291383214e-01 9.0712326301478985e-01 1.3544586644519250e+00 1.7669354114374439e-01 4.1484582341918719e-01 -1.1819533114394001e+00 -1.7088408621268192e+00 -1.0838509717399232e+00 9.1535251080450031e-01 -1.1518443671342833e+00 -3.4632618081350869e-01 8.3032257249248442e-01 -1.1340302186388942e+00 -9.9569275039214022e-01 -8.2490325342072301e-01 
        </Neuron>
        <Neuron NSynapses="26">
          1.0133141603125455e+00 -1.4379827032380863e+00 -6.2561952915288843e-01 5.2767203631391479e-01 -8.6667885219390439e-01 -1.4071759228373635e+00 1.2053739598539959e+00 -1.3968529795592588e+00 -6.9806679009216732e-01 1.2339043391892064e+00 1.0747675881050556e+00 -2.7470483728802447e-01 1.1686215453117803e-01 1.0155314503874839e+00 5.2465011191106348e-01 1.2841164085534276e+00 -1.9052401692746473e-01 -4.2997039598071807e-01 -4.4447161841185001e-01 8.4200472928625003e-01 8.9566289473038396e-01 -4.2325163113083730e-01 1.1489864401850320e+00 1.1345423519906404e+00 1.1789926982608905e+00 -2.3426471956507360e+00 
        </Neuron>
        <Neuron NSynapses="26">
          1.7173927310068333e+00 8.4928610941498639e-01 -1.0496651858643005e+00 -1.7002719747455646e+00 -1.4051754411215607e+00 9.3930419139293231e-01 4.0127830783913554e-01 1.5697449158554677e+00 5.7804644649366432e-01 -1.5980695733483232e+00 2.1103658818671316e+00 1.0408864305558814e+00 1.6200723295142799e-01 -1.2737557881720765e+00 2.1350366379621497e+00 -2.1288133374396105e+00 -1.1223123028087612e-01 1.5566070687526348e+00 9.2842503222191142e-01 -9.3515764674120727e-01 1.0010542191276597e+00 -1.6189393639288012e+00 4.8729763919301250e-01 -1.3141169942576931e+00 3.7935975315761689e-01 -1.3419860902797380e+00 
        </Neuron>
        <Neuron NSynapses="26">
          1.6891831037689466e+00 1.3906010431907687e+00 4.0249015396333592e+00 -3.1379706862392651e+00 -1.5962211790283329e-01 1.0428502550923044e+00 1.8165985381655243e+00 -4.2607061737459109e+00 -1.1368864036921662e+00 -3.0360747438156759e+00 -8.8436633401296327e-01 -1.0073422697137958e-01 -1.4871083168491315e+00 -4.5950377929838426e-01 -3.1048287082195986e-01 -2.2576934150792733e+00 -1.7361151523733556e+00 1.4998522005208823e-01 1.2364299623642327e+00 1.7549407534326973e+00 5.9157797843691584e-01 -4.8363681740945935e-02 -1.7823961421210655e+00 1.2801840738894843e-01 -9.5216731431005497e-01 -9.6411491554210349e-01 
        </Neuron>
        <Neuron NSynapses="26">
          -6.6997184836884272e-01 -1.1491625109995782e-01 -9.0806741143861358e-01 6.0916767453379872e-01 1.5016546820217593e+00 -2.4451820662274248e-01 -6.2936599955018402e-01 1.5980431503973125e-01 2.0617531593717753e+00 -1.1605648331919900e+00 -8.1892045341416231e-01 1.4437177397256311e+00 1.6929898353692412e+00 -4.4799265698648766e-01 6.9975870189609912e-01 -1.8219295850165336e+00 2.2184020793726993e+00 2.6129838388848645e+00 -5.5923708840596789e-02 -2.9096959640595171e-01 -6.2380423238842808e-01 3.6470967594138709e-01 1.0670587534938767e+00 6.4440295730621222e-01 -2.8425567204321578e-01 -2.4052297158736780e+00 
        </Neuron>
        <Neuron NSynapses="26">
          -5.9337703771820689e-02 1.6326775932825157e+00 -6.7475461112291163e-02 -3.2346265012178993e-01 -2.0756231955045479e+00 3.9733129408036452e+00 2.3925540934755479e-01 -1.1169827633310214e+00 8.2998421267141784e-02 -1.4909586124068852e+00 8.8814930969455508e-01 2.9107579655321056e+00 -7.5059036455965178e-01 -1.5156406007490826e+00 2.7171284859031375e+00 1.0125309473615656e+00 4.3341270192038628e-01 -1.1947657412446379e-01 -9.1156212752818344e-01 -1.6899757131315136e+00 1.8253447026567216e+00 9.5924593806488978e-01 1.4505278564255036e-01 -9.7082577122018776e-01 -3.3011960298189744e+00 -9.5924415749993830e-01 
        </Neuron>
        <Neuron NSynapses="26">
          -3.1950179974752191e-01 -1.6605643000044643e+00 9.8440613083023654e-01 9.8706652541128559e-01 1.5913276933966285e+00 5.7804826928143882e-01 -2.0562931072261481e+00 6.9576932303019656e-01 7.9845902991889051e-01 -4.7741821161892356e-01 -1.3248247854790391e+00 -1.7069034504778988e+00 1.9056070269830492e+00 -1.1470270112814205e+00 3.2642286022858902e-01 -1.7339358289443763e+00 8.4257143091169351e-01 -4.2947475365135368e-01 3.2758328645724116e-01 -1.5415352327304435e-01 -8.5599783869510626e-01 -1.4674470878843049e+00 -7.6954058845405138e-01 1.2662733787498910e+00 1.4173376228109882e-01 3.7332766880702517e-01 
        </Neuron>
        <Neuron NSynapses="26">
          9.9486779282823434e-01 -1.5962962718959133e+00 1.2568619859010717e+00 -1.0609816689186224e+00 1.5221785157132548e+00 8.4895115275524768e-01 8.2396812920019080e-01 1.2789130213526800e+00 1.2721950962080832e+00 -1.8514063113273658e+00 -1.2307721239561291e+00 -1.9623607724689642e+00 6.8288548954897932e-01 -1.7983098614769213e+00 1.0238159169610235e+00 -8.9693243332968209e-01 -1.4135185344759227e+00 3.0597992134527446e-01 -2.6274080667190178e+00 -1.8667779076265947e+00 -9.9733057907214140e-01 -7.4498764588728103e-02 -7.9162887458187958e-01 -1.9373269118171330e+00 9.0193183660337617e-01 9.2447446296116886e-01 
        </Neuron>
        <Neuron NSynapses="26">
          -2.5532800261781197e-01 -1.4550385979025720e+00 4.4054403801657713e+00 -6.1515683376168182e+00 3.6568700071633681e-01 -1.2209882947167293e-01 -1.1305010766486057e+00 -2.3002570401516542e+00 5.0486987816114359e-01 -5.0608883673291887e+00 6.6631241216780790e-01 -2.5253028157987236e+00 1.1824082941424057e+00 -2.7065025866938646e+00 2.2794447268093254e+00 2.1186656595382116e+00 4.4185716790217336e-02 1.9011384883479410e+00 4.9390049896496796e-01 2.7248430874296620e-01 -1.4153189155034851e+00 -2.4466428001868787e+00 -1.0730295616384282e+00 -1.0817630888849274e+00 1.1629146949512035e+00 -2.0149242227069379e+00 
        </Neuron>
      </Layer>
      <Layer Index="1" NNeurons="27">
        <Neuron NSynapses="1">
          5.9269825617619336e-02 
        </Neuron>
        <Neuron NSynapses="1">
          1.3588154734566997e+00 
        </Neuron>
        <Neuron NSynapses="1">
          3.0847983146122622e+00 
        </Neuron>
        <Neuron NSynapses="1">
          -3.3294273192068395e+00 
        </Neuron>
        <Neuron NSynapses="1">
          -5.9486516002812628e-02 
        </Neuron>
        <Neuron NSynapses="1">
          -2.4189989409422359e+00 
        </Neuron>
        <Neuron NSynapses="1">
          9.5915946549213238e-01 
        </Neuron>
        <Neuron NSynapses="1">
          -3.7421289361028487e+00 
        </Neuron>
        <Neuron NSynapses="1">
          1.9071948609916514e+00 
        </Neuron>
        <Neuron NSynapses="1">
          -3.5603955094654505e+00 
        </Neuron>
        <Neuron NSynapses="1">
          2.6777779271363928e+00 
        </Neuron>
        <Neuron NSynapses="1">
          -3.3648657875502668e+00 
        </Neuron>
        <Neuron NSynapses="1">
          -4.5706151963607383e-01 
        </Neuron>
        <Neuron NSynapses="1">
          -2.7441764555345363e+00 
        </Neuron>
        <Neuron NSynapses="1">
          1.6613807167948640e+00 
        </Neuron>
        <Neuron NSynapses="1">
          1.4899643334874235e+00 
        </Neuron>
        <Neuron NSynapses="1">
          -2.2246321720317948e+00 
        </Neuron>
        <Neuron NSynapses="1">
          1.7058547275078502e+00 
        </Neuron>
        <Neuron NSynapses="1">
          -3.3035539073305666e+00 
        </Neuron>
        <Neuron NSynapses="1">
          9.1831951337759188e-01 
        </Neuron>
        <Neuron NSynapses="1">
          -2.7360580991426016e+00 
        </Neuron>
        <Neuron NSynapses="1">
          -2.1183408913915058e+00 
        </Neuron>
        <Neuron NSynapses="1">
          -1.7328639195941882e+00 
        </Neuron>
        <Neuron NSynapses="1">
          -1.7705127952027369e+00 
        </Neuron>
        <Neuron NSynapses="1">
          2.3034884592391025e+00 
        </Neuron>
        <Neuron NSynapses="1">
          -2.5296828618418994e+00 
        </Neuron>
        <Neuron NSynapses="1">
          -1.2545880021293052e+00 
        </Neuron>
      </Layer>
      <Layer Index="2" NNeurons="1">
        <Neuron NSynapses="0"/>
      </Layer>
    </Layout>
  </Weights>
</MethodSetup>
