<?xml version="1.0"?>
<MethodSetup Method="DNN::DNN CPU">
  <GeneralInfo>
    <Info name="TMVA Release" value="4.2.1 [262657]"/>
    <Info name="ROOT Release" value="6.12/06 [396294]"/>
    <Info name="Creator" value="boraisildak"/>
    <Info name="Date" value="Mon Aug 27 16:42:25 2018"/>
    <Info name="Host" value="Darwin ElCapitan-2.local 15.6.0 Darwin Kernel Version 15.6.0: Tue Jan 9 20:12:05 PST 2018; root:xnu-3248.73.5~1/RELEASE_X86_64 x86_64"/>
    <Info name="Dir" value="/Users/boraisildak/Documents/Github/SMCEDM/Analysis"/>
    <Info name="Training events" value="2000"/>
    <Info name="TrainingTime" value="2.07690907e+00"/>
    <Info name="AnalysisType" value="Classification"/>
  </GeneralInfo>
  <Options>
    <Option name="V" modified="Yes">True</Option>
    <Option name="VerbosityLevel" modified="No">Verbose</Option>
    <Option name="VarTransform" modified="Yes">N</Option>
    <Option name="H" modified="Yes">False</Option>
    <Option name="CreateMVAPdfs" modified="No">False</Option>
    <Option name="IgnoreNegWeightsInTraining" modified="No">False</Option>
    <Option name="Layout" modified="Yes">TANH|128,TANH|128,TANH|128,LINEAR</Option>
    <Option name="ValidationSize" modified="No">20%</Option>
    <Option name="ErrorStrategy" modified="Yes">CROSSENTROPY</Option>
    <Option name="WeightInitialization" modified="Yes">XAVIERUNIFORM</Option>
    <Option name="Architecture" modified="Yes">CPU</Option>
    <Option name="TrainingStrategy" modified="Yes">LearningRate=1e-1,Momentum=0.9,Repetitions=1,ConvergenceSteps=20,BatchSize=256,TestRepetitions=10,WeightDecay=1e-4,Regularization=L2,DropConfig=0.0+0.5+0.5+0.5,</Option>
  </Options>
  <Variables NVar="21">
    <Variable VarIndex="0" Expression="nJets" Label="nJets" Title="nJets" Unit="" Internal="nJets" Type="F" Min="2.00000000e+00" Max="1.40000000e+01"/>
    <Variable VarIndex="1" Expression="ht" Label="ht" Title="ht" Unit="" Internal="ht" Type="F" Min="4.45096207e+01" Max="1.93714246e+03"/>
    <Variable VarIndex="2" Expression="jetPt[0]" Label="jetPt[0]" Title="jetPt[0]" Unit="" Internal="jetPt_0_" Type="F" Min="2.41180973e+01" Max="7.71893127e+02"/>
    <Variable VarIndex="3" Expression="jetPt[1]" Label="jetPt[1]" Title="jetPt[1]" Unit="" Internal="jetPt_1_" Type="F" Min="2.28374901e+01" Max="6.23182190e+02"/>
    <Variable VarIndex="4" Expression="jetPt[2]" Label="jetPt[2]" Title="jetPt[2]" Unit="" Internal="jetPt_2_" Type="F" Min="0.00000000e+00" Max="2.85220459e+02"/>
    <Variable VarIndex="5" Expression="jetPt[3]" Label="jetPt[3]" Title="jetPt[3]" Unit="" Internal="jetPt_3_" Type="F" Min="0.00000000e+00" Max="2.12022690e+02"/>
    <Variable VarIndex="6" Expression="jetPt[4]" Label="jetPt[4]" Title="jetPt[4]" Unit="" Internal="jetPt_4_" Type="F" Min="0.00000000e+00" Max="1.24699615e+02"/>
    <Variable VarIndex="7" Expression="sphericity" Label="sphericity" Title="sphericity" Unit="" Internal="sphericity" Type="F" Min="7.21735239e-04" Max="8.64658773e-01"/>
    <Variable VarIndex="8" Expression="aplanarity" Label="aplanarity" Title="aplanarity" Unit="" Internal="aplanarity" Type="F" Min="-4.65982097e-08" Max="3.35540742e-01"/>
    <Variable VarIndex="9" Expression="foxWolfram[0]" Label="foxWolfram[0]" Title="foxWolfram[0]" Unit="" Internal="foxWolfram_0_" Type="F" Min="7.90046006e-02" Max="4.40202236e-01"/>
    <Variable VarIndex="10" Expression="foxWolfram[1]" Label="foxWolfram[1]" Title="foxWolfram[1]" Unit="" Internal="foxWolfram_1_" Type="F" Min="-2.48954862e-01" Max="3.16777438e-01"/>
    <Variable VarIndex="11" Expression="foxWolfram[2]" Label="foxWolfram[2]" Title="foxWolfram[2]" Unit="" Internal="foxWolfram_2_" Type="F" Min="-1.21386588e-01" Max="3.64943802e-01"/>
    <Variable VarIndex="12" Expression="foxWolfram[3]" Label="foxWolfram[3]" Title="foxWolfram[3]" Unit="" Internal="foxWolfram_3_" Type="F" Min="-2.48340532e-01" Max="3.14699084e-01"/>
    <Variable VarIndex="13" Expression="mTop" Label="mTop" Title="mTop" Unit="" Internal="mTop" Type="F" Min="-8.34194706e+27" Max="3.19336646e+03"/>
    <Variable VarIndex="14" Expression="yTop" Label="yTop" Title="yTop" Unit="" Internal="yTop" Type="F" Min="-8.34200845e+27" Max="3.01739502e+00"/>
    <Variable VarIndex="15" Expression="ptTop" Label="ptTop" Title="ptTop" Unit="" Internal="ptTop" Type="F" Min="4.59149455e-41" Max="6.76800476e+02"/>
    <Variable VarIndex="16" Expression="met" Label="met" Title="met" Unit="" Internal="met" Type="F" Min="4.51787055e-01" Max="4.33431000e+02"/>
    <Variable VarIndex="17" Expression="metPhi" Label="metPhi" Title="metPhi" Unit="" Internal="metPhi" Type="F" Min="-3.13975978e+00" Max="3.14128661e+00"/>
    <Variable VarIndex="18" Expression="nLeptons" Label="nLeptons" Title="nLeptons" Unit="" Internal="nLeptons" Type="F" Min="0.00000000e+00" Max="2.00000000e+00"/>
    <Variable VarIndex="19" Expression="mW" Label="mW" Title="mW" Unit="" Internal="mW" Type="F" Min="6.50335159e+01" Max="9.49839554e+01"/>
    <Variable VarIndex="20" Expression="nBJets" Label="nBJets" Title="nBJets" Unit="" Internal="nBJets" Type="F" Min="0.00000000e+00" Max="4.00000000e+00"/>
  </Variables>
  <Spectators NSpec="0"/>
  <Classes NClass="2">
    <Class Name="Signal" Index="0"/>
    <Class Name="Background" Index="1"/>
  </Classes>
  <Transformations NTransformations="1">
    <Transform Name="Normalize">
      <Selection>
        <Input NInputs="21">
          <Input Type="Variable" Label="nJets" Expression="nJets"/>
          <Input Type="Variable" Label="ht" Expression="ht"/>
          <Input Type="Variable" Label="jetPt[0]" Expression="jetPt[0]"/>
          <Input Type="Variable" Label="jetPt[1]" Expression="jetPt[1]"/>
          <Input Type="Variable" Label="jetPt[2]" Expression="jetPt[2]"/>
          <Input Type="Variable" Label="jetPt[3]" Expression="jetPt[3]"/>
          <Input Type="Variable" Label="jetPt[4]" Expression="jetPt[4]"/>
          <Input Type="Variable" Label="sphericity" Expression="sphericity"/>
          <Input Type="Variable" Label="aplanarity" Expression="aplanarity"/>
          <Input Type="Variable" Label="foxWolfram[0]" Expression="foxWolfram[0]"/>
          <Input Type="Variable" Label="foxWolfram[1]" Expression="foxWolfram[1]"/>
          <Input Type="Variable" Label="foxWolfram[2]" Expression="foxWolfram[2]"/>
          <Input Type="Variable" Label="foxWolfram[3]" Expression="foxWolfram[3]"/>
          <Input Type="Variable" Label="mTop" Expression="mTop"/>
          <Input Type="Variable" Label="yTop" Expression="yTop"/>
          <Input Type="Variable" Label="ptTop" Expression="ptTop"/>
          <Input Type="Variable" Label="met" Expression="met"/>
          <Input Type="Variable" Label="metPhi" Expression="metPhi"/>
          <Input Type="Variable" Label="nLeptons" Expression="nLeptons"/>
          <Input Type="Variable" Label="mW" Expression="mW"/>
          <Input Type="Variable" Label="nBJets" Expression="nBJets"/>
        </Input>
        <Output NOutputs="21">
          <Output Type="Variable" Label="nJets" Expression="nJets"/>
          <Output Type="Variable" Label="ht" Expression="ht"/>
          <Output Type="Variable" Label="jetPt[0]" Expression="jetPt[0]"/>
          <Output Type="Variable" Label="jetPt[1]" Expression="jetPt[1]"/>
          <Output Type="Variable" Label="jetPt[2]" Expression="jetPt[2]"/>
          <Output Type="Variable" Label="jetPt[3]" Expression="jetPt[3]"/>
          <Output Type="Variable" Label="jetPt[4]" Expression="jetPt[4]"/>
          <Output Type="Variable" Label="sphericity" Expression="sphericity"/>
          <Output Type="Variable" Label="aplanarity" Expression="aplanarity"/>
          <Output Type="Variable" Label="foxWolfram[0]" Expression="foxWolfram[0]"/>
          <Output Type="Variable" Label="foxWolfram[1]" Expression="foxWolfram[1]"/>
          <Output Type="Variable" Label="foxWolfram[2]" Expression="foxWolfram[2]"/>
          <Output Type="Variable" Label="foxWolfram[3]" Expression="foxWolfram[3]"/>
          <Output Type="Variable" Label="mTop" Expression="mTop"/>
          <Output Type="Variable" Label="yTop" Expression="yTop"/>
          <Output Type="Variable" Label="ptTop" Expression="ptTop"/>
          <Output Type="Variable" Label="met" Expression="met"/>
          <Output Type="Variable" Label="metPhi" Expression="metPhi"/>
          <Output Type="Variable" Label="nLeptons" Expression="nLeptons"/>
          <Output Type="Variable" Label="mW" Expression="mW"/>
          <Output Type="Variable" Label="nBJets" Expression="nBJets"/>
        </Output>
      </Selection>
      <Class ClassIndex="0">
        <Ranges>
          <Range Index="0" Min="2.0000000000000000e+00" Max="1.4000000000000000e+01"/>
          <Range Index="1" Min="1.1878989410400391e+02" Max="1.9371424560546875e+03"/>
          <Range Index="2" Min="3.5916069030761719e+01" Max="7.7189312744140625e+02"/>
          <Range Index="3" Min="3.0643133163452148e+01" Max="6.2318218994140625e+02"/>
          <Range Index="4" Min="0.0000000000000000e+00" Max="2.8522045898437500e+02"/>
          <Range Index="5" Min="0.0000000000000000e+00" Max="1.7067713928222656e+02"/>
          <Range Index="6" Min="0.0000000000000000e+00" Max="1.2469961547851562e+02"/>
          <Range Index="7" Min="2.3813499137759209e-03" Max="8.6465877294540405e-01"/>
          <Range Index="8" Min="-1.1888646511692968e-08" Max="3.3420190215110779e-01"/>
          <Range Index="9" Min="1.0946169495582581e-01" Max="4.4020223617553711e-01"/>
          <Range Index="10" Min="-1.9575169682502747e-01" Max="2.6829728484153748e-01"/>
          <Range Index="11" Min="-6.1902064830064774e-02" Max="3.6494380235671997e-01"/>
          <Range Index="12" Min="-1.8553806841373444e-01" Max="2.2340098023414612e-01"/>
          <Range Index="13" Min="8.5399467468261719e+01" Max="9.9571307373046875e+02"/>
          <Range Index="14" Min="-2.8380181789398193e+00" Max="2.9021801948547363e+00"/>
          <Range Index="15" Min="2.2337939739227295e+00" Max="6.7680047607421875e+02"/>
          <Range Index="16" Min="8.8367205858230591e-01" Max="4.3343099975585938e+02"/>
          <Range Index="17" Min="-3.1360762119293213e+00" Max="3.1397490501403809e+00"/>
          <Range Index="18" Min="0.0000000000000000e+00" Max="1.0000000000000000e+00"/>
          <Range Index="19" Min="6.5033592224121094e+01" Max="9.4983955383300781e+01"/>
          <Range Index="20" Min="0.0000000000000000e+00" Max="4.0000000000000000e+00"/>
        </Ranges>
      </Class>
      <Class ClassIndex="1">
        <Ranges>
          <Range Index="0" Min="2.0000000000000000e+00" Max="9.0000000000000000e+00"/>
          <Range Index="1" Min="4.4509620666503906e+01" Max="1.2944295654296875e+03"/>
          <Range Index="2" Min="2.4118097305297852e+01" Max="3.4239309692382812e+02"/>
          <Range Index="3" Min="2.2837490081787109e+01" Max="2.9655590820312500e+02"/>
          <Range Index="4" Min="0.0000000000000000e+00" Max="2.6743374633789062e+02"/>
          <Range Index="5" Min="0.0000000000000000e+00" Max="2.1202268981933594e+02"/>
          <Range Index="6" Min="0.0000000000000000e+00" Max="7.8596153259277344e+01"/>
          <Range Index="7" Min="7.2173523949459195e-04" Max="8.5045850276947021e-01"/>
          <Range Index="8" Min="-4.6598209735293494e-08" Max="3.3554074168205261e-01"/>
          <Range Index="9" Min="7.9004600644111633e-02" Max="4.3145501613616943e-01"/>
          <Range Index="10" Min="-2.4895486235618591e-01" Max="3.1677743792533875e-01"/>
          <Range Index="11" Min="-1.2138658761978149e-01" Max="3.3039709925651550e-01"/>
          <Range Index="12" Min="-2.4834053218364716e-01" Max="3.1469908356666565e-01"/>
          <Range Index="13" Min="-8.3419470551936394e+27" Max="3.1933664550781250e+03"/>
          <Range Index="14" Min="-8.3420084459579167e+27" Max="3.0173950195312500e+00"/>
          <Range Index="15" Min="4.5914945482066956e-41" Max="4.9329898071289062e+02"/>
          <Range Index="16" Min="4.5178705453872681e-01" Max="2.7346740722656250e+02"/>
          <Range Index="17" Min="-3.1397597789764404e+00" Max="3.1412866115570068e+00"/>
          <Range Index="18" Min="0.0000000000000000e+00" Max="2.0000000000000000e+00"/>
          <Range Index="19" Min="6.5033515930175781e+01" Max="9.4843040466308594e+01"/>
          <Range Index="20" Min="0.0000000000000000e+00" Max="2.0000000000000000e+00"/>
        </Ranges>
      </Class>
      <Class ClassIndex="2">
        <Ranges>
          <Range Index="0" Min="2.0000000000000000e+00" Max="1.4000000000000000e+01"/>
          <Range Index="1" Min="4.4509620666503906e+01" Max="1.9371424560546875e+03"/>
          <Range Index="2" Min="2.4118097305297852e+01" Max="7.7189312744140625e+02"/>
          <Range Index="3" Min="2.2837490081787109e+01" Max="6.2318218994140625e+02"/>
          <Range Index="4" Min="0.0000000000000000e+00" Max="2.8522045898437500e+02"/>
          <Range Index="5" Min="0.0000000000000000e+00" Max="2.1202268981933594e+02"/>
          <Range Index="6" Min="0.0000000000000000e+00" Max="1.2469961547851562e+02"/>
          <Range Index="7" Min="7.2173523949459195e-04" Max="8.6465877294540405e-01"/>
          <Range Index="8" Min="-4.6598209735293494e-08" Max="3.3554074168205261e-01"/>
          <Range Index="9" Min="7.9004600644111633e-02" Max="4.4020223617553711e-01"/>
          <Range Index="10" Min="-2.4895486235618591e-01" Max="3.1677743792533875e-01"/>
          <Range Index="11" Min="-1.2138658761978149e-01" Max="3.6494380235671997e-01"/>
          <Range Index="12" Min="-2.4834053218364716e-01" Max="3.1469908356666565e-01"/>
          <Range Index="13" Min="-8.3419470551936394e+27" Max="3.1933664550781250e+03"/>
          <Range Index="14" Min="-8.3420084459579167e+27" Max="3.0173950195312500e+00"/>
          <Range Index="15" Min="4.5914945482066956e-41" Max="6.7680047607421875e+02"/>
          <Range Index="16" Min="4.5178705453872681e-01" Max="4.3343099975585938e+02"/>
          <Range Index="17" Min="-3.1397597789764404e+00" Max="3.1412866115570068e+00"/>
          <Range Index="18" Min="0.0000000000000000e+00" Max="2.0000000000000000e+00"/>
          <Range Index="19" Min="6.5033515930175781e+01" Max="9.4983955383300781e+01"/>
          <Range Index="20" Min="0.0000000000000000e+00" Max="4.0000000000000000e+00"/>
        </Ranges>
      </Class>
    </Transform>
  </Transformations>
  <MVAPdfs/>
  <Weights InputWidth="21" Depth="4" LossFunction="C" OutputFunction="S">
    <Layer ActivationFunction="3">
      <Weights rows="128" cols="21">
        2.8478506207466125e-01 1.4309866726398468e-01 -1.1930658668279648e-01 1.9289402663707733e-01 -8.5678204894065857e-02 9.8096221685409546e-02 1.8389587104320526e-01 4.8862129449844360e-02 -2.8394934535026550e-01 1.2862451374530792e-01 3.0735769867897034e-01 1.1812691390514374e-01 2.7126711606979370e-01 2.4494197964668274e-01 4.8881432414054871e-01 3.4984606504440308e-01 1.6161279752850533e-02 2.3186135292053223e-01 2.3827793076634407e-02 2.3096635937690735e-01 2.5991895794868469e-01 9.6392840147018433e-02 -2.2616167366504669e-01 -1.1189001612365246e-02 2.7894606813788414e-02 -5.3817305713891983e-02 -2.4514259397983551e-01 -4.8719290643930435e-02 -1.4472062885761261e-01 1.1332371830940247e-01 -1.5183681249618530e-01 2.7558451890945435e-01 -2.6880025863647461e-01 -1.5909697115421295e-01 1.1140183359384537e-01 -2.9917770996689796e-02 -1.7564728856086731e-01 2.7816784381866455e-01 2.7123555541038513e-01 -2.3431979119777679e-01 2.1804496645927429e-01 -1.5465793013572693e-01 -2.1820996701717377e-01 -1.2618079781532288e-01 6.2175873667001724e-02 6.0456499457359314e-02 2.6691144704818726e-01 -1.7068980634212494e-01 9.4972550868988037e-02 1.6752135753631592e-01 1.3575848937034607e-01 1.9085365533828735e-01 1.1089824885129929e-01 8.2822620868682861e-02 -1.5184630453586578e-01 3.2458979636430740e-02 1.0208598338067532e-02 -1.0751972347497940e-01 -3.0206748843193054e-01 1.1889710277318954e-01 -1.3135606050491333e-01 -2.2382950782775879e-01 -9.1457650065422058e-02 -1.0443347692489624e-01 -8.5790671408176422e-02 -1.1012558639049530e-01 -1.5306261181831360e-01 -4.8216938972473145e-02 9.0225018560886383e-02 -9.7850248217582703e-02 -1.7414905130863190e-01 3.2399359345436096e-01 -1.7540012300014496e-01 3.0766528844833374e-01 -2.4907831847667694e-01 1.1459520086646080e-02 -1.8213643133640289e-01 3.2861739397048950e-01 3.2692494988441467e-01 -1.8586672376841307e-03 -1.8194460868835449e-01 -2.3480729758739471e-01 2.5904572010040283e-01 2.8205549716949463e-01 1.7214582860469818e-01 -1.0420022904872894e-01 -4.6252202242612839e-02 2.4285961687564850e-01 1.5099224448204041e-01 -2.8133492916822433e-02 -3.0150693655014038e-01 1.1080293916165829e-05 7.2709798812866211e-02 -2.2620682418346405e-01 2.1350559592247009e-01 9.0594433248043060e-02 1.3118533790111542e-01 -1.9513036310672760e-01 1.8327274918556213e-01 6.0948874801397324e-02 -2.4577620625495911e-01 -2.0684036612510681e-01 9.4819568097591400e-02 2.3606023192405701e-01 2.3291988670825958e-01 1.1588089168071747e-01 1.8035802245140076e-01 1.1673842370510101e-01 8.8001981377601624e-02 -2.9082733392715454e-01 -4.7307615168392658e-03 -2.7077773213386536e-01 1.6707642376422882e-01 -1.0452251881361008e-01 -3.7724124267697334e-03 -9.1531507670879364e-02 1.4755862951278687e-01 2.3681968450546265e-01 -2.9001435637474060e-01 -2.1972453594207764e-01 5.5650416761636734e-02 1.7664833366870880e-01 -2.9932117462158203e-01 -2.1180296316742897e-02 1.0918561369180679e-02 -8.7078787386417389e-02 -2.2306235134601593e-01 2.6649633049964905e-01 -2.8319188952445984e-01 -3.4347161650657654e-02 2.5684767961502075e-01 -2.1461057662963867e-01 8.1521585583686829e-02 1.3545009307563305e-02 -1.9752612709999084e-01 -2.4636675417423248e-01 8.9957505464553833e-02 -8.5597530007362366e-02 1.1048742383718491e-01 -1.1090704053640366e-01 -1.2741576135158539e-01 -2.6258063316345215e-01 -1.3846644759178162e-01 -2.3302145302295685e-01 5.7576820254325867e-02 4.8854365944862366e-02 2.8584586456418037e-02 -2.1817488968372345e-01 -2.4572084844112396e-01 -3.7534166127443314e-02 2.5775158405303955e-01 -2.8519302606582642e-01 5.3536489605903625e-02 -3.4668114036321640e-02 -1.2479493021965027e-01 -2.3720401525497437e-01 1.7689129710197449e-01 2.0167191326618195e-01 3.0133696272969246e-02 8.4368519484996796e-02 -2.6997140049934387e-01 5.0721447914838791e-03 1.9374956190586090e-01 -3.6163069307804108e-02 -6.1065829358994961e-03 1.2672208249568939e-02 1.1977373808622360e-01 1.4821526408195496e-01 -2.1939292550086975e-01 -8.3427615463733673e-02 2.1394653618335724e-01 -9.3069411814212799e-02 -3.0049139261245728e-01 -8.8509112596511841e-02 -8.2674682140350342e-02 1.5938968956470490e-01 -1.7777428030967712e-01 -1.7792086303234100e-01 2.5077861547470093e-01 -2.1944326162338257e-01 -4.8088502138853073e-02 -5.0153189897537231e-01 -1.2264632433652878e-01 1.4152663946151733e-01 -4.7510257363319397e-01 -1.2653908133506775e-01 -2.1400535106658936e-01 -1.4569340646266937e-01 -1.9659264385700226e-01 -2.9111146926879883e-01 1.6016107797622681e-01 2.0532906055450439e-01 2.8498169779777527e-01 2.7262306213378906e-01 -1.4975634217262268e-01 2.1670632064342499e-01 -3.4640930593013763e-02 -1.0824746638536453e-01 -1.0052972286939621e-01 -2.8537655249238014e-02 2.1167714893817902e-01 8.8397845625877380e-02 5.8173976838588715e-02 -1.9504332542419434e-01 -1.2435399740934372e-01 2.1082912385463715e-01 -3.1847128272056580e-01 -3.4524586796760559e-01 -5.0184678286314011e-02 -2.4900865554809570e-01 1.8848776817321777e-01 -1.5187698602676392e-01 2.0969240367412567e-01 1.5415829420089722e-01 -6.1222758144140244e-02 2.5253245234489441e-01 1.9874535501003265e-01 2.2996157407760620e-01 -2.6785898208618164e-01 2.2882597148418427e-01 1.0570464283227921e-01 9.1254174709320068e-02 -1.0918702185153961e-01 8.1591904163360596e-02 3.7143427878618240e-02 2.8249666094779968e-01 -1.2104678899049759e-01 -1.9204925000667572e-01 -2.4383197724819183e-01 2.2154062986373901e-01 -1.9175350666046143e-01 2.1450322866439819e-01 2.8676688671112061e-01 6.3123106956481934e-02 -8.3372686058282852e-03 2.7357064187526703e-02 2.8798168897628784e-01 -2.6135164499282837e-01 5.9518940746784210e-02 1.6852161288261414e-01 1.2152209132909775e-01 1.2892581522464752e-01 2.5455635786056519e-01 -2.6834708452224731e-01 4.3742558360099792e-01 4.3176385760307312e-01 2.9220959544181824e-01 5.8801257610321045e-01 -1.1849157512187958e-01 7.2027929127216339e-02 1.5364480204880238e-03 -4.6602180227637291e-03 -5.6498479098081589e-02 -7.0802010595798492e-02 -1.8447923660278320e-01 -7.0425751619040966e-03 -5.0921976566314697e-02 -1.9870586693286896e-01 -1.7140226066112518e-01 6.5814063418656588e-04 -1.4169210195541382e-01 -1.8093883991241455e-01 -1.6610605642199516e-02 -2.8864762187004089e-01 1.0175196081399918e-01 -4.7055435180664062e-01 -3.8707059621810913e-01 -1.6175137460231781e-01 -3.5023951530456543e-01 2.2850313782691956e-01 -1.6055397689342499e-01 6.5978109836578369e-02 -5.1552869379520416e-02 1.4973741769790649e-01 2.2545860707759857e-01 2.6038548350334167e-01 2.0613817870616913e-01 1.6770750284194946e-01 -2.0307308435440063e-01 -3.8249394856393337e-03 2.0262746512889862e-01 2.3978066444396973e-01 -2.3724426329135895e-01 -2.5310882925987244e-01 1.1941236257553101e-01 2.1231928467750549e-01 2.4720253050327301e-01 1.8527968227863312e-01 -2.2872711718082428e-01 5.2674710750579834e-02 -2.5509017705917358e-01 5.8652278035879135e-02 2.6318162679672241e-01 -1.2573252618312836e-01 1.3737428188323975e-01 2.4058479070663452e-01 2.1085152029991150e-01 -8.5523605346679688e-02 -1.7835879325866699e-01 -3.1273599714040756e-02 -1.5170477330684662e-01 -5.8654057793319225e-03 7.6676055788993835e-02 3.2492358237504959e-02 1.8834894895553589e-01 1.6083337366580963e-01 8.8567174971103668e-02 2.3687982559204102e-01 -1.2669177353382111e-01 -2.4592627584934235e-01 1.0466520674526691e-02 2.6869210600852966e-01 4.2854670435190201e-02 2.7777323126792908e-01 3.6693180445581675e-03 2.5706419348716736e-01 2.7170124650001526e-01 1.1828564107418060e-01 -1.7342573031783104e-02 1.0056078433990479e-01 -1.3726945221424103e-01 1.9736388325691223e-01 -6.0718890279531479e-02 -1.4065231382846832e-01 2.3076039552688599e-01 -1.3987676799297333e-01 -1.5301515161991119e-01 -2.2628113627433777e-01 2.3739644885063171e-01 4.9391079694032669e-02 -8.8202999904751778e-03 2.6683151721954346e-01 -1.4502386748790741e-01 2.5876948237419128e-01 -6.6927388310432434e-02 2.4103699624538422e-01 2.4241010844707489e-01 -1.0209514200687408e-01 2.7206370234489441e-01 1.2645386159420013e-01 -4.3680321425199509e-02 -6.9493383169174194e-02 -1.7159415781497955e-01 -1.7189137637615204e-01 5.4296609014272690e-02 -1.7477880418300629e-01 3.0893499497324228e-03 4.2736425995826721e-02 2.0499344170093536e-01 -1.1972553282976151e-01 -3.3032476902008057e-01 1.6626149415969849e-01 1.8509719520807266e-02 2.3583342134952545e-01 1.7197713255882263e-02 2.1177852153778076e-01 1.2397375702857971e-01 1.9224643707275391e-01 2.0547226071357727e-01 -2.5733175873756409e-01 -1.5463002026081085e-01 -1.4998890459537506e-01 -1.0179423540830612e-01 2.2828982770442963e-01 -1.6328640282154083e-01 -7.2758920490741730e-02 -1.7715534195303917e-02 4.5006342232227325e-02 -5.6107215583324432e-02 1.9106665253639221e-01 5.1178073883056641e-01 3.8447457551956177e-01 5.1404941082000732e-01 4.3938466906547546e-01 1.5827137976884842e-02 3.9256915450096130e-01 2.2331740707159042e-02 3.0129179358482361e-01 -2.4381165206432343e-01 -2.5282995775341988e-02 3.1489692628383636e-02 -1.2979230843484402e-02 1.5446239709854126e-01 2.7017122507095337e-01 4.0242601186037064e-02 -1.4870086312294006e-01 -2.5001776218414307e-01 -1.4096306264400482e-01 2.1448293328285217e-01 2.6425954699516296e-01 8.3068750798702240e-02 2.1950753033161163e-01 1.8681183457374573e-01 1.4481741189956665e-01 -4.8918038606643677e-02 6.3058868050575256e-02 3.1101679801940918e-01 3.4806728363037109e-02 1.7394046485424042e-01 -3.9960343390703201e-02 -1.2533970177173615e-01 2.1339477598667145e-01 -1.0118199512362480e-02 -2.1089148521423340e-01 -1.8836183845996857e-01 2.2399853169918060e-01 1.6172811388969421e-01 3.7237334996461868e-02 -1.7494451999664307e-01 1.7421515285968781e-01 -2.5702115893363953e-01 9.5862887799739838e-02 -7.5002513825893402e-02 -1.3729222118854523e-01 -2.1605595946311951e-02 -3.0854359269142151e-01 1.9958138465881348e-01 3.2417955994606018e-01 2.4576505646109581e-02 9.1235339641571045e-02 9.6813246607780457e-02 3.0806720256805420e-02 2.3158220946788788e-01 -2.7125957608222961e-01 3.0212596058845520e-01 2.6992467045783997e-01 2.7600121498107910e-01 -2.1328987181186676e-01 1.4863121509552002e-01 8.0495201051235199e-02 -5.7125162333250046e-02 1.3428904116153717e-01 2.6374432444572449e-01 2.4758335947990417e-01 3.4652251005172729e-01 3.6947852373123169e-01 1.0483893752098083e-01 1.6937756538391113e-01 6.0905192047357559e-02 -9.6090711653232574e-02 -1.9580361247062683e-01 2.5673895142972469e-03 1.0573354363441467e-01 2.1867907047271729e-01 -1.9570277072489262e-03 1.5863496065139771e-01 3.1028634309768677e-01 -5.4978337138891220e-02 -1.3810425996780396e-01 -1.6992333531379700e-01 2.2449208796024323e-01 -2.6682347059249878e-01 2.9077300429344177e-01 -1.9430106878280640e-01 -3.3584111928939819e-01 -1.5392051637172699e-01 -1.3833361864089966e-01 3.6751933395862579e-02 8.4907211363315582e-02 -4.1191682219505310e-01 -7.7704861760139465e-02 1.3874163851141930e-02 -2.9727712273597717e-01 2.9428523778915405e-01 2.5819432735443115e-01 -2.4309860169887543e-01 -1.6668545082211494e-02 2.1187241375446320e-01 -3.1340166460722685e-03 -1.4376451075077057e-01 1.9270589947700500e-01 -2.5603792071342468e-01 1.1485241353511810e-01 -1.5142270922660828e-01 -2.6641800999641418e-01 2.5994127988815308e-01 1.2094639241695404e-01 2.4994465708732605e-01 -6.2166772782802582e-02 -2.7384735643863678e-02 -8.3127364516258240e-02 -2.3188841342926025e-01 9.4562536105513573e-03 -1.7246562242507935e-01 -1.9724906980991364e-01 -2.7155891060829163e-01 -9.6734978258609772e-02 2.6646354794502258e-01 2.3752033710479736e-01 -2.4163080751895905e-01 1.1690513044595718e-01 3.8329649716615677e-02 -3.1123524904251099e-01 -9.7966223955154419e-02 2.9559880495071411e-02 2.0941576361656189e-01 -8.2438938319683075e-02 3.3863389492034912e-01 -2.2141602821648121e-03 2.8259158134460449e-01 6.7061167210340500e-03 3.2854923605918884e-01 1.3336329162120819e-01 -1.1492227762937546e-01 -2.7945792675018311e-01 2.3092125356197357e-01 -6.7039996385574341e-02 2.2673857212066650e-01 -2.0127322059124708e-03 -1.6656194627285004e-01 -1.5324968099594116e-01 2.1840218454599380e-02 9.7892761230468750e-02 -3.2930362224578857e-01 1.8428865075111389e-01 1.2758004665374756e-01 7.7405720949172974e-02 1.5416441857814789e-01 6.4351536333560944e-02 2.4595862627029419e-01 2.0157617330551147e-01 2.1001189947128296e-01 -1.6937321424484253e-01 1.4499018900096416e-02 2.4055232107639313e-01 1.2239111959934235e-01 -1.7317006364464760e-02 4.2388804256916046e-02 -1.0535605996847153e-01 -2.0578974485397339e-01 -8.2142809405922890e-03 5.5770948529243469e-03 -2.8626006841659546e-01 1.3524554669857025e-01 5.6283101439476013e-02 7.3254153132438660e-02 -8.4530040621757507e-02 1.1547406762838364e-01 -1.9242595136165619e-01 3.0098798871040344e-01 2.3624084889888763e-01 -1.9126133620738983e-01 -2.6625508069992065e-01 2.5539356470108032e-01 -1.6197769343852997e-01 2.1160025894641876e-01 -3.8400915218517184e-04 -5.5994570255279541e-02 1.1140065267682076e-02 2.3071186244487762e-01 -2.6781308650970459e-01 6.9845780730247498e-02 -2.5484555959701538e-01 1.9436699151992798e-01 1.3131989538669586e-01 4.3892242014408112e-02 -2.8641182184219360e-01 -4.7396194189786911e-02 2.2904440760612488e-01 -1.3397046923637390e-01 3.0389872193336487e-01 3.0175864696502686e-02 3.5630285739898682e-01 -1.8419359624385834e-01 1.6413405537605286e-01 -5.9310056269168854e-02 3.2835024595260620e-01 5.2377238869667053e-02 -6.1080027371644974e-02 4.4556718319654465e-02 -3.3652126789093018e-02 -2.9473779723048210e-02 8.3633646368980408e-02 1.5543337166309357e-01 4.3062027543783188e-02 -1.3020320236682892e-01 -7.9982854425907135e-02 -1.5498985536396503e-02 9.8647743463516235e-02 -6.0132268816232681e-02 3.1836283206939697e-01 6.9475293159484863e-02 1.4839248359203339e-01 2.5051793456077576e-01 -2.6320815086364746e-01 1.5757948160171509e-01 8.2006059587001801e-02 2.8593629598617554e-01 -1.4930407702922821e-01 1.1624963581562042e-01 1.3059762120246887e-01 -2.0610573887825012e-01 2.3366107046604156e-01 1.4704704284667969e-01 5.1791582256555557e-02 3.9892319589853287e-02 -1.7245227098464966e-01 -7.1471013128757477e-02 -2.2641551494598389e-01 -1.4996552467346191e-01 -2.7147343754768372e-01 2.4807003140449524e-01 -5.4349903017282486e-02 -6.4689271152019501e-02 3.2200905680656433e-01 1.4952401816844940e-01 7.1214810013771057e-02 -5.3426191210746765e-02 4.4439405202865601e-01 -2.4019074440002441e-01 3.6774743348360062e-02 -2.2237874567508698e-01 -1.3743010163307190e-01 1.0446411371231079e-01 -3.2680553197860718e-01 -2.5109466910362244e-01 4.8528335988521576e-02 -1.4086137525737286e-02 3.1717754900455475e-02 4.4180434197187424e-02 2.7447435259819031e-01 1.7963451147079468e-01 -3.1582722067832947e-01 -3.0309844017028809e-01 -1.7541386187076569e-02 3.8957027718424797e-03 2.9040050506591797e-01 5.6018717586994171e-02 -1.1656381934881210e-01 -3.5940697416663170e-03 1.6310957074165344e-01 3.0308771133422852e-01 1.3592593371868134e-01 -2.4581207334995270e-01 -2.6198038458824158e-01 -2.6726835966110229e-01 1.6291728615760803e-01 -1.5008231997489929e-01 -1.9641321897506714e-01 -1.4610883593559265e-01 2.6703223586082458e-01 2.3134662210941315e-01 6.6373489797115326e-02 -1.7511036992073059e-01 1.2272810935974121e-01 1.2925805151462555e-01 -1.4587862789630890e-01 1.3173642754554749e-01 -7.4302725493907928e-02 9.3619786202907562e-02 -1.9592419266700745e-01 -7.7740594744682312e-02 -3.6917516589164734e-01 1.6306257247924805e-01 1.8355174362659454e-01 1.9317123293876648e-01 1.6054697334766388e-01 1.8939271569252014e-01 -1.9619518518447876e-01 3.3450722694396973e-02 2.3726649582386017e-02 -6.1907842755317688e-02 3.4631799906492233e-02 2.8016430139541626e-01 -3.4561198949813843e-01 -3.4562643617391586e-02 -1.9281369447708130e-01 -4.7831806540489197e-01 -2.6620650291442871e-01 -1.0018657147884369e-01 1.5906083583831787e-01 -4.7212511301040649e-01 1.3274525105953217e-01 1.5369065105915070e-02 2.8969538211822510e-01 -6.7132346332073212e-02 1.5096944570541382e-01 2.1953622996807098e-01 -2.5333690643310547e-01 -2.7268752455711365e-01 -2.3804120719432831e-01 -2.6407378911972046e-01 -1.4918623864650726e-01 2.7629318833351135e-01 1.2684139609336853e-01 1.7642150819301605e-01 3.1434878706932068e-01 2.8722205758094788e-01 3.8162618875503540e-01 -7.1186564862728119e-02 1.9089914858341217e-01 -2.6138314604759216e-01 1.3013909757137299e-01 1.5814301371574402e-01 -1.2448854744434357e-01 -2.2927556931972504e-01 -1.8877127766609192e-01 -2.6042723655700684e-01 -4.1273351758718491e-02 1.1575656384229660e-01 3.1857100129127502e-01 2.9612129554152489e-02 2.8419032692909241e-01 -1.1545559763908386e-01 2.5760042667388916e-01 -3.0584761500358582e-01 -2.5785011053085327e-01 2.4640474468469620e-02 -1.3084560632705688e-01 1.4428747817873955e-02 2.7746817469596863e-01 1.0281227529048920e-02 -1.6120548546314240e-01 -1.9470293819904327e-01 1.6331857442855835e-01 -1.3451021909713745e-01 -1.8476589024066925e-01 -7.0428289473056793e-02 1.5828226506710052e-01 -2.5094586610794067e-01 2.1377389132976532e-01 -2.6848169043660164e-02 -1.1589193344116211e-01 -9.0624339878559113e-02 -1.0321435332298279e-01 -2.9942840337753296e-01 2.1761618554592133e-01 -1.3337130844593048e-01 3.7304330617189407e-02 2.5793942809104919e-01 3.6704739928245544e-01 -3.1830020248889923e-02 3.9903195574879646e-03 1.6793614625930786e-01 1.5616433322429657e-01 4.0989391505718231e-02 1.7862418293952942e-01 -2.0441500842571259e-01 2.1013559401035309e-01 -1.6660657525062561e-01 -2.0569504797458649e-01 2.3950436711311340e-01 1.9244022667407990e-02 2.1533787250518799e-01 -2.5281581282615662e-01 -2.6920434832572937e-01 -4.8273749649524689e-02 -2.4004966020584106e-01 -3.4902013838291168e-02 -1.9308406114578247e-01 -9.3328215181827545e-02 1.6233615577220917e-01 5.3224749863147736e-03 -3.0155646800994873e-01 -3.2469715923070908e-02 -1.5327176451683044e-01 -3.1274314969778061e-02 6.1219993978738785e-02 -1.0839761048555374e-01 -2.3101769387722015e-01 -1.2296080589294434e-01 -2.3430345952510834e-01 1.4823445677757263e-01 -2.3276843130588531e-01 2.5748279690742493e-01 -1.5151098370552063e-01 2.0838692784309387e-01 -2.9063379764556885e-01 1.8019059300422668e-01 -2.6014876365661621e-01 2.0503582432866096e-02 5.7286694645881653e-02 -3.3834919333457947e-01 -2.4577984213829041e-01 9.1456603258848190e-03 2.5564894080162048e-01 4.7958944924175739e-03 2.1651180088520050e-01 -1.8790228292346001e-02 -1.0839982889592648e-02 1.0074993968009949e-01 1.0331363976001740e-01 -9.2738263309001923e-02 7.7438510954380035e-02 -1.8960137665271759e-01 5.6640494614839554e-02 6.2570311129093170e-02 -1.1638356745243073e-01 5.2022039890289307e-03 -1.1503084748983383e-01 -2.0222218707203865e-02 -1.4007583260536194e-01 -2.2441607713699341e-01 -1.5513561666011810e-01 -1.9547596573829651e-01 3.5587187856435776e-02 1.7587547004222870e-01 -3.6159849166870117e-01 -1.5804134309291840e-01 -7.2261944413185120e-02 5.2712988108396530e-02 -1.3237947132438421e-03 -1.8876564502716064e-01 1.1156980879604816e-02 -2.3442474007606506e-01 -5.7420931756496429e-02 -2.3220191895961761e-01 -2.8140500187873840e-01 2.8590440750122070e-01 1.5901967883110046e-02 -1.8004594743251801e-01 -1.7839927971363068e-01 -2.5007233023643494e-01 -1.5173842012882233e-01 -3.0739039182662964e-01 1.3698264956474304e-01 -2.1271365880966187e-01 1.5212823450565338e-01 1.8076090514659882e-01 -7.2682917118072510e-02 4.8294324427843094e-02 -1.1080171167850494e-01 2.0992860198020935e-01 -2.6915049180388451e-02 -8.5675448179244995e-02 -2.9387703537940979e-01 -3.4014355391263962e-02 -2.4940317869186401e-01 2.9110196232795715e-01 -6.6093154251575470e-02 -1.4922723174095154e-01 -6.4407169818878174e-02 -1.8875156342983246e-01 -2.6257854700088501e-01 -4.0538128465414047e-02 5.5343877524137497e-02 1.8314032256603241e-01 3.2472595572471619e-02 1.6253595054149628e-01 -7.3576122522354126e-02 2.5023826956748962e-01 -1.1059652268886566e-01 2.5784941390156746e-02 -1.5276433527469635e-01 -2.1472407877445221e-01 1.6413743793964386e-01 3.3885840326547623e-02 9.6154242753982544e-02 -1.4952252805233002e-01 2.8440001606941223e-01 3.1312590837478638e-01 -2.6945686340332031e-01 -2.0233799517154694e-01 -6.1006732285022736e-02 -1.0710880160331726e-02 -1.2322190403938293e-01 1.5323916077613831e-01 -2.3943799734115601e-01 1.0654094070196152e-01 -1.8035684525966644e-01 3.5615190863609314e-01 -7.1571834385395050e-02 -8.6595825850963593e-02 -1.1225438117980957e-01 -6.1753325164318085e-02 2.2357057034969330e-01 4.3593578040599823e-02 -2.4820055812597275e-02 2.6629522442817688e-01 2.3520687222480774e-01 2.3442474007606506e-01 2.4469122290611267e-01 -2.3621906340122223e-01 1.5992115437984467e-01 3.7289038300514221e-01 6.3753649592399597e-02 4.9079228192567825e-02 1.4480422437191010e-01 -9.8007313907146454e-02 1.1823171377182007e-01 5.5818889290094376e-02 3.9987748861312866e-01 -2.1965582668781281e-01 -2.2818957269191742e-01 -2.5631919503211975e-01 -4.5198932290077209e-02 1.5684293583035469e-02 -9.2480354011058807e-02 1.8947736918926239e-01 -2.6839745044708252e-01 -1.1695656180381775e-01 -1.1641793698072433e-01 7.2215735912322998e-02 1.2271998822689056e-01 2.3792156577110291e-01 2.2216799855232239e-01 4.1221175342798233e-02 -1.3851681351661682e-01 -2.2539567947387695e-01 1.6990448534488678e-01 2.4078568816184998e-01 1.3340894877910614e-01 7.8089074231684208e-03 2.1778361499309540e-01 -3.4991940855979919e-01 -5.4523810744285583e-02 -3.1188777089118958e-01 1.4450722932815552e-01 -1.1603722721338272e-01 1.7553013563156128e-01 -1.1462339013814926e-01 -1.6813602298498154e-02 5.6114640086889267e-02 5.3469270467758179e-02 2.8018304705619812e-01 -6.9666668772697449e-02 -2.8831675648689270e-01 -2.4871623516082764e-01 -5.2843142300844193e-02 -4.0663483738899231e-01 6.0504294931888580e-02 1.9602486491203308e-01 1.8921343982219696e-01 -1.1369600892066956e-01 1.1680455505847931e-01 3.0138643458485603e-02 1.7585042119026184e-01 -1.9033369421958923e-01 -2.6319482922554016e-01 -2.6986187696456909e-01 -3.7859074771404266e-02 5.2087821066379547e-02 2.6890531182289124e-01 7.5269468128681183e-02 1.9260370731353760e-01 2.2384579479694366e-01 -1.6753201186656952e-01 1.1752702295780182e-01 -3.8840690255165100e-01 -1.5715034306049347e-01 -2.4140119552612305e-01 9.6525348722934723e-02 1.2524813413619995e-01 2.1534712612628937e-01 -3.4073942899703979e-01 -2.1821482479572296e-01 -1.0373574495315552e-01 -2.3006759583950043e-01 -1.4230099320411682e-01 -2.5633487105369568e-01 -5.4601650685071945e-02 -1.8294191360473633e-01 1.8867446482181549e-01 -2.0468334853649139e-01 2.2468721866607666e-01 1.4872922003269196e-01 -1.8511429429054260e-01 -2.1133805811405182e-01 -3.3373007178306580e-01 -6.7398734390735626e-02 5.7323534041643143e-02 -1.2410230189561844e-01 2.1181198954582214e-01 -7.0207454264163971e-02 -1.9655586779117584e-01 1.7568947374820709e-01 -1.6012956202030182e-01 2.5439867377281189e-01 1.2366968393325806e-01 -1.4932081103324890e-02 2.2212475538253784e-01 -1.0208071768283844e-01 -8.8880859315395355e-02 -1.9695331156253815e-01 3.3641688525676727e-02 -2.6963746547698975e-01 -6.1344277113676071e-02 -6.7433014512062073e-02 1.3422045111656189e-01 -1.0743675380945206e-01 -3.4275043290108442e-03 -2.3474907875061035e-01 -2.0836251974105835e-01 1.1078728735446930e-01 -7.3172003030776978e-02 -1.5725908800959587e-02 -2.5423419475555420e-01 -5.4704226553440094e-02 1.6587457060813904e-01 -2.5832805037498474e-01 -1.4487652480602264e-01 -2.4956990778446198e-01 6.3019990921020508e-02 -2.2018131613731384e-01 8.3513677120208740e-02 -1.3683982193470001e-01 2.5811577215790749e-02 -1.7171144485473633e-02 -2.4712321162223816e-01 -3.2547512091696262e-03 -1.9713658839464188e-02 -9.0048655867576599e-02 3.2532566785812378e-01 2.2089794278144836e-01 2.1655200421810150e-01 1.8808561563491821e-01 2.7283388376235962e-01 -2.3211431503295898e-01 2.2197511792182922e-01 -2.6859503984451294e-01 -2.1423414349555969e-01 -1.0234553366899490e-01 -2.3382021486759186e-01 2.1153123676776886e-01 -2.3659226298332214e-01 -2.8055006265640259e-01 1.8599593639373779e-01 8.4411427378654480e-02 -2.2038882970809937e-01 2.5081092119216919e-01 -1.8519373238086700e-01 -4.6505354344844818e-02 1.0528180003166199e-01 1.5903882682323456e-01 2.0732250995934010e-03 -6.4201787114143372e-02 -4.7034680843353271e-01 -1.3048012554645538e-01 -1.9890038669109344e-01 2.8770563006401062e-01 2.0315010845661163e-01 -2.1457940340042114e-01 9.1049615293741226e-03 -1.9612272083759308e-01 -1.3310518860816956e-01 1.7281813919544220e-01 9.9116742610931396e-02 2.1105684340000153e-01 -1.5397582948207855e-01 9.8212473094463348e-02 -1.3904654979705811e-01 -1.7247910797595978e-01 1.5517750382423401e-01 4.3142650276422501e-02 2.8418822214007378e-02 -6.0638841241598129e-02 1.5163998119533062e-02 1.0138565301895142e-01 2.9510608315467834e-01 3.1462448835372925e-01 -2.6961079239845276e-01 -2.8064265847206116e-01 -1.5810967981815338e-01 1.5927124023437500e-01 2.0755280554294586e-01 -2.1939162909984589e-01 9.4212770462036133e-02 1.3865831494331360e-01 1.6778869926929474e-01 -2.7890956401824951e-01 -2.5002235174179077e-01 6.8644925951957703e-02 -8.1025227904319763e-02 -2.4363300204277039e-01 1.0490025579929352e-01 -2.0003381371498108e-01 7.2146460413932800e-02 -2.6575377583503723e-01 -4.7749228775501251e-02 2.6732763648033142e-01 1.1868320405483246e-01 -1.5162903070449829e-01 -3.4787738323211670e-01 6.5806191414594650e-03 -2.7618899941444397e-01 5.3640776313841343e-03 -2.2592128813266754e-01 2.3586596548557281e-01 1.2397067248821259e-01 -1.4244881458580494e-02 -2.0380334556102753e-01 -2.4021278321743011e-01 1.0326059162616730e-01 2.1148739755153656e-01 -3.5349643230438232e-01 -2.6875141263008118e-01 -4.2668998241424561e-02 -1.4010860025882721e-01 -2.1493722498416901e-01 5.9918832033872604e-02 -1.2117855250835419e-01 -3.8268622756004333e-01 -9.2318460345268250e-02 -9.3588214367628098e-03 -2.6218318939208984e-01 -5.9011798352003098e-02 -8.4215037524700165e-02 5.2032362669706345e-02 -1.1564429104328156e-01 1.8599035218358040e-02 -5.5877361446619034e-02 -1.8362647294998169e-01 -2.4830959737300873e-01 -1.6922017931938171e-01 3.3509444445371628e-02 -4.4428285956382751e-01 -7.2559453547000885e-02 -1.9299973547458649e-01 1.0605543106794357e-01 1.6909405589103699e-01 -2.0455304533243179e-02 -3.8736318238079548e-03 -1.5961484611034393e-01 2.9448372125625610e-01 4.0285223722457886e-01 -3.2627336680889130e-02 -2.3350416123867035e-01 1.9926810264587402e-01 3.3250844478607178e-01 -1.7079153656959534e-01 2.3211689293384552e-01 3.7093136459589005e-02 -7.2419717907905579e-02 -7.9674631357192993e-02 -2.6734969019889832e-01 1.5595199167728424e-01 6.2655317783355713e-01 2.2234426438808441e-01 8.6894002743065357e-04 6.1604589223861694e-01 -2.0332270860671997e-01 7.4599832296371460e-02 1.0196908563375473e-01 5.2742022275924683e-01 1.9007778167724609e-01 -1.9340327382087708e-01 8.7157115340232849e-02 -2.5200077891349792e-01 9.7080588340759277e-02 2.4425572156906128e-01 2.0898571237921715e-02 -2.9375916719436646e-01 2.5184938311576843e-01 1.5899623930454254e-01 -2.2688502073287964e-01 -4.3692775070667267e-02 -1.9160398840904236e-01 -1.7496469616889954e-01 3.4734841436147690e-02 8.7512068450450897e-02 -1.3555499911308289e-01 9.6267767250537872e-02 1.4770404994487762e-01 -1.6482293605804443e-01 1.9699671864509583e-01 2.5583899021148682e-01 1.0288263112306595e-01 2.3901349306106567e-01 9.7156323492527008e-02 -1.0955144464969635e-01 -2.3631857335567474e-01 2.5217384099960327e-01 -2.1740560233592987e-01 1.0754738748073578e-01 -1.4445179700851440e-01 8.4048239514231682e-03 -4.5863386243581772e-02 -2.8392550349235535e-01 2.7081218361854553e-01 3.4197351336479187e-01 1.0597300529479980e-01 -1.1856294237077236e-02 1.1514527350664139e-01 1.8338775634765625e-01 -9.3501381576061249e-02 3.1101775169372559e-01 -2.2355401515960693e-01 -5.9432249516248703e-02 1.1786562390625477e-02 6.2572136521339417e-02 2.3606109619140625e-01 -2.8292021155357361e-01 2.5317081809043884e-01 -2.4563480168581009e-02 -1.5838222578167915e-02 1.5360280871391296e-01 -1.0147181153297424e-01 2.2958958148956299e-01 1.5902559459209442e-01 -3.0947735533118248e-02 -6.3241764903068542e-02 -1.9266258180141449e-01 -1.6679841279983521e-01 -1.4393530786037445e-01 1.5715333819389343e-01 1.9433099776506424e-02 -3.1863299012184143e-01 3.1306803226470947e-01 2.7601155638694763e-01 2.4231767654418945e-01 -2.1731649339199066e-01 1.5242399275302887e-01 -1.4221587218344212e-02 2.6943013072013855e-01 1.9278872013092041e-01 -1.1251283437013626e-01 2.9490962624549866e-01 -1.7389973998069763e-01 -2.8183054924011230e-01 -2.4605217576026917e-01 1.4874136447906494e-01 3.7832540273666382e-01 1.3547620177268982e-01 2.5001323223114014e-01 7.0618279278278351e-02 1.7318114638328552e-01 4.8098545521497726e-03 4.3669024109840393e-01 -2.4210068583488464e-01 2.1841110289096832e-01 1.5701949596405029e-02 -2.6986521482467651e-01 -2.0175851881504059e-01 -1.6800788044929504e-01 -2.5678652524948120e-01 1.9928233325481415e-01 6.7645817995071411e-02 -2.2533756494522095e-01 3.1691166758537292e-01 3.7847936153411865e-02 2.1340359747409821e-01 -4.1059154272079468e-01 -3.8468796014785767e-01 -5.8750100433826447e-02 -3.7118610739707947e-01 -2.4564309045672417e-02 4.9766978621482849e-01 -1.1723288148641586e-01 2.5017297267913818e-01 2.4880529940128326e-01 1.8446560204029083e-01 -2.0178887248039246e-01 2.3922784626483917e-01 -4.2415946722030640e-02 -2.5182459503412247e-03 1.0473453253507614e-01 2.0220300555229187e-01 5.7499289512634277e-02 1.8558523058891296e-01 6.5186008810997009e-02 -2.5691527128219604e-01 1.5469422936439514e-01 1.3036248087882996e-01 -4.8227574676275253e-02 -9.2977538704872131e-02 3.9806157350540161e-02 1.8810631334781647e-01 2.5393208861351013e-01 1.9515551626682281e-01 1.0210515558719635e-01 -1.0174883902072906e-01 1.6211585700511932e-01 -4.1521877050399780e-02 -2.4736197292804718e-01 8.0358371138572693e-02 5.7473834604024887e-02 2.8014457225799561e-01 7.4843309819698334e-02 1.0661664605140686e-01 -2.3030745983123779e-01 -1.8075358867645264e-01 3.0226084589958191e-01 5.2232138812541962e-02 2.7232715487480164e-01 4.2038717865943909e-01 -5.7905614376068115e-02 4.0876224637031555e-01 -7.8545413911342621e-02 1.7309524118900299e-02 2.0858386531472206e-02 3.3166036009788513e-01 1.7652633786201477e-01 -2.4588366970419884e-02 -1.1711552739143372e-01 7.3266781866550446e-02 2.6754762977361679e-02 1.7663787305355072e-01 2.9163465369492769e-03 -1.5995621681213379e-01 2.1410150453448296e-02 -2.6118355989456177e-01 1.4081560075283051e-02 -5.7471282780170441e-03 -2.2851611673831940e-01 -2.2143842652440071e-03 9.8523519933223724e-02 -1.7435160279273987e-01 2.4997417628765106e-01 2.1875704824924469e-01 -1.1029313318431377e-02 9.1200202703475952e-02 1.9120138883590698e-01 2.1890579164028168e-01 1.5188983082771301e-01 3.0115845799446106e-01 -8.3619937300682068e-02 2.7775591611862183e-01 -9.4697572290897369e-02 -2.6740590110421181e-02 -2.5920093059539795e-01 -9.2600904405117035e-02 -3.1239917874336243e-01 2.5568696856498718e-01 -3.6901906132698059e-02 -5.7235034182667732e-03 3.9934430271387100e-02 1.4348348975181580e-01 2.1627681329846382e-02 -1.9316712021827698e-01 2.0896391570568085e-01 2.5638586282730103e-01 1.8912461400032043e-01 -3.3045601844787598e-01 -1.2012774497270584e-01 4.1992169618606567e-01 -1.3069592416286469e-01 -2.2081080079078674e-01 3.2782816886901855e-01 4.1875746846199036e-01 1.7769527435302734e-01 2.5431042537093163e-02 1.0065983235836029e-01 2.0062720775604248e-01 -2.4613311886787415e-01 2.8898757696151733e-01 3.1399917788803577e-03 6.9358146190643311e-01 8.1028234958648682e-01 3.6434817314147949e-01 5.7046324014663696e-01 -1.8353118002414703e-01 -1.8105472624301910e-01 -5.7681247591972351e-02 7.0459043979644775e-01 -1.4490551315248013e-02 3.1633815169334412e-01 -3.7021368741989136e-02 -1.8395066261291504e-02 2.2526173293590546e-01 -1.4382834546267986e-02 1.9048440456390381e-01 -1.6873438656330109e-01 -1.6469153761863708e-01 2.4082073569297791e-01 -1.3211260735988617e-01 4.5229285955429077e-02 -4.4270869344472885e-02 3.9435160160064697e-01 3.6294472217559814e-01 4.3545879423618317e-02 -7.6493717730045319e-02 5.6948497891426086e-02 -5.7135158777236938e-01 -2.1626199781894684e-01 2.4661926925182343e-01 2.4434074759483337e-01 1.4154791831970215e-01 -3.9879191666841507e-02 -1.8920522928237915e-01 -1.6212899982929230e-01 1.0718889534473419e-01 1.9184051454067230e-01 -5.5344354361295700e-02 1.8975578248500824e-01 -7.4023053050041199e-02 -1.0740043967962265e-01 -1.1710427701473236e-01 2.1930549293756485e-02 2.7410969138145447e-01 -1.6973046958446503e-01 -1.4386968314647675e-01 2.7573871612548828e-01 -8.2786351442337036e-02 -1.8769474327564240e-01 -1.4494012296199799e-01 5.2257157862186432e-02 -3.0910858511924744e-01 -1.7082701670005918e-03 -1.3516367971897125e-01 -8.0812186002731323e-02 1.9757835566997528e-01 6.4391260966658592e-03 -3.7315458059310913e-02 9.8854266107082367e-03 -2.6381012797355652e-01 -1.4531856775283813e-01 -1.7238762974739075e-01 -9.8656818270683289e-02 5.3026452660560608e-02 -3.2999959588050842e-01 -3.7691330909729004e-01 -3.4048482775688171e-01 -4.2781224846839905e-01 -1.0993465036153793e-01 5.2131697535514832e-02 -2.3007135093212128e-01 5.0091028213500977e-02 -3.6287057446315885e-04 -2.8360918164253235e-01 1.0496131330728531e-01 -1.2767654657363892e-01 -1.0083290189504623e-01 -1.2982301414012909e-01 -2.3605303466320038e-01 -1.3704967498779297e-01 3.2848287373781204e-02 2.0773951709270477e-01 2.1330048143863678e-01 2.1141973137855530e-01 1.1510594189167023e-01 -4.9303948879241943e-01 -2.1809653937816620e-01 -6.0044668614864349e-02 -3.0353146791458130e-01 1.5244378149509430e-01 1.3580620288848877e-02 2.0805758237838745e-01 -3.1967413425445557e-01 -8.8578224182128906e-02 -2.6179790496826172e-01 -2.9786866903305054e-01 2.9618620872497559e-01 -3.2126697897911072e-01 -2.1521151065826416e-01 2.4514316022396088e-01 -5.8689095079898834e-02 -2.5886210799217224e-01 3.5216182004660368e-04 -2.3209491744637489e-02 1.8764778971672058e-01 -1.5826183557510376e-01 -4.4358366727828979e-01 -4.5290806889533997e-01 -2.5319552421569824e-01 -2.5073108077049255e-01 6.1788477003574371e-02 -7.1064293384552002e-02 -1.4893727004528046e-01 -3.8765877485275269e-01 2.4396951496601105e-01 2.1829141676425934e-01 -2.2118103504180908e-01 -1.2046364694833755e-01 -1.1359599977731705e-01 -9.7543157637119293e-02 9.3768775463104248e-02 -1.0058549232780933e-02 2.5997039675712585e-01 1.3007666170597076e-01 3.5284802317619324e-02 -2.7653081342577934e-03 -8.5047140717506409e-02 2.7216256130486727e-03 -1.5933458507061005e-01 1.1596190184354782e-01 -1.3562783598899841e-01 -2.0315346121788025e-01 1.5963653102517128e-02 -1.4296419918537140e-01 1.4875102788209915e-02 -1.3823048770427704e-01 -1.4146064221858978e-01 1.4770554006099701e-01 7.0312574505805969e-02 -2.9966116417199373e-03 2.0418750122189522e-02 -2.3569068312644958e-01 6.5851621329784393e-02 9.5878727734088898e-02 3.4197639673948288e-02 1.6238188743591309e-01 -3.8795847445726395e-02 -1.1889917403459549e-01 2.1377198398113251e-01 1.1904048174619675e-01 3.0176359415054321e-01 3.9929416775703430e-01 1.2022087723016739e-01 -1.5005429089069366e-01 5.2392803132534027e-02 2.1690951287746429e-01 6.2928207218647003e-02 1.0583545267581940e-01 5.3127150982618332e-02 6.8705134093761444e-02 9.9196314811706543e-02 -2.1238759160041809e-02 2.3132072389125824e-01 1.8837603926658630e-01 1.1553281545639038e-01 -6.8716257810592651e-02 1.0413704067468643e-01 2.0208650827407837e-01 -2.1073956787586212e-01 3.8748291134834290e-01 2.8224253654479980e-01 2.2578416764736176e-01 4.3466928601264954e-01 2.0128624141216278e-01 -1.9251110032200813e-02 1.0476543754339218e-01 -1.2488288432359695e-01 -1.6623881459236145e-01 1.3067642226815224e-02 -1.3413584232330322e-01 -1.6605494543910027e-02 -1.1600411683320999e-01 1.6781319677829742e-01 2.8984257578849792e-01 1.4535583555698395e-01 2.7378001809120178e-01 -2.3940211161971092e-02 -1.4052580296993256e-01 -2.4807596206665039e-01 1.5096644870936871e-02 1.6769167780876160e-01 -1.6809259355068207e-01 1.9098718464374542e-01 -9.0742923319339752e-02 1.1784158647060394e-01 -4.2521528899669647e-02 1.7366687953472137e-01 2.4057680368423462e-01 -1.5918587148189545e-01 -1.6388769447803497e-01 -5.6643050163984299e-02 7.2791643440723419e-02 -3.5088199377059937e-01 -2.3375971615314484e-01 1.1363429576158524e-01 -1.1776164174079895e-02 2.0979318767786026e-02 1.4927764236927032e-01 8.7503276765346527e-02 1.5533801913261414e-01 1.8178178369998932e-01 -5.1088434457778931e-01 -3.6796140670776367e-01 -2.0150542259216309e-01 -4.1484516859054565e-01 -1.0540344566106796e-01 -1.7081791162490845e-01 -2.2550840675830841e-01 -3.0838954448699951e-01 1.9780774414539337e-01 5.2226208150386810e-02 -1.9423007965087891e-01 -4.7550793737173080e-02 2.4658483266830444e-01 -2.3695795238018036e-01 -1.0131073184311390e-02 -1.6031348705291748e-01 -1.3997729122638702e-01 -2.7077031135559082e-01 1.1207140982151031e-01 1.8002264201641083e-01 2.5510081648826599e-01 1.6746029257774353e-01 4.5055385679006577e-02 -7.7917061746120453e-02 1.1635760217905045e-01 3.6846056580543518e-02 3.6272811889648438e-01 -2.8848841786384583e-01 -2.7444720268249512e-01 1.9292247295379639e-01 2.3110298812389374e-01 -1.4822329580783844e-01 -1.7994369566440582e-01 1.3932076096534729e-01 2.6431497931480408e-01 2.6537874341011047e-01 1.1419378966093063e-01 1.7262759804725647e-01 -1.7189240455627441e-01 2.4423554539680481e-01 2.9731398820877075e-01 -7.9727493226528168e-02 2.8282111883163452e-01 2.9735616408288479e-03 7.9113774001598358e-02 2.9017445631325245e-03 1.8906925618648529e-01 -2.1134930849075317e-01 5.3654007613658905e-02 -2.9994693398475647e-01 1.6616544127464294e-01 3.8875270634889603e-02 4.5313909649848938e-02 -1.4667768776416779e-01 -1.6983481124043465e-02 2.4152472615242004e-01 -1.8193489313125610e-01 5.7316757738590240e-02 -5.4905958473682404e-02 1.7452040314674377e-01 -1.0361711494624615e-02 -2.7431437373161316e-01 -2.0151313394308090e-02 1.1931780725717545e-01 -1.7482551932334900e-01 -8.6576305329799652e-02 3.1333816051483154e-01 1.8768315017223358e-01 -1.2221778929233551e-01 1.3358207419514656e-02 4.5517127960920334e-02 -2.4916303157806396e-01 -8.0701231956481934e-02 -8.2283332943916321e-02 -1.0935842245817184e-01 4.1480632498860359e-03 8.2693427801132202e-02 1.6069367527961731e-01 -1.8819853663444519e-01 2.4516431987285614e-01 -2.4642737209796906e-01 -1.2421526759862900e-01 2.5716006755828857e-01 1.2032715231180191e-01 1.3759420812129974e-01 -1.2971445918083191e-01 1.5972897410392761e-01 1.6800850629806519e-02 -2.3575660586357117e-01 -1.5525785088539124e-01 2.2976048290729523e-02 6.4083901233971119e-03 -5.8857654221355915e-03 -1.1485258489847183e-01 1.5086869709193707e-02 1.0719794034957886e-01 -1.2905165553092957e-01 3.2515861093997955e-02 1.0308555513620377e-01 3.6588571965694427e-03 2.6953497529029846e-01 3.6532614380121231e-02 -1.8687920272350311e-01 1.4654088020324707e-01 8.2906715571880341e-02 -2.1002637222409248e-02 5.7993527501821518e-02 -1.6183348000049591e-01 1.0302074998617172e-01 -4.4625841081142426e-02 2.5746843218803406e-01 -2.3252922296524048e-01 -3.2746937125921249e-02 1.7270705103874207e-01 1.1503367871046066e-01 1.2231442332267761e-01 8.1483118236064911e-02 -1.5765586495399475e-01 7.8993283212184906e-02 -7.7892653644084930e-02 1.7901550978422165e-02 -2.5159719586372375e-01 -1.6659082472324371e-01 -2.7164569497108459e-01 -2.7700698003172874e-02 5.3538192063570023e-02 1.9161571562290192e-01 -1.7143818736076355e-01 3.6217398941516876e-02 2.2412946820259094e-01 -2.5075364112854004e-01 2.5075098872184753e-01 2.7562785148620605e-01 -2.2445635497570038e-01 -2.1721228957176208e-01 -4.4546820223331451e-02 1.5409530699253082e-01 1.5512484312057495e-01 1.9241896271705627e-01 -1.0001833736896515e-01 -1.6461776196956635e-01 -6.6676083952188492e-03 2.0850095152854919e-01 -3.0923521518707275e-01 -4.8131555318832397e-02 1.1581884324550629e-01 1.6168700531125069e-02 2.2276502847671509e-01 3.4005510807037354e-01 3.3892965316772461e-01 8.6910702288150787e-02 -1.0976050049066544e-01 -2.5973242521286011e-01 2.0764422416687012e-01 2.0561684668064117e-01 1.3254952430725098e-01 2.8652825951576233e-01 -1.1180022358894348e-01 1.9231778383255005e-01 2.0585781335830688e-01 9.3993179500102997e-02 -2.1040618419647217e-01 -1.0262311249971390e-01 9.2896535992622375e-02 1.4405274391174316e-01 -2.5133490562438965e-01 -6.8582646548748016e-02 2.1283172070980072e-01 1.7610821127891541e-01 3.3482918143272400e-01 3.0683630704879761e-01 -5.0498023629188538e-02 -1.0840887576341629e-01 -3.3923405408859253e-01 2.0482890307903290e-01 -5.0163470208644867e-02 1.0470724105834961e-01 -2.0919324457645416e-01 1.8169084191322327e-01 -2.9646706581115723e-01 2.4272377789020538e-01 -1.1671552807092667e-01 2.6251810789108276e-01 -9.1070555150508881e-02 2.8501996397972107e-01 8.8878810405731201e-02 2.2225150465965271e-01 -1.8082606792449951e-01 -8.2424439489841461e-02 1.8520896136760712e-01 -2.1346311271190643e-01 -2.1388515830039978e-01 -8.2630276679992676e-02 -2.4139234423637390e-01 1.0113310068845749e-01 4.3679293245077133e-02 -1.6366867721080780e-01 3.0842223763465881e-01 -9.7050368785858154e-02 1.5963704884052277e-01 -2.5639653205871582e-01 -1.3219822943210602e-01 2.8297963738441467e-01 1.7106777429580688e-01 4.3124821037054062e-02 5.2573133260011673e-02 -1.4773729443550110e-01 -1.2253371626138687e-01 -1.8140561878681183e-01 2.1599756181240082e-01 1.7417989671230316e-01 2.3648208379745483e-01 1.3387073576450348e-01 2.6242581009864807e-01 -1.3921868801116943e-01 -9.6116326749324799e-02 2.3890249431133270e-01 2.1978369355201721e-01 -1.4882816933095455e-02 -2.4122938513755798e-01 6.4836487174034119e-02 -2.5920841097831726e-01 -2.1447275578975677e-01 -2.5756606459617615e-01 1.6823168098926544e-01 -2.1369709074497223e-01 -1.9126157462596893e-01 -1.9028320908546448e-01 -1.2668974697589874e-01 -2.6589116454124451e-01 2.6989396661520004e-02 1.7162887752056122e-01 -1.8044970929622650e-02 1.0928638279438019e-01 -1.2951703369617462e-01 -1.9165055453777313e-01 -1.5816704928874969e-01 -6.1510015279054642e-02 -3.0030441284179688e-01 -1.5879639983177185e-01 -3.0830481648445129e-01 5.7817362248897552e-02 2.0385009050369263e-01 2.0834653079509735e-01 -2.1370296180248260e-01 -2.7944561839103699e-01 1.1188654601573944e-01 -2.8351238369941711e-01 6.3104130327701569e-02 -1.4154611527919769e-01 1.2952731549739838e-01 1.8537335097789764e-01 -3.2487371563911438e-01 -1.4860458672046661e-02 -1.1899176985025406e-02 5.3564060479402542e-02 1.9960650801658630e-01 -7.8648708760738373e-02 7.5374230742454529e-02 -3.0960798263549805e-01 -1.7814005911350250e-01 -7.9269886016845703e-02 -3.2896406948566437e-02 -8.8791467249393463e-02 2.5028795003890991e-01 -6.0696434229612350e-04 -2.0187808200716972e-02 -1.9539216160774231e-01 -2.5021034479141235e-01 1.5532395243644714e-01 2.9137232899665833e-01 9.0811245143413544e-02 -1.4419983327388763e-01 -5.5991481989622116e-02 -1.3066937215626240e-02 2.6260882616043091e-01 -2.0391978323459625e-01 -9.3561470508575439e-02 -2.6341986656188965e-01 -8.6207181215286255e-02 1.3836531341075897e-01 -1.9373883306980133e-01 -1.0103871673345566e-01 2.0218928158283234e-01 -2.0528528094291687e-01 -3.0409970879554749e-01 2.2040298581123352e-01 -5.7571269571781158e-02 1.8357492983341217e-01 3.6769326776266098e-02 -1.9557563960552216e-01 -2.7812570333480835e-01 1.2634441256523132e-01 -1.8922613933682442e-02 -3.7939235568046570e-01 -3.5535991191864014e-01 -1.7695489525794983e-01 -2.5235834717750549e-01 1.6676440834999084e-01 -3.3652776479721069e-01 -7.6349161565303802e-02 -4.1545397043228149e-01 4.9785967916250229e-02 1.2679335474967957e-01 -2.9819542169570923e-01 -2.2720330953598022e-01 2.3353002965450287e-01 2.1528718993067741e-02 9.1915927827358246e-02 -1.3510501384735107e-01 4.0028765797615051e-02 -1.3072094321250916e-01 2.9150584340095520e-01 -6.1238612979650497e-02 4.8762183636426926e-02 3.2104068994522095e-01 1.3197589432820678e-03 7.9969890415668488e-02 1.4420504868030548e-01 2.8410726785659790e-01 1.8701805174350739e-01 -2.1654206793755293e-03 1.7116777598857880e-01 1.2146138399839401e-01 -1.5688054263591766e-02 -2.5422164797782898e-01 1.8143357336521149e-01 2.4087128043174744e-01 -2.1198758482933044e-01 2.3070555925369263e-01 6.2571220099925995e-02 -2.0811699330806732e-02 2.6589833199977875e-02 -8.8001981377601624e-02 1.1938228458166122e-01 1.3662949204444885e-01 2.0601417124271393e-01 1.7936234176158905e-01 3.0849337577819824e-01 -1.4335075020790100e-01 -3.6303710192441940e-02 -2.6767861843109131e-01 8.4714531898498535e-02 -2.9123326763510704e-02 2.6797107420861721e-03 1.8148428201675415e-01 -2.6846369728446007e-03 -3.3972817659378052e-01 1.8996436893939972e-01 1.3984121382236481e-01 4.5569583773612976e-02 -1.4996385574340820e-01 -1.5050977468490601e-01 -4.3998695909976959e-02 -1.8234418332576752e-01 -1.3468018174171448e-01 -9.3553245067596436e-02 -1.3916660845279694e-01 -4.4458683580160141e-02 1.6463527083396912e-01 1.3905057311058044e-01 1.3034021854400635e-01 1.2520107626914978e-01 6.1900027096271515e-02 8.3440080285072327e-02 -4.2450174689292908e-02 -1.2089081853628159e-01 -2.0834363996982574e-01 1.3335190713405609e-01 1.3792911544442177e-02 2.1024401485919952e-01 6.8467311561107635e-02 -9.4457544386386871e-02 1.6740527749061584e-01 2.6681715250015259e-01 -4.0039803832769394e-02 -6.4142853021621704e-02 3.0929291248321533e-01 2.6502913236618042e-01 2.2392933070659637e-01 2.4160128831863403e-01 4.8155151307582855e-02 -1.9623160362243652e-01 1.3368546962738037e-01 8.6007460951805115e-02 -1.8844929337501526e-01 2.5234320759773254e-01 1.0352772474288940e-01 -1.2414945662021637e-01 7.4888467788696289e-02 -1.4465911686420441e-01 2.0934347063302994e-02 -5.3373008966445923e-02 -1.3018092513084412e-01 -1.4901167154312134e-01 2.3277626931667328e-01 -7.8445293009281158e-02 -1.9211679697036743e-01 1.3986143469810486e-01 2.4021437764167786e-01 1.2774066999554634e-02 6.1245333403348923e-02 3.2317230105400085e-01 2.5716671347618103e-01 8.1052675843238831e-02 3.0197873711585999e-01 3.7500464916229248e-01 2.8038579225540161e-01 2.7325314003974199e-03 -1.5233781933784485e-01 1.9328501820564270e-01 7.3406368494033813e-02 -8.1908246502280235e-03 1.2169581651687622e-01 2.1206951141357422e-01 1.7225083708763123e-01 -4.6877294778823853e-02 -4.5497108250856400e-02 4.2366661131381989e-02 2.1532091498374939e-01 -1.8759387731552124e-01 -2.8842040896415710e-01 -2.3412697017192841e-01 -1.2517750263214111e-01 -1.3582284748554230e-01 1.1853027157485485e-02 -1.8220042809844017e-02 2.0984424650669098e-01 2.4129012227058411e-01 -4.2325116693973541e-02 2.2589844465255737e-01 -1.7819477617740631e-01 -1.3667100667953491e-01 -1.2304299324750900e-01 5.0915669649839401e-02 2.3413352668285370e-01 -9.3542523682117462e-02 -1.6002175211906433e-01 2.6253940537571907e-02 -2.5016999244689941e-01 -9.5800139009952545e-02 -1.3865341246128082e-01 -1.1858997493982315e-01 9.1179549694061279e-02 -3.8447356224060059e-01 1.3728088140487671e-01 8.9370571076869965e-02 1.7857097089290619e-01 -3.5468855500221252e-01 2.0667792856693268e-01 6.7489244043827057e-02 1.4541064202785492e-01 -2.1605984866619110e-01 2.2983399033546448e-01 3.7385251373052597e-02 1.6913168132305145e-01 -1.9609559327363968e-02 -2.6694160699844360e-01 -1.4618946611881256e-01 1.0989711433649063e-01 -1.4265975356101990e-01 8.6628213524818420e-02 5.3185057640075684e-01 1.1200776696205139e-01 9.5384456217288971e-02 5.5712342262268066e-01 3.8905590772628784e-02 6.8566226400434971e-04 -1.1917853355407715e-01 3.6611965298652649e-01 -2.0460325479507446e-01 -3.4150388836860657e-01 -2.8546249866485596e-01 1.1825247108936310e-01 2.0360837876796722e-01 3.7118241190910339e-02 -1.3629943132400513e-01 -2.4554356932640076e-01 2.1461153030395508e-01 -3.9698943495750427e-02 2.6218404993414879e-02 4.6155899763107300e-02 -6.6059358417987823e-02 -1.5134197473526001e-01 -1.0643540322780609e-01 4.1327312588691711e-02 -1.0551507025957108e-01 -1.3965956866741180e-01 8.5973732173442841e-02 -1.3328079879283905e-01 -4.7685465216636658e-01 8.6921535432338715e-02 3.2279744744300842e-01 1.8006663024425507e-01 -5.7892605662345886e-02 -2.3237646091729403e-03 -1.8239451944828033e-01 4.7175552695989609e-02 -2.2876292467117310e-01 -1.8205145001411438e-01 -4.3294165283441544e-02 -4.0000032633543015e-02 1.7580302059650421e-01 1.4215636253356934e-01 -1.9871570169925690e-01 3.1063866615295410e-01 3.2164222002029419e-01 3.3105902373790741e-02 -1.1537402123212814e-01 -8.7367080152034760e-02 -1.8458923697471619e-01 1.6341719031333923e-01 8.1062853336334229e-02 -1.8324473500251770e-01 2.2138062119483948e-01 1.1659824848175049e-01 1.7673774855211377e-03 2.6027721166610718e-01 4.8003245145082474e-02 -2.6758450269699097e-01 -1.3708847761154175e-01 -2.8234142065048218e-01 2.0567265152931213e-01 2.5877037644386292e-01 1.2347566336393356e-01 -4.2088262736797333e-02 1.4900083839893341e-01 -1.3134375214576721e-01 -7.6599180698394775e-02 2.1513247489929199e-01 2.5314828753471375e-01 -2.2897942364215851e-01 -3.8516572117805481e-01 1.0761704295873642e-01 1.8216010928153992e-01 -5.1566824316978455e-02 2.2630806267261505e-01 1.2858287990093231e-01 2.6291093230247498e-01 -2.6762962341308594e-01 2.5986069440841675e-01 1.5656467527151108e-02 -2.4859341792762280e-03 -3.1453379988670349e-01 -2.3111191391944885e-01 1.2531897425651550e-01 3.1270790845155716e-02 5.3363636136054993e-02 -3.3594646956771612e-03 5.0112470984458923e-02 -9.6990063786506653e-02 2.2573234513401985e-02 1.7293618619441986e-01 -1.2596084177494049e-01 2.3127226531505585e-01 1.6293689608573914e-01 1.0041985660791397e-01 -9.2710917815566063e-03 5.3046890534460545e-03 -6.0873604379594326e-03 -1.2867186963558197e-01 2.1806414425373077e-01 -3.9065822958946228e-02 -3.2086268067359924e-02 -1.9259782135486603e-01 -2.3921847343444824e-01 -1.2033511698246002e-01 -2.6945525407791138e-01 -1.8491986393928528e-01 8.7600782513618469e-02 1.0681503266096115e-01 -1.2827475368976593e-01 1.7199456691741943e-01 1.4544850587844849e-01 -2.9195865988731384e-01 1.1009549349546432e-01 -2.8669247031211853e-01 -1.9876338541507721e-01 -4.3941813055425882e-04 -7.5870618224143982e-02 2.3996932804584503e-01 -2.8400847315788269e-01 3.1574323773384094e-02 2.2494885325431824e-01 3.8399986922740936e-02 2.1787513047456741e-02 -2.1756981313228607e-01 2.7660017833113670e-02 1.4892497658729553e-01 -2.3599646985530853e-01 -2.1434268355369568e-01 1.4955684542655945e-01 1.8100485205650330e-01 2.1864685416221619e-01 2.5541910529136658e-01 3.2667180895805359e-01 -2.8071022033691406e-01 5.9690300375223160e-02 -1.5321694314479828e-01 1.4647231996059418e-01 6.9394357502460480e-02 1.4426615834236145e-01 4.9001839011907578e-02 2.1609961986541748e-01 1.4801102876663208e-01 -6.1634592711925507e-02 1.5767632424831390e-01 -2.2004304826259613e-01 -6.2965579330921173e-02 3.1208875775337219e-01 -4.0045730769634247e-02 4.7656640410423279e-02 5.8307200670242310e-02 -2.0421817898750305e-01 -1.8391230702400208e-01 3.1736031174659729e-02 2.6205873489379883e-01 2.8639093041419983e-01 -1.4094831049442291e-01 -1.4221955835819244e-01 2.2628411650657654e-01 2.8931394219398499e-01 -1.8720401823520660e-01 -3.0054220557212830e-01 2.5872334837913513e-01 -2.5044390559196472e-01 -1.0644428431987762e-01 -5.7314075529575348e-02 -2.1140365302562714e-01 2.1895164251327515e-01 6.8328499794006348e-02 9.0873360633850098e-02 3.2624632120132446e-01 3.6333614587783813e-01 8.5847608745098114e-02 -1.2963625788688660e-01 3.6877315491437912e-02 3.1874573230743408e-01 -3.6468695849180222e-02 -1.0122264176607132e-01 2.9458861798048019e-02 -2.0894978940486908e-01 -2.4700144305825233e-02 -1.7383219301700592e-01 3.3468000590801239e-02 -4.0644448250532150e-02 -2.3719719052314758e-01 -1.9528008997440338e-02 2.6465216279029846e-01 -6.0389257967472076e-02 1.9599717855453491e-01 -4.0482136607170105e-01 -1.9376368820667267e-01 -3.3562728762626648e-01 -3.5933095216751099e-01 -1.0381697118282318e-01 -1.7135554552078247e-01 -1.2906779348850250e-01 1.7050433158874512e-01 -2.6470635086297989e-02 1.4754354953765869e-01 6.2083598226308823e-02 4.0502082556486130e-02 -2.3363286256790161e-01 2.6461276412010193e-01 -7.3823936283588409e-02 2.8080597519874573e-01 -1.1004296690225601e-01 -3.8338057696819305e-02 -2.1442143619060516e-01 1.8051220104098320e-02 1.7581477761268616e-01 -1.5841245651245117e-02 1.0476513206958771e-01 -1.6306531429290771e-01 3.6984227597713470e-02 -1.6384731233119965e-01 -6.5066732466220856e-02 -1.8565961718559265e-01 -2.8841400146484375e-01 -1.1112647503614426e-01 1.6337871551513672e-01 -5.7318702340126038e-02 -2.3686772584915161e-01 1.2772025167942047e-01 1.0036101937294006e-01 -7.5805030763149261e-02 1.1676907539367676e-01 8.1578165292739868e-02 -2.9247242212295532e-01 -2.5565010309219360e-01 -2.7408298850059509e-01 1.5298575162887573e-01 1.6458171606063843e-01 2.2267252206802368e-01 1.0917013883590698e-01 2.4644330143928528e-01 2.2008945047855377e-01 -2.9249671846628189e-02 -1.5770341455936432e-01 -2.0206381380558014e-01 -2.0154979825019836e-01 1.3252171874046326e-01 -1.1224440485239029e-01 -3.1663542985916138e-01 2.5211337208747864e-01 -5.2865870296955109e-02 -1.7831261456012726e-01 -2.7465504407882690e-01 2.3679584264755249e-01 -7.8038528561592102e-02 3.6163147538900375e-02 -2.7254875749349594e-02 -3.0710268020629883e-01 -3.7853099405765533e-02 2.7686212211847305e-02 2.5804451107978821e-01 3.3985772728919983e-01 1.2568046152591705e-01 1.2633696198463440e-01 1.2886485457420349e-01 2.0423205196857452e-01 5.6311879307031631e-02 -2.4053184315562248e-02 -9.5456436276435852e-02 4.4621758162975311e-02 -2.8147122263908386e-01 -3.3905589580535889e-01 -7.1948215365409851e-02 2.5631904602050781e-01 8.5292220115661621e-02 -2.7805024385452271e-01 -1.7231303453445435e-01 -2.3139917850494385e-01 2.8112074732780457e-01 -2.5121426582336426e-01 -3.3746534585952759e-01 -1.1690927296876907e-01 -3.9455950260162354e-01 2.2123226523399353e-01 -2.0780045539140701e-02 2.9880148172378540e-01 -1.8238518387079239e-02 2.4365358054637909e-01 2.2305493056774139e-01 3.7183567881584167e-02 -1.6828760504722595e-01 1.1365925520658493e-01 3.7367162294685841e-03 2.4178175954148173e-04 -1.1902232654392719e-04 1.7262101173400879e-01 -2.7639737725257874e-01 -8.5779651999473572e-02 -2.3994342982769012e-01 2.0749235153198242e-01 2.3896555602550507e-01 3.3829450607299805e-02 -1.9421932101249695e-01 2.7947157621383667e-01 -2.5056970119476318e-01 1.2700832448899746e-02 -9.1548420488834381e-02 1.9389140605926514e-01 1.8840530887246132e-02 -5.1302704960107803e-02 1.4133161306381226e-01 2.0936092734336853e-01 2.0044511556625366e-01 2.1991793811321259e-01 -1.8347702920436859e-01 1.3182623684406281e-01 8.5346505045890808e-02 2.8019914031028748e-01 2.4677689373493195e-01 -1.7441949248313904e-01 -3.0492062214761972e-03 -2.2208952903747559e-01 1.9619888067245483e-01 -7.4811846017837524e-02 -2.6129260659217834e-01 -1.4071689546108246e-01 -1.2164900451898575e-01 -7.3332883417606354e-02 -3.0608686804771423e-01 4.1104596108198166e-02 1.4376534521579742e-01 -2.6293194387108088e-03 -1.0618471354246140e-01 5.2293036133050919e-02 -1.9940222799777985e-01 -5.4016750305891037e-02 2.3456074297428131e-01 2.8071296215057373e-01 1.8338114023208618e-01 -6.9125875830650330e-02 2.0021967589855194e-01 -3.0210068821907043e-01 1.2849685549736023e-01 -3.4088596701622009e-01 -6.1459265649318695e-02 1.3341383635997772e-01 1.0093438625335693e-01 -3.5018661618232727e-01 5.2168767899274826e-02 -3.5726344585418701e-01 2.7053767442703247e-01 8.0007523298263550e-02 2.5174766778945923e-01 -1.0300702601671219e-01 7.7033095061779022e-02 1.2010524049401283e-02 1.0540688782930374e-01 -1.1669161915779114e-01 -3.1259754300117493e-01 -3.2346472144126892e-02 1.5982070565223694e-01 -2.4983024597167969e-01 1.8704429268836975e-01 -2.1652796864509583e-01 -3.7426605820655823e-02 -4.2605489492416382e-02 2.1460762619972229e-01 -2.3796960711479187e-01 -1.5877558290958405e-01 6.9608925841748714e-03 -1.3145044445991516e-01 2.2031094133853912e-01 -1.9338756799697876e-01 -1.0309750586748123e-01 -1.8251800537109375e-01 6.5552249550819397e-02 2.0959691703319550e-01 -2.5551882386207581e-01 4.8831727355718613e-02 1.6036219894886017e-01 -2.7004152536392212e-01 -1.1648368090391159e-01 -2.6177009940147400e-01 -2.3450070619583130e-01 -2.1228235960006714e-01 -1.9661225378513336e-01 -1.6764986515045166e-01 6.6462546586990356e-02 5.4273009300231934e-02 6.9607339799404144e-02 1.8904203176498413e-01 -3.9640761911869049e-02 1.9494986534118652e-01 2.0351016521453857e-01 -1.1870477348566055e-01 -2.3105210065841675e-01 1.8736886978149414e-01 1.4366376399993896e-01 -1.6517531871795654e-01 2.0431631803512573e-01 7.9843252897262573e-02 1.7492507398128510e-01 -2.1059416234493256e-01 -1.4167387783527374e-01 4.4792469590902328e-02 4.2719727754592896e-01 8.7095409631729126e-02 -6.9461584091186523e-02 4.7852841019630432e-01 4.5937612652778625e-02 -2.1919764578342438e-01 -1.7934420704841614e-01 2.6516655087471008e-01 -4.4323008507490158e-02 3.2833528518676758e-01 1.9898936152458191e-01 -1.8544074892997742e-01 3.5759347677230835e-01 -5.4506331682205200e-02 -2.3968429863452911e-01 9.4896063208580017e-02 -3.2425212860107422e-01 -1.5915718674659729e-01 2.0776915550231934e-01 2.4579070508480072e-01 1.0301104187965393e-01 4.2914053797721863e-01 2.1564502269029617e-02 1.8524903059005737e-01 3.5243448615074158e-01 -1.2763209640979767e-01 -1.6455419361591339e-02 7.9700484871864319e-02 2.9421180486679077e-01 2.2638392448425293e-01 -2.4484109878540039e-01 -1.1907862126827240e-01 2.2002220153808594e-01 2.7007392048835754e-01 -2.5005477666854858e-01 5.5278431624174118e-02 2.7468791604042053e-01 8.6307547986507416e-02 2.5188818573951721e-01 -7.3904499411582947e-02 -1.8210098147392273e-02 -1.1649827472865582e-02 -3.0437597632408142e-01 -5.4011207818984985e-01 -4.2848542332649231e-01 -4.2112854123115540e-01 -9.3273527920246124e-02 -4.2463716864585876e-01 1.9363313913345337e-01 -1.8360200524330139e-01 -3.9750602096319199e-02 -2.7177500724792480e-01 -1.2963365018367767e-01 -8.0135161988437176e-04 7.9391665756702423e-02 2.6074090600013733e-01 1.5847390890121460e-01 -1.9522231817245483e-01 1.1553250998258591e-01 1.2362797558307648e-01 -2.7531775832176208e-01 3.8204412907361984e-02 5.3521715104579926e-02 -4.6614104509353638e-01 -2.0121923089027405e-01 -3.0238398909568787e-01 -1.6692899167537689e-01 9.8306953907012939e-02 -2.3856721818447113e-01 -2.9374665021896362e-01 -3.8898515701293945e-01 -1.8185923993587494e-01 1.9767487049102783e-01 2.3459921777248383e-01 -1.7768810689449310e-01 2.3646099865436554e-01 -2.9954218864440918e-01 2.5275313854217529e-01 -2.6930619496852160e-03 1.7874842882156372e-01 -2.0720988512039185e-01 -2.5710901245474815e-02 7.9149842262268066e-02 7.1683540940284729e-02 -1.2197321653366089e-01 4.0359422564506531e-02 -1.1533211171627045e-01 1.4548717066645622e-02 2.7472448348999023e-01 -1.1211369186639786e-01 2.1948729455471039e-01 1.9272655248641968e-01 -1.3167677447199821e-02 1.5483437478542328e-01 -7.1524158120155334e-02 2.0843319594860077e-01 3.0202800035476685e-01 5.0587235018610954e-03 2.5621956214308739e-02 -7.8016519546508789e-02 -1.8495160341262817e-01 1.2377967685461044e-01 2.1393606066703796e-01 -9.3374699354171753e-02 -1.2652386724948883e-01 -1.7340958118438721e-02 4.3556615710258484e-01 -1.4324870705604553e-01 4.1025924682617188e-01 1.4014720916748047e-01 -8.7607935070991516e-02 1.6298449039459229e-01 3.1816875934600830e-01 -2.6365154981613159e-01 1.6891604661941528e-01 1.0467452555894852e-01 -1.6054101288318634e-01 -1.3675776124000549e-01 -1.5015153586864471e-01 -5.8756455779075623e-02 2.2877375781536102e-01 6.9178879261016846e-02 -2.8985986113548279e-01 -3.5368394106626511e-02 -1.5699449181556702e-01 2.3369863629341125e-01 -3.1535947322845459e-01 -9.2884883284568787e-02 -2.8048357367515564e-01 -1.4248923398554325e-02 -2.8852361440658569e-01 -2.2034037113189697e-01 2.2916597127914429e-01 -3.1622552871704102e-01 2.2833605110645294e-01 1.5472728013992310e-01 -1.5149125456809998e-01 -3.3123803138732910e-01 9.1294553130865097e-03 2.4124827980995178e-01 1.1156254261732101e-01 -7.2035573422908783e-02 -4.8277050256729126e-02 3.6349751055240631e-02 1.5415738523006439e-01 -2.2796909511089325e-01 3.8665492087602615e-02 -7.8705392777919769e-02 -1.2092761695384979e-01 -2.1092472970485687e-01 2.6687848567962646e-01 -2.4183644354343414e-01 1.3403224945068359e-01 -1.4942850172519684e-01 1.4939667657017708e-02 2.0341056585311890e-01 -2.7570265531539917e-01 -9.0011134743690491e-02 -1.3652259111404419e-01 -3.9356645196676254e-02 -2.5719645619392395e-01 2.0984566211700439e-01 7.6817609369754791e-02 2.8366079926490784e-01 -9.2903122305870056e-02 -1.7990739643573761e-01 -1.9914157688617706e-01 -2.6453581452369690e-01 -1.5445895493030548e-01 3.0624246597290039e-01 1.6315861046314240e-01 3.0735793709754944e-01 1.7005939781665802e-01 1.4512127637863159e-01 2.1903285384178162e-01 3.1721854209899902e-01 2.7052599191665649e-01 2.6893755793571472e-01 -2.9190255329012871e-02 1.1593710631132126e-01 -6.5821006894111633e-02 -1.8829579651355743e-01 1.5563786029815674e-01 -1.7128224670886993e-01 2.5703576207160950e-01 1.1460851877927780e-02 -1.8979409337043762e-01 1.5812055766582489e-01 1.3641779124736786e-01 -7.1352533996105194e-02 2.7465990185737610e-01 -1.8213205039501190e-01 -8.3728715777397156e-02 -1.9534055143594742e-02 -8.1406630575656891e-02 -3.0120547860860825e-02 2.9711323976516724e-01 -2.9924911260604858e-01 4.7165516763925552e-02 -1.0098727792501450e-01 1.3955266773700714e-01 -1.8859209492802620e-02 -3.0288094654679298e-02 -2.9610665515065193e-02 2.9721943661570549e-02 -1.1945100873708725e-01 -2.1993115544319153e-01 2.2729302942752838e-01 2.7073716744780540e-02 -7.1964040398597717e-02 -1.4467138051986694e-01 1.6265007853507996e-01 -4.2716972529888153e-03 -1.4436477422714233e-01 -1.6386382281780243e-01 9.6879146993160248e-02 -1.6213251650333405e-01 1.0969167202711105e-01 -1.4364065229892731e-01 -4.4346977025270462e-02 2.2651107981801033e-02 2.9566189274191856e-02 1.4142633974552155e-01 -2.5289162993431091e-01 -6.7217953503131866e-02 -1.0247728228569031e-01 1.9619315862655640e-01 -2.6493170857429504e-01 -1.3413697481155396e-01 -7.0600070059299469e-02 2.2640846669673920e-01 -6.7199297249317169e-02 2.4607732892036438e-01 1.8429242074489594e-01 -6.9353140890598297e-02 -8.6533144116401672e-02 1.9731681048870087e-01 2.1803565323352814e-03 2.5180956721305847e-01 -1.8217932432889938e-02 -1.9083824753761292e-01 -1.8487954139709473e-01 -1.0487192124128342e-01 2.1363613009452820e-01 -2.6723271608352661e-01 -1.4900596439838409e-01 -3.6630522459745407e-02 1.8692478537559509e-01 -2.6792132854461670e-01 3.5808295011520386e-02 5.9710878878831863e-02 -2.4980019032955170e-01 1.6619683802127838e-01 -2.1861205995082855e-01 1.0395615547895432e-01 5.1835980266332626e-02 -5.3826805204153061e-02 1.7283262312412262e-01 -2.3807202279567719e-01 -2.1093514561653137e-01 -2.0085069537162781e-01 -1.9293235242366791e-01 2.6451325416564941e-01 -1.4381246268749237e-01 2.4435672163963318e-01 -8.9827649295330048e-02 2.8615765040740371e-04 -1.4293156564235687e-01 1.0129797458648682e-01 2.2855157032608986e-02 -2.6142147183418274e-01 9.4552338123321533e-02 -6.0520321130752563e-02 3.4424522519111633e-01 -2.6074975728988647e-02 1.8640412390232086e-01 4.9477246403694153e-01 3.2999063841998577e-03 1.0824972391128540e-01 1.8756246566772461e-01 2.7091583609580994e-01 
      </Weights>
      <Biases rows="128" cols="1">
        2.2705972194671631e-01 1.9806623458862305e-02 -8.9687950909137726e-02 6.1074104160070419e-02 4.4085182249546051e-02 -2.0752977579832077e-02 -5.5436462163925171e-02 8.4783826023340225e-03 -2.4305009841918945e-01 -1.1924385093152523e-02 4.5579068362712860e-02 3.0932757258415222e-01 -2.1960021555423737e-01 6.6768370568752289e-02 1.4140517450869083e-02 1.7879751324653625e-01 -4.5778892934322357e-02 2.9855644702911377e-01 6.4772382378578186e-02 -9.5406919717788696e-02 1.1011356860399246e-01 -7.1699678897857666e-02 4.3590371496975422e-03 4.4959191232919693e-02 2.7916528284549713e-02 9.4395101070404053e-02 1.0121184587478638e-01 1.5266309678554535e-01 8.1931039690971375e-02 -3.4475933760404587e-02 -2.3405330255627632e-02 -1.0441046208143234e-01 1.8370659649372101e-01 -8.7562322616577148e-02 1.1329697072505951e-01 -6.3932776451110840e-02 -6.2341913580894470e-02 -5.2483841776847839e-02 -1.4329165220260620e-01 -5.2062902599573135e-02 1.0015256702899933e-01 8.1364035606384277e-02 -3.2518268562853336e-03 -7.7842846512794495e-02 -1.4878956973552704e-01 -7.3139354586601257e-02 -1.1412277072668076e-01 -4.9285992980003357e-02 7.3745213449001312e-02 1.1478602886199951e-01 -6.8256653845310211e-02 -1.4849688112735748e-01 -1.7436291277408600e-01 3.8154926896095276e-01 5.2096564322710037e-02 1.3461934030056000e-01 -7.8701637685298920e-02 2.5959631800651550e-01 -1.2119239568710327e-01 3.0821258202195168e-02 1.4725922048091888e-01 7.4296526610851288e-02 -1.1907877027988434e-01 5.7208138704299927e-01 1.3563443720340729e-01 8.9662082493305206e-02 -1.2033808231353760e-01 -2.3636093735694885e-01 -2.3726502060890198e-01 2.4631680920720100e-02 3.1567770987749100e-02 1.6124047338962555e-01 5.9988360852003098e-02 -2.9889947175979614e-01 -2.3425153922289610e-03 4.2786750942468643e-02 6.3528060913085938e-02 -1.6135584563016891e-02 3.0975248664617538e-02 3.7818178534507751e-02 8.2842372357845306e-02 1.4737947285175323e-01 -1.5012510120868683e-02 1.3345384597778320e-01 1.4410327188670635e-02 -1.2629222869873047e-01 5.5351510643959045e-02 -2.2355517745018005e-01 1.2324750423431396e-01 6.8311661481857300e-02 8.7463408708572388e-02 2.4070717394351959e-02 9.0537622570991516e-02 -3.3836399670690298e-03 -1.4988882839679718e-01 2.5741994380950928e-01 -1.7594592273235321e-01 5.1482763141393661e-02 -3.9704144001007080e-02 4.3804347515106201e-02 -2.0938726142048836e-02 5.5063281208276749e-02 1.4391790330410004e-01 1.2436937540769577e-01 -1.4053544402122498e-01 -8.3349324762821198e-02 -4.0432613343000412e-02 1.9126805663108826e-01 -2.2100780904293060e-01 1.2385807186365128e-01 -2.5707134976983070e-02 -8.0112300813198090e-02 3.8656964898109436e-02 -3.9586670696735382e-02 1.7689330875873566e-01 2.1975414454936981e-01 -2.9762965440750122e-01 -2.6092743873596191e-01 9.3384154140949249e-02 1.7828430235385895e-01 -2.5564110279083252e-01 1.2484205514192581e-01 6.6095963120460510e-02 7.1665883064270020e-02 -3.2576169818639755e-02 5.7641103863716125e-02 -7.4238069355487823e-02 1.5361449122428894e-01 
      </Biases>
    </Layer>
    <Layer ActivationFunction="3">
      <Weights rows="128" cols="128">
