<?xml version="1.0"?>
<MethodSetup Method="DNN::DNN CPU">
  <GeneralInfo>
    <Info name="TMVA Release" value="4.2.1 [262657]"/>
    <Info name="ROOT Release" value="6.12/06 [396294]"/>
    <Info name="Creator" value="boraisildak"/>
    <Info name="Date" value="Fri Aug 10 21:55:48 2018"/>
    <Info name="Host" value="Darwin ElCapitan-2.local 15.6.0 Darwin Kernel Version 15.6.0: Tue Jan 9 20:12:05 PST 2018; root:xnu-3248.73.5~1/RELEASE_X86_64 x86_64"/>
    <Info name="Dir" value="/Users/boraisildak/Documents/GitHub/SMCEDM/Analysis"/>
    <Info name="Training events" value="2000"/>
    <Info name="TrainingTime" value="5.16696477e+00"/>
    <Info name="AnalysisType" value="Classification"/>
  </GeneralInfo>
  <Options>
    <Option name="V" modified="Yes">True</Option>
    <Option name="VerbosityLevel" modified="No">Verbose</Option>
    <Option name="VarTransform" modified="Yes">N</Option>
    <Option name="H" modified="Yes">False</Option>
    <Option name="CreateMVAPdfs" modified="No">False</Option>
    <Option name="IgnoreNegWeightsInTraining" modified="No">False</Option>
    <Option name="Layout" modified="Yes">TANH|128,TANH|128,TANH|128,LINEAR</Option>
    <Option name="ValidationSize" modified="No">20%</Option>
    <Option name="ErrorStrategy" modified="Yes">CROSSENTROPY</Option>
    <Option name="WeightInitialization" modified="Yes">XAVIERUNIFORM</Option>
    <Option name="Architecture" modified="Yes">CPU</Option>
    <Option name="TrainingStrategy" modified="Yes">LearningRate=1e-1,Momentum=0.9,Repetitions=1,ConvergenceSteps=20,BatchSize=256,TestRepetitions=10,WeightDecay=1e-4,Regularization=L2,DropConfig=0.0+0.5+0.5+0.5,</Option>
  </Options>
  <Variables NVar="21">
    <Variable VarIndex="0" Expression="nJets" Label="nJets" Title="nJets" Unit="" Internal="nJets" Type="F" Min="2.00000000e+00" Max="1.40000000e+01"/>
    <Variable VarIndex="1" Expression="ht" Label="ht" Title="ht" Unit="" Internal="ht" Type="F" Min="5.26264954e+01" Max="1.93714246e+03"/>
    <Variable VarIndex="2" Expression="jetPt[0]" Label="jetPt[0]" Title="jetPt[0]" Unit="" Internal="jetPt_0_" Type="F" Min="2.53388882e+01" Max="7.71893127e+02"/>
    <Variable VarIndex="3" Expression="jetPt[1]" Label="jetPt[1]" Title="jetPt[1]" Unit="" Internal="jetPt_1_" Type="F" Min="2.34578686e+01" Max="6.23182190e+02"/>
    <Variable VarIndex="4" Expression="jetPt[2]" Label="jetPt[2]" Title="jetPt[2]" Unit="" Internal="jetPt_2_" Type="F" Min="0.00000000e+00" Max="2.85220459e+02"/>
    <Variable VarIndex="5" Expression="jetPt[3]" Label="jetPt[3]" Title="jetPt[3]" Unit="" Internal="jetPt_3_" Type="F" Min="0.00000000e+00" Max="1.70677139e+02"/>
    <Variable VarIndex="6" Expression="jetPt[4]" Label="jetPt[4]" Title="jetPt[4]" Unit="" Internal="jetPt_4_" Type="F" Min="0.00000000e+00" Max="1.24699615e+02"/>
    <Variable VarIndex="7" Expression="sphericity" Label="sphericity" Title="sphericity" Unit="" Internal="sphericity" Type="F" Min="5.32507722e-04" Max="8.64658773e-01"/>
    <Variable VarIndex="8" Expression="aplanarity" Label="aplanarity" Title="aplanarity" Unit="" Internal="aplanarity" Type="F" Min="-4.65982097e-08" Max="3.34201902e-01"/>
    <Variable VarIndex="9" Expression="foxWolfram[0]" Label="foxWolfram[0]" Title="foxWolfram[0]" Unit="" Internal="foxWolfram_0_" Type="F" Min="5.79231046e-02" Max="4.40202236e-01"/>
    <Variable VarIndex="10" Expression="foxWolfram[1]" Label="foxWolfram[1]" Title="foxWolfram[1]" Unit="" Internal="foxWolfram_1_" Type="F" Min="-2.49687493e-01" Max="2.68297285e-01"/>
    <Variable VarIndex="11" Expression="foxWolfram[2]" Label="foxWolfram[2]" Title="foxWolfram[2]" Unit="" Internal="foxWolfram_2_" Type="F" Min="-1.15398824e-01" Max="3.64943802e-01"/>
    <Variable VarIndex="12" Expression="foxWolfram[3]" Label="foxWolfram[3]" Title="foxWolfram[3]" Unit="" Internal="foxWolfram_3_" Type="F" Min="-2.49678865e-01" Max="2.37365618e-01"/>
    <Variable VarIndex="13" Expression="mTop" Label="mTop" Title="mTop" Unit="" Internal="mTop" Type="F" Min="8.17731799e-30" Max="1.83393469e+03"/>
    <Variable VarIndex="14" Expression="yTop" Label="yTop" Title="yTop" Unit="" Internal="yTop" Type="F" Min="-3.98403978e+00" Max="3.63517523e+00"/>
    <Variable VarIndex="15" Expression="ptTop" Label="ptTop" Title="ptTop" Unit="" Internal="ptTop" Type="F" Min="0.00000000e+00" Max="6.76800476e+02"/>
    <Variable VarIndex="16" Expression="met" Label="met" Title="met" Unit="" Internal="met" Type="F" Min="3.20985377e-01" Max="4.33431000e+02"/>
    <Variable VarIndex="17" Expression="metPhi" Label="metPhi" Title="metPhi" Unit="" Internal="metPhi" Type="F" Min="-3.13918328e+00" Max="3.13974905e+00"/>
    <Variable VarIndex="18" Expression="nLeptons" Label="nLeptons" Title="nLeptons" Unit="" Internal="nLeptons" Type="F" Min="0.00000000e+00" Max="2.00000000e+00"/>
    <Variable VarIndex="19" Expression="mW" Label="mW" Title="mW" Unit="" Internal="mW" Type="F" Min="6.50278473e+01" Max="9.49839554e+01"/>
    <Variable VarIndex="20" Expression="nBJets" Label="nBJets" Title="nBJets" Unit="" Internal="nBJets" Type="F" Min="0.00000000e+00" Max="4.00000000e+00"/>
  </Variables>
  <Spectators NSpec="0"/>
  <Classes NClass="2">
    <Class Name="Signal" Index="0"/>
    <Class Name="Background" Index="1"/>
  </Classes>
  <Transformations NTransformations="1">
    <Transform Name="Normalize">
      <Selection>
        <Input NInputs="21">
          <Input Type="Variable" Label="nJets" Expression="nJets"/>
          <Input Type="Variable" Label="ht" Expression="ht"/>
          <Input Type="Variable" Label="jetPt[0]" Expression="jetPt[0]"/>
          <Input Type="Variable" Label="jetPt[1]" Expression="jetPt[1]"/>
          <Input Type="Variable" Label="jetPt[2]" Expression="jetPt[2]"/>
          <Input Type="Variable" Label="jetPt[3]" Expression="jetPt[3]"/>
          <Input Type="Variable" Label="jetPt[4]" Expression="jetPt[4]"/>
          <Input Type="Variable" Label="sphericity" Expression="sphericity"/>
          <Input Type="Variable" Label="aplanarity" Expression="aplanarity"/>
          <Input Type="Variable" Label="foxWolfram[0]" Expression="foxWolfram[0]"/>
          <Input Type="Variable" Label="foxWolfram[1]" Expression="foxWolfram[1]"/>
          <Input Type="Variable" Label="foxWolfram[2]" Expression="foxWolfram[2]"/>
          <Input Type="Variable" Label="foxWolfram[3]" Expression="foxWolfram[3]"/>
          <Input Type="Variable" Label="mTop" Expression="mTop"/>
          <Input Type="Variable" Label="yTop" Expression="yTop"/>
          <Input Type="Variable" Label="ptTop" Expression="ptTop"/>
          <Input Type="Variable" Label="met" Expression="met"/>
          <Input Type="Variable" Label="metPhi" Expression="metPhi"/>
          <Input Type="Variable" Label="nLeptons" Expression="nLeptons"/>
          <Input Type="Variable" Label="mW" Expression="mW"/>
          <Input Type="Variable" Label="nBJets" Expression="nBJets"/>
        </Input>
        <Output NOutputs="21">
          <Output Type="Variable" Label="nJets" Expression="nJets"/>
          <Output Type="Variable" Label="ht" Expression="ht"/>
          <Output Type="Variable" Label="jetPt[0]" Expression="jetPt[0]"/>
          <Output Type="Variable" Label="jetPt[1]" Expression="jetPt[1]"/>
          <Output Type="Variable" Label="jetPt[2]" Expression="jetPt[2]"/>
          <Output Type="Variable" Label="jetPt[3]" Expression="jetPt[3]"/>
          <Output Type="Variable" Label="jetPt[4]" Expression="jetPt[4]"/>
          <Output Type="Variable" Label="sphericity" Expression="sphericity"/>
          <Output Type="Variable" Label="aplanarity" Expression="aplanarity"/>
          <Output Type="Variable" Label="foxWolfram[0]" Expression="foxWolfram[0]"/>
          <Output Type="Variable" Label="foxWolfram[1]" Expression="foxWolfram[1]"/>
          <Output Type="Variable" Label="foxWolfram[2]" Expression="foxWolfram[2]"/>
          <Output Type="Variable" Label="foxWolfram[3]" Expression="foxWolfram[3]"/>
          <Output Type="Variable" Label="mTop" Expression="mTop"/>
          <Output Type="Variable" Label="yTop" Expression="yTop"/>
          <Output Type="Variable" Label="ptTop" Expression="ptTop"/>
          <Output Type="Variable" Label="met" Expression="met"/>
          <Output Type="Variable" Label="metPhi" Expression="metPhi"/>
          <Output Type="Variable" Label="nLeptons" Expression="nLeptons"/>
          <Output Type="Variable" Label="mW" Expression="mW"/>
          <Output Type="Variable" Label="nBJets" Expression="nBJets"/>
        </Output>
      </Selection>
      <Class ClassIndex="0">
        <Ranges>
          <Range Index="0" Min="2.0000000000000000e+00" Max="1.4000000000000000e+01"/>
          <Range Index="1" Min="1.1878989410400391e+02" Max="1.9371424560546875e+03"/>
          <Range Index="2" Min="3.5916069030761719e+01" Max="7.7189312744140625e+02"/>
          <Range Index="3" Min="3.0643133163452148e+01" Max="6.2318218994140625e+02"/>
          <Range Index="4" Min="0.0000000000000000e+00" Max="2.8522045898437500e+02"/>
          <Range Index="5" Min="0.0000000000000000e+00" Max="1.7067713928222656e+02"/>
          <Range Index="6" Min="0.0000000000000000e+00" Max="1.2469961547851562e+02"/>
          <Range Index="7" Min="2.3813499137759209e-03" Max="8.6465877294540405e-01"/>
          <Range Index="8" Min="-1.1888646511692968e-08" Max="3.3420190215110779e-01"/>
          <Range Index="9" Min="1.0946169495582581e-01" Max="4.4020223617553711e-01"/>
          <Range Index="10" Min="-1.9575169682502747e-01" Max="2.6829728484153748e-01"/>
          <Range Index="11" Min="-6.1902064830064774e-02" Max="3.6494380235671997e-01"/>
          <Range Index="12" Min="-1.8553806841373444e-01" Max="2.2340098023414612e-01"/>
          <Range Index="13" Min="8.5399467468261719e+01" Max="9.9571307373046875e+02"/>
          <Range Index="14" Min="-2.8380181789398193e+00" Max="2.9021801948547363e+00"/>
          <Range Index="15" Min="2.2337939739227295e+00" Max="6.7680047607421875e+02"/>
          <Range Index="16" Min="8.8367205858230591e-01" Max="4.3343099975585938e+02"/>
          <Range Index="17" Min="-3.1360762119293213e+00" Max="3.1397490501403809e+00"/>
          <Range Index="18" Min="0.0000000000000000e+00" Max="1.0000000000000000e+00"/>
          <Range Index="19" Min="6.5033592224121094e+01" Max="9.4983955383300781e+01"/>
          <Range Index="20" Min="0.0000000000000000e+00" Max="4.0000000000000000e+00"/>
        </Ranges>
      </Class>
      <Class ClassIndex="1">
        <Ranges>
          <Range Index="0" Min="2.0000000000000000e+00" Max="1.0000000000000000e+01"/>
          <Range Index="1" Min="5.2626495361328125e+01" Max="1.0344407958984375e+03"/>
          <Range Index="2" Min="2.5338888168334961e+01" Max="4.1790350341796875e+02"/>
          <Range Index="3" Min="2.3457868576049805e+01" Max="3.6259146118164062e+02"/>
          <Range Index="4" Min="0.0000000000000000e+00" Max="1.8738911437988281e+02"/>
          <Range Index="5" Min="0.0000000000000000e+00" Max="1.2020700073242188e+02"/>
          <Range Index="6" Min="0.0000000000000000e+00" Max="8.1121292114257812e+01"/>
          <Range Index="7" Min="5.3250772180035710e-04" Max="7.9547005891799927e-01"/>
          <Range Index="8" Min="-4.6598209735293494e-08" Max="3.0361366271972656e-01"/>
          <Range Index="9" Min="5.7923104614019394e-02" Max="4.3145501613616943e-01"/>
          <Range Index="10" Min="-2.4968749284744263e-01" Max="2.6663649082183838e-01"/>
          <Range Index="11" Min="-1.1539882421493530e-01" Max="3.3504158258438110e-01"/>
          <Range Index="12" Min="-2.4967886507511139e-01" Max="2.3736561834812164e-01"/>
          <Range Index="13" Min="8.1773179879359171e-30" Max="1.8339346923828125e+03"/>
          <Range Index="14" Min="-3.9840397834777832e+00" Max="3.6351752281188965e+00"/>
          <Range Index="15" Min="0.0000000000000000e+00" Max="4.2603518676757812e+02"/>
          <Range Index="16" Min="3.2098537683486938e-01" Max="1.9626014709472656e+02"/>
          <Range Index="17" Min="-3.1391832828521729e+00" Max="3.1320466995239258e+00"/>
          <Range Index="18" Min="0.0000000000000000e+00" Max="2.0000000000000000e+00"/>
          <Range Index="19" Min="6.5027847290039062e+01" Max="9.4883247375488281e+01"/>
          <Range Index="20" Min="0.0000000000000000e+00" Max="2.0000000000000000e+00"/>
        </Ranges>
      </Class>
      <Class ClassIndex="2">
        <Ranges>
          <Range Index="0" Min="2.0000000000000000e+00" Max="1.4000000000000000e+01"/>
          <Range Index="1" Min="5.2626495361328125e+01" Max="1.9371424560546875e+03"/>
          <Range Index="2" Min="2.5338888168334961e+01" Max="7.7189312744140625e+02"/>
          <Range Index="3" Min="2.3457868576049805e+01" Max="6.2318218994140625e+02"/>
          <Range Index="4" Min="0.0000000000000000e+00" Max="2.8522045898437500e+02"/>
          <Range Index="5" Min="0.0000000000000000e+00" Max="1.7067713928222656e+02"/>
          <Range Index="6" Min="0.0000000000000000e+00" Max="1.2469961547851562e+02"/>
          <Range Index="7" Min="5.3250772180035710e-04" Max="8.6465877294540405e-01"/>
          <Range Index="8" Min="-4.6598209735293494e-08" Max="3.3420190215110779e-01"/>
          <Range Index="9" Min="5.7923104614019394e-02" Max="4.4020223617553711e-01"/>
          <Range Index="10" Min="-2.4968749284744263e-01" Max="2.6829728484153748e-01"/>
          <Range Index="11" Min="-1.1539882421493530e-01" Max="3.6494380235671997e-01"/>
          <Range Index="12" Min="-2.4967886507511139e-01" Max="2.3736561834812164e-01"/>
          <Range Index="13" Min="8.1773179879359171e-30" Max="1.8339346923828125e+03"/>
          <Range Index="14" Min="-3.9840397834777832e+00" Max="3.6351752281188965e+00"/>
          <Range Index="15" Min="0.0000000000000000e+00" Max="6.7680047607421875e+02"/>
          <Range Index="16" Min="3.2098537683486938e-01" Max="4.3343099975585938e+02"/>
          <Range Index="17" Min="-3.1391832828521729e+00" Max="3.1397490501403809e+00"/>
          <Range Index="18" Min="0.0000000000000000e+00" Max="2.0000000000000000e+00"/>
          <Range Index="19" Min="6.5027847290039062e+01" Max="9.4983955383300781e+01"/>
          <Range Index="20" Min="0.0000000000000000e+00" Max="4.0000000000000000e+00"/>
        </Ranges>
      </Class>
    </Transform>
  </Transformations>
  <MVAPdfs/>
  <Weights InputWidth="21" Depth="4" LossFunction="C" OutputFunction="S">
    <Layer ActivationFunction="3">
      <Weights rows="128" cols="21">
        -2.3431664705276489e-01 1.1680538207292557e-01 -1.4272770285606384e-01 -4.8055246472358704e-02 -5.5529560893774033e-02 2.0103695988655090e-01 2.7612626552581787e-01 4.0100350975990295e-02 -1.7224895954132080e-01 1.0044072754681110e-02 -1.5443405508995056e-01 3.4849759191274643e-02 7.9244382679462433e-02 -2.1649782359600067e-01 1.4039371907711029e-01 -1.4426115155220032e-01 -1.8861170113086700e-01 3.8701000809669495e-01 -2.9800871014595032e-01 3.3710990101099014e-02 -1.8777266144752502e-02 -1.5091449022293091e-01 -1.0551048815250397e-01 -6.3552491366863251e-02 1.4504350721836090e-01 -1.2359470874071121e-01 -2.5284147262573242e-01 -4.0790919214487076e-02 1.7834198474884033e-01 2.0375767350196838e-01 2.4921518564224243e-01 2.2443167865276337e-01 8.8047131896018982e-02 -4.1074056178331375e-02 1.7327519133687019e-02 -5.1640044897794724e-02 -5.1684413105249405e-02 -2.1014523506164551e-01 2.3098878562450409e-01 8.9400019496679306e-03 -2.3336233198642731e-01 -1.1274622380733490e-01 8.0933403223752975e-03 3.8491812348365784e-01 -2.2383035719394684e-01 -3.2507854700088501e-01 5.4344158619642258e-02 1.8766994774341583e-01 1.0766361374408007e-03 1.8356084823608398e-01 4.4994667172431946e-02 2.7006834745407104e-01 -1.8514828383922577e-01 -1.9813463091850281e-01 -1.5041714906692505e-01 2.2343070805072784e-01 7.0022866129875183e-02 3.6400833725929260e-01 6.3738775253295898e-01 -1.2541547417640686e-01 4.0178569033741951e-03 -1.1204077303409576e-01 3.8303554058074951e-01 -1.1753908544778824e-01 -8.8408507406711578e-02 -6.6958338022232056e-02 -1.6067947447299957e-01 1.4853958785533905e-01 2.0474843680858612e-01 6.8503379821777344e-02 1.7397879064083099e-01 -9.7212709486484528e-02 -2.3391710594296455e-02 -2.8480002284049988e-01 -8.0404162406921387e-02 -4.4628940522670746e-02 1.0162577964365482e-03 1.7949025332927704e-01 4.5886933803558350e-01 6.2308037281036377e-01 -7.6604694128036499e-02 -5.8602139353752136e-02 -2.4624648690223694e-01 2.4047984182834625e-01 9.3547463417053223e-02 -2.2532010078430176e-01 2.4033503606915474e-02 1.6570359468460083e-01 2.0879876613616943e-01 2.0663191378116608e-01 -2.5767204165458679e-01 -1.3455520570278168e-01 -4.9490008503198624e-02 -1.9050952792167664e-01 3.0152056366205215e-02 -2.2666010260581970e-01 -6.2492720782756805e-02 -2.7904242277145386e-02 -1.1869282461702824e-03 2.1602770313620567e-02 -7.8282095491886139e-02 -2.3794877529144287e-01 2.8729337453842163e-01 -1.9794824719429016e-01 1.0610453784465790e-02 -7.1505397558212280e-02 1.3517130911350250e-01 2.2176401317119598e-01 -3.2224323600530624e-02 1.8957602977752686e-01 -2.1142822504043579e-01 -7.9177632927894592e-02 -7.9708226025104523e-02 -1.2260554730892181e-01 -2.4551579356193542e-01 -2.0701903104782104e-01 -7.9485818743705750e-02 -2.1232683956623077e-01 2.8303840756416321e-01 5.9673272073268890e-02 -2.3783735930919647e-01 -4.7346317768096924e-01 1.9073598086833954e-01 6.9431066513061523e-02 -1.6091980040073395e-01 -2.3703497648239136e-01 1.4810809493064880e-01 -1.6849142313003540e-01 2.9185229539871216e-01 8.7713770568370819e-02 2.9733724892139435e-02 -1.5756970643997192e-01 1.3240462541580200e-01 -7.8583925962448120e-02 1.2148964405059814e-01 -2.3538075387477875e-01 7.4468050152063370e-03 -2.0732153207063675e-02 3.8755722343921661e-02 -7.3797054588794708e-02 9.3199573457241058e-02 1.5157796442508698e-01 1.4792118966579437e-01 -1.0197233641520143e-03 3.9297693967819214e-01 -2.7955523133277893e-01 -2.7724778652191162e-01 7.8618414700031281e-02 -6.4230956137180328e-02 -5.9941209852695465e-02 1.3067853450775146e-01 -3.1328462064266205e-02 -2.6858422905206680e-02 2.0272940397262573e-01 -2.5010403990745544e-01 2.3176483809947968e-02 9.0991720557212830e-02 2.6172365993261337e-02 4.5358099043369293e-02 -2.2927670180797577e-01 -1.4981460571289062e-01 -4.5915592461824417e-02 -1.3712790608406067e-01 2.2460152208805084e-01 1.0552715510129929e-01 1.8529173731803894e-01 -2.4695226550102234e-01 8.9735090732574463e-02 -1.5438412129878998e-01 -2.2974308580160141e-02 -3.4133885055780411e-02 -2.3271830752491951e-02 -6.9566540420055389e-02 2.6679411530494690e-01 -2.8230023384094238e-01 -7.7891640365123749e-02 -7.1755582466721535e-03 -4.9261394888162613e-02 -1.4959180355072021e-01 -2.9592239856719971e-01 2.6072281599044800e-01 8.6100742220878601e-02 -1.1747126281261444e-01 -2.7554938197135925e-01 -9.0029306709766388e-02 -7.0991389453411102e-02 2.0129312574863434e-01 2.5424608588218689e-01 3.2499414682388306e-01 1.5231493115425110e-01 3.6059830337762833e-02 7.4112012982368469e-02 -5.7933151721954346e-02 -1.8180495500564575e-01 1.1010874807834625e-01 -4.6472672373056412e-02 2.1241916716098785e-01 1.5063863247632980e-02 -1.2562273442745209e-01 -4.8698749393224716e-02 -3.5670951008796692e-02 -1.6850052773952484e-01 -1.8171848356723785e-01 1.1289191246032715e-01 1.8717555701732635e-01 -3.7962995469570160e-02 -2.4304768443107605e-01 -3.5781213641166687e-01 2.5884577631950378e-01 8.7566964328289032e-02 2.1609053015708923e-01 8.8525585830211639e-02 9.8442859947681427e-02 -2.9086637496948242e-01 5.7817973196506500e-02 1.6826938092708588e-01 -2.1123807132244110e-01 8.7030261754989624e-02 -1.8103416264057159e-01 -2.9330536723136902e-01 1.4968758821487427e-01 -2.1699387580156326e-02 1.1846731603145599e-01 4.7356672585010529e-02 -2.5191041827201843e-01 1.8380079418420792e-02 3.1553900241851807e-01 -1.0925291478633881e-01 5.9901002794504166e-02 -1.4427256584167480e-01 7.3057234287261963e-02 4.8132624477148056e-02 -6.1156060546636581e-02 4.5539151877164841e-02 1.2592846155166626e-01 -2.1266709268093109e-01 1.5336507000029087e-02 3.5536795854568481e-02 -1.2007486075162888e-02 2.5717779994010925e-01 1.2761722505092621e-01 -7.2284787893295288e-02 -2.4554410576820374e-01 1.0435790568590164e-01 -1.0089279711246490e-01 1.9663213193416595e-01 1.6795089840888977e-01 -1.2343440949916840e-01 3.0261185020208359e-02 -3.0304479598999023e-01 -2.5622278451919556e-01 -2.9885524511337280e-01 -7.5404360890388489e-02 -2.0111788809299469e-01 -7.9770265147089958e-03 -1.5919570624828339e-01 9.8486699163913727e-02 -2.3917199671268463e-01 1.5101385116577148e-01 -2.0571969449520111e-01 2.4430561065673828e-01 5.0004299730062485e-02 2.5670555233955383e-01 2.6447361707687378e-01 -1.6811425983905792e-01 2.7513167262077332e-01 -1.7458808422088623e-01 1.1107727140188217e-01 -3.2374590635299683e-01 1.4863628149032593e-01 -3.2244169712066650e-01 1.8556909263134003e-01 -1.9904784858226776e-01 -2.0087206363677979e-01 -1.6850575804710388e-01 1.3806426525115967e-01 -1.1904708296060562e-01 6.5172985196113586e-02 -1.8971371650695801e-01 1.8890355527400970e-01 2.1844500303268433e-01 1.6432432830333710e-01 -1.3411667197942734e-02 -1.6999259591102600e-01 1.2893420457839966e-01 -2.8994703292846680e-01 1.7362833023071289e-01 -2.4337549507617950e-01 -2.1337959915399551e-02 -2.1249331533908844e-02 -2.1041387319564819e-01 1.5161536633968353e-01 -3.7001196295022964e-02 3.6549601703882217e-02 -6.4612724818289280e-03 3.5118352621793747e-02 -6.7593403160572052e-02 -2.4921287596225739e-01 2.3731143772602081e-01 -8.0754391849040985e-02 1.3331446051597595e-01 2.1329876780509949e-01 -1.0802243649959564e-01 3.8677774369716644e-02 7.9381093382835388e-02 1.5644961595535278e-01 -1.3873352110385895e-01 -6.1875700950622559e-02 -1.5674348175525665e-01 6.0149412602186203e-02 -2.2655652835965157e-02 2.9489073157310486e-01 -1.9919979572296143e-01 1.7249852418899536e-01 -2.8782811760902405e-01 -2.0881232619285583e-01 -2.3749141395092010e-01 7.4786223471164703e-02 -4.4467214494943619e-02 1.8531042337417603e-01 2.4617232382297516e-02 -2.3786379396915436e-01 -1.0463099926710129e-01 3.8728948682546616e-02 2.5245383381843567e-01 2.4242611229419708e-01 -1.1606965959072113e-01 1.9901667535305023e-01 7.2135262191295624e-02 1.5330685675144196e-01 -2.0116917788982391e-01 -2.1297669410705566e-01 -1.8936671316623688e-01 1.3315314054489136e-01 -1.5734030306339264e-01 -4.0569327771663666e-02 -3.1180982477962971e-03 -8.6836807429790497e-02 -1.0583797097206116e-01 6.0005027800798416e-02 -2.5269740819931030e-01 -3.4651267528533936e-01 -3.4670430421829224e-01 -9.6887268126010895e-02 -9.0590313076972961e-02 1.6230877488851547e-02 -2.3507764935493469e-01 -2.7994355559349060e-01 -1.2321868538856506e-01 -3.2295793294906616e-01 9.7504027187824249e-02 -2.9011443257331848e-01 -2.1746528148651123e-01 1.5982295572757721e-01 -8.7841905653476715e-02 -2.1302970126271248e-02 -2.1601359546184540e-01 -1.7510665953159332e-01 -9.6436418592929840e-02 1.3307484984397888e-01 -2.0786705613136292e-01 1.9581870734691620e-01 5.4350610822439194e-02 1.6957926750183105e-01 -9.3173913657665253e-02 -1.3704749941825867e-01 -2.3042672872543335e-01 9.5067448914051056e-02 1.5129181742668152e-01 -2.8925037384033203e-01 2.6484885811805725e-01 -1.7945869266986847e-01 2.2669613361358643e-01 1.6417697072029114e-01 1.8790887296199799e-01 2.0413127541542053e-01 -2.2233827412128448e-01 -3.3581617474555969e-01 -2.1662022173404694e-01 2.5755438208580017e-01 -1.0980081558227539e-01 -1.5864512324333191e-01 -2.7073428034782410e-02 3.3943536877632141e-01 -2.4387724697589874e-01 1.2387219071388245e-01 -1.4428679645061493e-01 1.7911224067211151e-01 4.8297818750143051e-02 2.5726342201232910e-01 8.2543656229972839e-02 2.8311511874198914e-01 1.1666366457939148e-01 2.0725749433040619e-01 4.8681914806365967e-01 2.8536880016326904e-01 -1.5502151846885681e-01 -1.8099683523178101e-01 3.4959596395492554e-01 -1.8869054317474365e-01 -1.3666430115699768e-01 -1.6352528333663940e-01 1.2949387729167938e-01 -1.8141034245491028e-01 -1.8292784690856934e-01 2.5269362330436707e-01 7.2607673704624176e-02 1.6091948375105858e-02 1.2579968571662903e-01 1.6480082273483276e-01 -2.1337701380252838e-01 -2.7262499928474426e-01 -1.1576438695192337e-01 2.4012541770935059e-01 -1.8141238391399384e-01 -1.1885936558246613e-01 -1.7229804396629333e-01 3.1474053859710693e-01 6.7222319543361664e-02 2.3764346539974213e-01 -2.1577101200819016e-02 -1.8465976417064667e-01 -1.2796188890933990e-01 -9.8735382780432701e-03 3.0234092473983765e-01 7.6575674116611481e-02 8.0557838082313538e-02 -1.5644246339797974e-01 -1.3966429233551025e-01 -2.2098644077777863e-01 2.4196733534336090e-01 2.3476961255073547e-01 -2.5040611624717712e-01 -2.2076377645134926e-02 1.6498221457004547e-01 1.1981006711721420e-01 2.7861675620079041e-01 2.4443416297435760e-01 -8.8801138103008270e-02 7.6356954872608185e-02 2.1583472192287445e-01 1.0283650457859039e-01 1.0526680946350098e-01 -3.7335213273763657e-02 1.2920799851417542e-01 -1.4164827764034271e-01 3.5535901784896851e-02 1.7865321040153503e-01 -1.9140444695949554e-01 -2.9986938834190369e-01 -2.2572942078113556e-01 -1.5027321875095367e-01 -8.6552657186985016e-02 2.6178693771362305e-01 1.5390567481517792e-01 -1.4101640880107880e-01 -4.6852231025695801e-02 1.9094274938106537e-01 -2.5881147384643555e-01 -8.9738587848842144e-04 2.5242680311203003e-01 4.4928818941116333e-02 2.0388898253440857e-01 -3.0153188109397888e-01 -4.9357474781572819e-03 -3.4611964225769043e-01 -1.8024344742298126e-01 -3.8966014981269836e-02 -2.3193299770355225e-01 -2.3075681924819946e-01 -2.8739336133003235e-01 3.0703353881835938e-01 -1.1769968271255493e-01 -2.8481140732765198e-02 1.5337379276752472e-01 -3.8498470187187195e-01 4.1146568953990936e-02 -2.7356520295143127e-01 -2.7919235825538635e-01 -1.5878207981586456e-01 1.1158499866724014e-01 2.5866122916340828e-02 1.9038182497024536e-01 -1.1109258234500885e-01 3.0029758810997009e-01 -6.3005082309246063e-02 1.8684646114706993e-02 1.1240337044000626e-01 -2.6995894312858582e-01 -1.8535557389259338e-01 2.7583593130111694e-01 2.9394254088401794e-01 2.3332771658897400e-01 1.0297474265098572e-01 -2.3174409568309784e-01 -2.0970506966114044e-01 1.0583930462598801e-01 3.1553013250231743e-03 2.7959012985229492e-01 2.3806899785995483e-01 8.0838091671466827e-03 -1.5001726150512695e-01 1.7260745167732239e-01 -2.1702228486537933e-01 1.1941499263048172e-01 2.7340173721313477e-01 2.2308596968650818e-01 1.1579109728336334e-01 2.7626395225524902e-01 -2.4598379433155060e-01 -2.1239016950130463e-01 -2.6943519711494446e-01 -1.3681124150753021e-01 1.7221887409687042e-01 -2.2970308363437653e-01 1.1334051191806793e-01 6.9932222366333008e-02 -1.3603878021240234e-01 -2.4711774289608002e-01 1.3461463153362274e-01 3.1659401953220367e-02 1.6295391321182251e-01 8.7497226893901825e-02 -1.0934633016586304e-01 -1.2046317011117935e-01 1.1428438872098923e-01 -2.1403561532497406e-01 1.4165575802326202e-01 3.0802485346794128e-01 4.4226422905921936e-02 -3.3361965417861938e-01 -2.2984074056148529e-01 1.7443476617336273e-01 -6.9880910217761993e-02 -2.7468577027320862e-01 -7.6249815523624420e-02 -2.3332300782203674e-01 1.4947174116969109e-02 3.1520292162895203e-01 4.0730193257331848e-02 -6.0685653239488602e-02 -1.7225819826126099e-01 -4.4793445616960526e-02 -3.0516183376312256e-01 -6.6507749259471893e-02 -4.2591720819473267e-01 -1.1680912971496582e-01 -1.4984293282032013e-01 -8.1506073474884033e-02 -2.7119052410125732e-01 -5.3800668567419052e-02 4.0533143281936646e-01 1.3639345765113831e-01 -3.5431250929832458e-01 -4.6615465544164181e-03 2.3739922046661377e-01 -3.3949083089828491e-01 1.6496697068214417e-01 -5.8633387088775635e-03 -8.2757741212844849e-02 3.2616641838103533e-03 -6.4117975533008575e-02 -1.2980431318283081e-01 -2.2248566150665283e-01 -2.1344853937625885e-01 1.6407112777233124e-01 2.7552244067192078e-01 2.0740918815135956e-01 -8.5122674703598022e-02 1.7742981016635895e-01 -7.2286412119865417e-02 1.5761715173721313e-01 3.8291875272989273e-02 2.3712303489446640e-02 2.4625535309314728e-01 -1.3881601393222809e-02 1.3978366553783417e-01 3.7054266780614853e-02 1.1779841780662537e-01 4.4557381421327591e-02 1.8912473320960999e-01 -1.2468387372791767e-02 -2.4343843758106232e-01 -3.7522397469729185e-03 -1.3956394791603088e-01 1.0328797250986099e-01 2.4919131398200989e-01 1.9940240308642387e-03 -2.5367721915245056e-01 2.3727831244468689e-01 1.4231668412685394e-01 1.7167402803897858e-01 1.3388104736804962e-01 6.6228233277797699e-02 -1.1424620170146227e-03 2.4379244074225426e-02 -2.6063334941864014e-01 -4.0316633880138397e-02 2.0943723618984222e-01 2.4423931539058685e-01 -2.0393985509872437e-01 1.1345347762107849e-01 2.4620176851749420e-01 4.9683164805173874e-02 5.2369970828294754e-02 1.5418116748332977e-01 2.1021835505962372e-02 2.5409433245658875e-01 -2.6414281129837036e-01 -3.4489321708679199e-01 -1.3169333338737488e-01 2.1503718197345734e-01 1.9461804628372192e-01 7.3670014739036560e-02 -3.5298675298690796e-01 -1.3543727993965149e-01 2.1426838636398315e-01 -4.6598885208368301e-02 -2.1763376891613007e-01 -2.4625805020332336e-01 -1.4885570108890533e-01 9.5852755010128021e-02 3.6301368474960327e-01 2.0230068266391754e-01 -4.1970095038414001e-01 -6.9533370435237885e-02 1.1604157090187073e-01 2.2466126084327698e-01 -8.5790157318115234e-02 -5.8841133117675781e-01 1.8048353493213654e-01 -7.1046434342861176e-02 1.5208653174340725e-02 6.7834071815013885e-02 -2.1440163254737854e-01 -1.8167695403099060e-01 2.1068978309631348e-01 -9.9548548460006714e-02 -1.1473120003938675e-01 2.0967869460582733e-01 -1.7274814844131470e-01 -2.2476715967059135e-02 2.6948550343513489e-01 1.6997329890727997e-01 2.1503690630197525e-02 2.6820877566933632e-02 -3.6399871110916138e-01 9.7999677062034607e-02 -9.9518589675426483e-02 8.9696824550628662e-02 -4.2571547627449036e-01 4.6660270541906357e-02 -1.0096848011016846e-01 -2.6863458752632141e-01 1.0050677508115768e-01 -2.0743998885154724e-01 -1.7059789597988129e-01 9.6761897206306458e-02 7.4573516845703125e-02 1.7181485891342163e-02 1.4924074709415436e-01 2.3765611648559570e-01 7.7838003635406494e-02 -9.5202870666980743e-02 1.5110501646995544e-01 -2.5548371672630310e-01 7.0281870663166046e-02 -1.1927697062492371e-01 -2.5788655877113342e-01 -2.4368028342723846e-01 1.5032958984375000e-01 -3.2451310753822327e-01 2.6495933532714844e-01 -2.3146346211433411e-01 7.4363671243190765e-02 1.3638256490230560e-01 -2.9136243462562561e-01 9.4834454357624054e-02 3.0778402090072632e-01 -1.9074964523315430e-01 -3.9081137627363205e-02 -1.0525216907262802e-01 -7.2171911597251892e-02 2.8027016669511795e-02 5.2800137549638748e-02 1.1346154846251011e-02 1.8434774875640869e-01 4.7624234110116959e-02 -4.7725740075111389e-01 -3.6544325947761536e-01 1.7030571401119232e-01 -2.2185236215591431e-01 -3.4912183880805969e-01 -3.5969194024801254e-02 2.2942949831485748e-01 1.0370443016290665e-01 -3.4614484757184982e-02 -2.7562990784645081e-01 2.6238483190536499e-01 6.6211931407451630e-02 3.9468444883823395e-02 2.7054843306541443e-01 -2.0834290981292725e-01 -2.7226939797401428e-01 -2.8327253460884094e-01 2.5029852986335754e-01 -6.5838105976581573e-02 1.7785710096359253e-01 -1.7040984332561493e-01 1.4018547534942627e-01 -1.9353763759136200e-01 1.5080179274082184e-01 9.7197271883487701e-02 1.4206373691558838e-01 -1.5512612881138921e-03 1.8617022037506104e-01 2.2381067276000977e-01 -1.3296239078044891e-01 -3.1760234385728836e-02 -2.3624640703201294e-01 -2.5314566493034363e-01 -2.0534059032797813e-02 5.2306301891803741e-02 4.1550215333700180e-02 1.9032135605812073e-01 2.4375264346599579e-01 -1.1898239701986313e-01 -5.2355166524648666e-02 -1.2284185737371445e-01 -2.4610365927219391e-01 9.1186754405498505e-02 -1.9518500193953514e-02 1.4640881121158600e-01 3.2325360924005508e-02 1.5867170691490173e-01 -2.5394377112388611e-01 1.3482345640659332e-01 2.0076036453247070e-01 -1.4064714312553406e-01 -1.6069476306438446e-01 1.4786241948604584e-01 1.9655939936637878e-01 -1.0976841300725937e-01 6.6263757646083832e-02 -5.7468008249998093e-02 2.9713267087936401e-01 2.1059028804302216e-01 2.1460819244384766e-01 -1.6399307548999786e-01 -5.7056327350437641e-03 -1.3330633938312531e-01 4.5105606317520142e-01 -1.5637552738189697e-01 1.5147556364536285e-01 -1.4522072672843933e-01 5.1379859447479248e-02 1.9044023752212524e-01 -1.5787988901138306e-01 -1.3939891755580902e-01 2.9633823037147522e-01 -1.9666649401187897e-01 1.0852569714188576e-02 1.7067652940750122e-01 -2.9749564826488495e-02 -2.3842731118202209e-01 -2.1177850663661957e-01 1.3878476619720459e-01 1.3903723657131195e-01 1.5860751271247864e-01 -1.8560524284839630e-01 -2.0369850099086761e-01 -1.2315982580184937e-01 -2.8513821959495544e-01 -9.2767521739006042e-02 -1.9885961711406708e-01 -1.5997605025768280e-01 -1.9688263535499573e-01 8.5772406309843063e-03 -1.5019434690475464e-01 -4.3922275304794312e-02 1.3972216844558716e-01 3.4736067056655884e-02 1.2816733680665493e-02 1.9739313051104546e-02 -1.7921288311481476e-01 2.4548863992094994e-02 2.6966575533151627e-02 2.4322199821472168e-01 2.2026129066944122e-01 1.7876604199409485e-01 4.7252669930458069e-02 -1.1742345243692398e-01 -1.7865933477878571e-01 2.9168844223022461e-01 -6.0351148247718811e-02 1.6146841645240784e-01 -2.1997541189193726e-02 -8.0243743956089020e-02 -8.0828107893466949e-02 1.4023227617144585e-02 -1.9927467405796051e-01 1.2476231902837753e-01 -2.2845369577407837e-01 2.5166735053062439e-01 -2.1373790502548218e-01 -2.1524497866630554e-01 -5.4646901786327362e-02 2.2497057914733887e-01 7.8751660883426666e-02 2.1446418762207031e-01 -1.4109461009502411e-01 3.3814672380685806e-02 -2.4451221525669098e-01 2.3450782895088196e-01 7.5005397200584412e-02 9.9015301093459129e-03 3.3156484365463257e-01 1.4273190498352051e-01 -1.4965808391571045e-01 1.6234894096851349e-01 -2.3955671489238739e-01 1.9842459261417389e-01 2.2431933879852295e-01 -2.4825140833854675e-01 1.0894858837127686e-01 -1.6373921930789948e-01 -8.3778858184814453e-02 1.8371795117855072e-01 -1.4874339103698730e-01 -3.8447755575180054e-01 1.1360233277082443e-01 2.1025650203227997e-01 2.6086977124214172e-01 -4.7366687795147300e-04 -3.7629522383213043e-02 -4.9940782785415649e-01 -2.7851754426956177e-01 -2.9850357770919800e-01 -1.9967611134052277e-01 8.5855290293693542e-02 -1.4480096101760864e-01 -1.4630079269409180e-01 7.9484544694423676e-02 2.9200226068496704e-01 1.1333699524402618e-01 -2.1029523015022278e-01 5.3028792142868042e-02 -1.5532566606998444e-01 -2.8904786333441734e-02 2.9353633522987366e-01 1.7767210304737091e-01 -1.5111254155635834e-01 2.5472980737686157e-01 9.3029243871569633e-03 2.8491806238889694e-02 -7.1125574409961700e-02 -2.3692218959331512e-01 -1.6728019714355469e-01 -8.5443081334233284e-03 -1.3321761786937714e-01 -3.2799738645553589e-01 -1.9065298140048981e-01 -1.9092912971973419e-01 2.1000953018665314e-01 1.2491640448570251e-01 -2.8035217523574829e-01 -2.6946693658828735e-01 1.7443941533565521e-01 -2.4633724987506866e-01 -4.5466165989637375e-02 -1.4529713988304138e-01 -7.6950177550315857e-02 2.6044937968254089e-01 2.5639623403549194e-01 2.7516314387321472e-01 2.5050604343414307e-01 -1.0792742250487208e-03 2.6421040296554565e-02 -2.0310231484472752e-03 2.0800472795963287e-01 2.1664434671401978e-01 -2.9989552497863770e-01 -3.1102660298347473e-01 9.0824760496616364e-02 -2.3855072259902954e-01 -2.3949010670185089e-01 -2.5032389163970947e-01 -8.6815558373928070e-02 -2.4305410683155060e-01 -2.3903842270374298e-01 1.1467655748128891e-01 7.8439399600028992e-02 3.1130215525627136e-01 1.0289450734853745e-01 1.0412254184484482e-01 -1.2439607083797455e-01 -2.6562133431434631e-01 -2.3320746421813965e-01 3.3633401989936829e-01 1.9131475687026978e-01 8.6715921759605408e-02 -2.7755647897720337e-01 -1.9799995422363281e-01 1.8525524064898491e-02 -2.7000722289085388e-01 1.7228953540325165e-01 2.1891501545906067e-01 2.0423308014869690e-02 1.1272127181291580e-01 2.7394169569015503e-01 1.7155958712100983e-01 9.7099263221025467e-03 3.3401972055435181e-01 1.4729849994182587e-01 -1.1331691592931747e-01 -2.2514183819293976e-01 9.8595775663852692e-02 1.4247472584247589e-01 -3.5479497909545898e-01 -3.8628453016281128e-01 1.4906786382198334e-01 -4.6196597814559937e-01 1.0451036691665649e-01 -4.7260364517569542e-03 -1.2064398080110550e-01 -1.4105428755283356e-01 -4.0215093642473221e-02 1.2853750586509705e-01 4.1554551571607590e-02 1.0478654503822327e-01 -1.2881448864936829e-01 8.0029509961605072e-02 -1.5076464414596558e-01 -3.0375337600708008e-01 -6.7023478448390961e-02 -1.3725203275680542e-01 2.8142032027244568e-01 1.1496537178754807e-01 1.3239805400371552e-01 -2.3279127478599548e-01 1.4847029745578766e-01 1.0824169963598251e-01 2.7110418677330017e-01 1.2060181796550751e-01 1.8565985560417175e-01 1.5626703202724457e-01 -2.1193752065300941e-02 -2.1478644013404846e-01 5.2245117723941803e-02 2.5503134727478027e-01 2.0004892349243164e-01 1.5531244874000549e-01 8.0083506181836128e-03 -2.7720090746879578e-01 -8.1514045596122742e-02 -2.4899384379386902e-01 -5.2935354411602020e-02 -1.1950719356536865e-01 -1.0603690147399902e-01 9.5713317394256592e-02 1.3490557670593262e-01 4.2721856385469437e-02 3.5915799438953400e-02 -6.0261469334363937e-03 1.1404634453356266e-02 2.9893487691879272e-01 -2.2386673092842102e-01 6.9487065076828003e-02 -1.3168518245220184e-01 -1.1422077566385269e-01 -1.3928368687629700e-01 1.4881682395935059e-01 8.7309755384922028e-02 -2.1946287155151367e-01 6.4488917589187622e-02 -1.0098001360893250e-01 -1.7850366234779358e-01 -1.3701288402080536e-01 1.4489978551864624e-01 -2.1884222328662872e-01 -9.6817016601562500e-02 7.6336219906806946e-02 3.7129852175712585e-01 3.0340841412544250e-01 5.2238863706588745e-01 -3.1294941902160645e-01 -6.3778199255466461e-02 2.2154098376631737e-02 1.2859570980072021e-01 -2.7230945229530334e-01 -1.3059871271252632e-02 1.2718160450458527e-01 -2.4680131673812866e-01 2.1230876445770264e-01 3.0410349369049072e-01 4.4656614772975445e-03 5.2098475396633148e-02 -2.1891969442367554e-01 2.1915392577648163e-01 1.1318556033074856e-02 -3.5168059170246124e-02 -2.2052083909511566e-01 7.1049831807613373e-02 -4.1502282023429871e-01 1.0840036720037460e-01 1.6932238638401031e-01 -1.0970077663660049e-01 -2.2287333011627197e-01 -1.7748074233531952e-01 -4.1195102967321873e-03 -7.5585073791444302e-03 6.0593429952859879e-02 2.1918247640132904e-01 -7.1327410638332367e-02 -1.0549145191907883e-01 1.0844841599464417e-01 1.7877398431301117e-01 2.1006900817155838e-02 8.3164900541305542e-02 9.9820151925086975e-02 7.4694707989692688e-02 -3.0174010992050171e-01 -2.4975599348545074e-01 1.4134998619556427e-01 -2.1688821911811829e-01 -3.6333635449409485e-02 2.0569267868995667e-01 1.5846580266952515e-01 2.3864242434501648e-01 -2.5018921494483948e-01 -1.2182214111089706e-01 7.5980946421623230e-02 -1.0706480592489243e-01 5.4823566228151321e-02 2.5618934631347656e-01 6.1628680676221848e-02 3.8961790502071381e-02 1.0788726061582565e-01 1.7790107056498528e-02 3.8998700678348541e-02 -2.4125348031520844e-01 2.4178223684430122e-02 7.5980223715305328e-02 2.8612194582819939e-02 -3.7273060530424118e-02 -1.1046988517045975e-01 2.7921158075332642e-01 3.1866678595542908e-01 1.9181752204895020e-01 -1.6608591377735138e-01 1.6953041777014732e-02 2.1074245870113373e-01 1.1822500824928284e-01 -2.4137297272682190e-01 8.0962821841239929e-02 -5.1945101469755173e-02 6.4099486917257309e-03 -1.4277225360274315e-02 2.2808451950550079e-01 -4.4344272464513779e-02 -1.1894985288381577e-01 1.3858275115489960e-01 -1.8480551242828369e-01 1.8675895035266876e-01 -8.8478051126003265e-02 1.0119694471359253e-01 2.7006399631500244e-01 2.8574240207672119e-01 -1.2332659214735031e-01 1.1007559299468994e-01 1.2636813521385193e-01 -2.7888932824134827e-01 2.0653672516345978e-01 -6.2606550753116608e-02 -3.0440971255302429e-01 -6.2617525458335876e-02 -2.3036620020866394e-01 -3.4013710916042328e-02 1.1849583685398102e-01 2.2310170531272888e-01 -7.4539475142955780e-02 -7.5489863753318787e-02 3.1940257549285889e-01 2.1675603091716766e-01 2.8504304587841034e-02 -1.7013461887836456e-01 1.1609555222094059e-02 5.2887544035911560e-02 2.8196349740028381e-01 3.1844505667686462e-01 1.9146341085433960e-01 -1.6173796728253365e-02 2.1268050372600555e-01 -2.2868677973747253e-01 -1.5648914873600006e-01 2.5622117519378662e-01 -7.7449142932891846e-02 9.6269965171813965e-02 -8.7847091257572174e-02 1.8978793919086456e-01 -2.4321615695953369e-01 1.6544662415981293e-01 -1.2109191715717316e-01 -1.1535385996103287e-01 7.8826673328876495e-02 1.1105629801750183e-01 -2.7197983115911484e-02 -2.4275299906730652e-01 3.6184657365083694e-02 1.7576417326927185e-01 -2.6637589931488037e-01 7.2990320622920990e-02 -1.1847899109125137e-01 -1.7059750854969025e-01 4.8966528847813606e-03 -7.6628342270851135e-02 -5.5125337094068527e-03 2.5628077983856201e-01 -8.6150066927075386e-03 -2.2116284072399139e-01 -3.0244383215904236e-01 2.3734758794307709e-01 -1.2730662524700165e-01 2.6218703389167786e-01 1.8720082938671112e-01 -1.9074168801307678e-01 3.8992840796709061e-02 -1.4219784736633301e-01 3.6626243591308594e-01 1.3568751513957977e-01 -2.8178387880325317e-01 4.0654006600379944e-01 1.4273126423358917e-01 1.0290232300758362e-01 5.2113521844148636e-02 -7.4144259095191956e-02 -2.3066313564777374e-01 -2.6542422175407410e-01 -2.9084306955337524e-01 1.7933373153209686e-01 -1.7072436213493347e-01 -2.1386943757534027e-01 -1.6321480274200439e-01 2.7075454592704773e-01 2.0034803450107574e-01 2.0115928351879120e-01 2.1794570609927177e-02 -2.4811749160289764e-01 -3.9710171520709991e-02 -2.6514196395874023e-01 -1.2012832611799240e-01 4.1131440550088882e-02 4.7622121870517731e-02 2.4701090157032013e-01 2.7637127041816711e-01 2.2065590322017670e-01 -2.2577728331089020e-01 -8.7029315531253815e-02 3.1819071620702744e-02 -1.1876280605792999e-01 -2.0392900705337524e-01 7.1781296283006668e-03 -1.4247921109199524e-01 -1.6120015084743500e-01 -9.1734126210212708e-02 -6.6544227302074432e-02 2.0385695993900299e-01 1.7343316972255707e-01 1.8520861864089966e-01 -2.6834228634834290e-01 -2.3334163427352905e-01 -3.5528641939163208e-01 -1.3905224204063416e-01 2.1517916023731232e-01 -3.4253209829330444e-02 -1.5385372936725616e-01 -1.2510706484317780e-01 -1.5338005125522614e-01 1.7850302159786224e-01 -9.8807729780673981e-02 -1.9825771450996399e-01 1.8040917813777924e-01 2.0887912809848785e-01 1.7978407442569733e-01 2.4221615493297577e-01 1.3042944669723511e-01 -1.5112230181694031e-01 -2.9086413979530334e-01 -3.0358988046646118e-01 -1.4912828803062439e-01 -2.5056838989257812e-01 1.9733655452728271e-01 3.4377697110176086e-01 -2.3873012512922287e-02 -4.6007093042135239e-02 1.8867342174053192e-01 -1.8869987130165100e-01 8.8867940008640289e-02 1.8754069507122040e-01 3.0266517400741577e-01 3.6082696914672852e-01 2.9922339320182800e-01 -8.2656636834144592e-02 2.6119059324264526e-01 -1.3919814489781857e-02 1.7472685873508453e-01 1.3747666776180267e-01 -8.4323994815349579e-02 1.2378900498151779e-01 2.4300450086593628e-01 3.2984501123428345e-01 2.0692089200019836e-01 3.0536070466041565e-01 4.3724406510591507e-02 2.4792455136775970e-01 3.9465489983558655e-01 1.9576729834079742e-01 9.4674080610275269e-02 7.7221937477588654e-02 -1.9336736202239990e-01 -2.3222203552722931e-01 -1.6988886892795563e-01 6.5270923078060150e-02 2.3820891976356506e-01 2.4761548638343811e-01 -1.8158043920993805e-01 -2.8616623952984810e-02 1.4906795322895050e-01 -1.9346810877323151e-01 1.0096060112118721e-02 -1.4056110382080078e-01 -9.0691775083541870e-02 -5.0750523805618286e-02 1.5972989797592163e-01 1.6688896715641022e-01 8.8944703340530396e-02 3.7220871448516846e-01 -5.0821404904127121e-02 1.8253484368324280e-01 1.4272294938564301e-01 -1.3840544223785400e-01 1.3144764304161072e-01 -9.4367869198322296e-02 2.8934121131896973e-01 -2.1684856712818146e-01 -1.0096457600593567e-01 -2.1494466811418533e-02 1.3343782722949982e-01 -7.6195634901523590e-02 -2.1942977607250214e-01 1.1551508307456970e-01 1.4846456050872803e-01 -1.0863898321986198e-02 -4.9803480505943298e-02 -2.3004807531833649e-01 7.0181936025619507e-02 -7.6347932219505310e-02 -2.3518009483814240e-01 2.3900018632411957e-01 -2.6185089349746704e-01 2.4848309159278870e-01 -2.3325754702091217e-01 7.2580076754093170e-02 1.3266877830028534e-01 9.1708183288574219e-02 -1.0522828996181488e-01 1.9970455765724182e-01 -2.7875590324401855e-01 9.3942731618881226e-03 1.1038506031036377e-01 2.5010502338409424e-01 9.2693448066711426e-02 9.8935492336750031e-02 1.6470146179199219e-01 -1.3513365387916565e-01 1.2125614285469055e-01 -6.9442152976989746e-02 2.9671120643615723e-01 3.0381074547767639e-01 -1.5379072725772858e-01 1.9034820795059204e-01 -1.6189354658126831e-01 2.9414477944374084e-01 -1.9277167320251465e-01 -2.0028735697269440e-01 2.7329048514366150e-01 3.4202277660369873e-01 -8.0743215978145599e-02 -3.9964813739061356e-02 4.1724849492311478e-02 -2.7775229886174202e-02 -1.3571955263614655e-01 -2.4280322715640068e-02 -5.2912771701812744e-02 1.9159929826855659e-02 2.7587988972663879e-01 6.6524475812911987e-02 5.1274424791336060e-01 3.1240946054458618e-01 4.6350993216037750e-05 -1.2583208084106445e-01 3.9884707331657410e-01 1.2085025757551193e-01 4.2765088379383087e-02 -1.9867424666881561e-01 1.7340920865535736e-01 -1.0033753514289856e-01 2.5484748184680939e-02 2.2448660805821419e-02 3.6496056709438562e-03 -8.1774435937404633e-02 -1.0863319784402847e-01 2.6130076497793198e-02 -1.8517315387725830e-01 7.2209358215332031e-02 2.6339375972747803e-01 -2.3902267217636108e-01 2.2018536925315857e-02 2.0082731544971466e-01 -2.7078148722648621e-01 -5.2319232374429703e-02 -2.7403706312179565e-01 -1.5437453985214233e-01 1.0895869694650173e-02 -1.0316316038370132e-02 1.4194099605083466e-01 -1.1388217657804489e-01 1.1137535423040390e-01 -9.9994301795959473e-02 1.2020858377218246e-01 2.0947653800249100e-02 7.2376266121864319e-02 -2.0299707353115082e-01 3.8338758051395416e-02 -8.8265299797058105e-02 1.8674531579017639e-01 -2.6313716173171997e-01 -1.5353340655565262e-02 -1.1580636352300644e-01 4.5869353413581848e-01 1.3611717522144318e-01 5.4793938994407654e-02 -1.3055536150932312e-01 9.2500194907188416e-02 6.6651776432991028e-04 -2.7812967076897621e-02 -7.3136590421199799e-02 2.0936524495482445e-02 2.1924503147602081e-01 -2.2028662264347076e-01 -7.6280690729618073e-02 -3.5278305411338806e-02 3.0126471072435379e-02 -7.7470175921916962e-02 -3.4382396843284369e-03 -1.3966783881187439e-01 -2.8716617822647095e-01 3.2148820161819458e-01 2.6644790172576904e-01 -3.1897678971290588e-01 -3.7360092997550964e-01 -1.1693447828292847e-01 -2.0342336595058441e-01 9.9893786013126373e-02 2.6647236198186874e-02 -4.5328099280595779e-02 -5.6485570967197418e-03 1.9376796483993530e-01 2.5782299041748047e-01 -1.9244652986526489e-01 1.2044298648834229e-01 -1.5027673542499542e-01 -2.5560522079467773e-01 -3.1963817775249481e-02 -1.8649561703205109e-01 8.2120932638645172e-02 -2.0734314620494843e-01 -2.2740231454372406e-01 -1.4024569094181061e-01 -2.2451715543866158e-02 -1.4798128604888916e-01 -1.4269563555717468e-01 2.8099000453948975e-01 4.0708425641059875e-01 -5.4269216954708099e-02 1.5012396872043610e-01 3.9396190643310547e-01 -3.9547458291053772e-02 4.8274870961904526e-02 -2.0335963368415833e-01 -1.0456416755914688e-01 3.4697800874710083e-01 1.7496891319751740e-01 -2.1814368665218353e-01 -7.7113963663578033e-02 2.0558199286460876e-01 1.8523773550987244e-01 2.7018839120864868e-01 -4.3788153678178787e-02 -3.1954181194305420e-01 1.0512491315603256e-01 2.7953280135989189e-02 2.8617528080940247e-01 -2.5576525926589966e-01 -3.5623914003372192e-01 2.8793141245841980e-01 5.0535786151885986e-01 -2.6031318306922913e-01 1.1451136320829391e-01 -2.4841088056564331e-01 1.4226762950420380e-01 1.1349291540682316e-02 -3.1759325414896011e-02 1.8298923969268799e-01 1.8870876729488373e-01 2.2113113105297089e-01 -1.5275576710700989e-01 2.3490877449512482e-01 -3.0388647317886353e-01 -2.1592253446578979e-01 2.2531425952911377e-01 -9.5618411898612976e-02 -1.3386182487010956e-01 -1.4041972160339355e-01 -1.1542024463415146e-01 2.4363651871681213e-01 2.3316207528114319e-01 -1.1572577804327011e-01 -2.0999252796173096e-01 -7.1036107838153839e-02 2.2248713672161102e-01 4.1391626000404358e-02 -9.8021306097507477e-02 1.4827013015747070e-01 -2.1444901823997498e-01 -2.0918686687946320e-01 -1.8100844323635101e-01 -4.6937477588653564e-01 3.1751301884651184e-01 1.8234315514564514e-01 2.9709777235984802e-01 3.4345775842666626e-02 -3.2033760100603104e-02 -3.7373581528663635e-01 -5.5091530084609985e-01 2.5348401069641113e-01 -3.0735632777214050e-01 1.0938771069049835e-02 -1.3551223278045654e-01 2.5372970104217529e-01 -4.5644864439964294e-02 -5.4205358028411865e-02 1.3894979655742645e-01 1.4069382846355438e-01 -1.2113077193498611e-01 1.4518935978412628e-01 -3.2063581049442291e-02 1.7716276645660400e-01 -8.8498167693614960e-02 8.2082293927669525e-02 -2.1214513480663300e-01 -2.8951665759086609e-01 -2.9647973179817200e-01 -4.3916516005992889e-02 1.5712568163871765e-01 -3.2421022653579712e-01 -8.0876179039478302e-02 7.1630135178565979e-02 -1.9886963069438934e-01 -2.8766766190528870e-01 2.2196149826049805e-01 -1.8248667940497398e-02 1.0525079816579819e-01 2.1565607190132141e-01 -1.9498383998870850e-01 1.2758704833686352e-02 1.6348843276500702e-01 2.5200074911117554e-01 -3.2140281051397324e-02 3.3986279368400574e-01 -6.9169667549431324e-03 -1.5346266329288483e-01 8.6859473958611488e-03 -1.9172298908233643e-01 -2.4820367991924286e-01 1.6811177134513855e-01 -6.0696098953485489e-02 -7.4961587786674500e-02 -2.3233290016651154e-01 -2.1597845852375031e-01 2.4351963400840759e-01 3.7058740854263306e-02 -1.6567246615886688e-01 3.0440962314605713e-01 2.1069568395614624e-01 -1.9135501980781555e-01 -2.6000204682350159e-01 8.5855893790721893e-02 2.4768793582916260e-01 1.7360374331474304e-01 -4.4237483292818069e-02 -2.2547157108783722e-01 -2.1985222399234772e-01 -2.3479773104190826e-01 -1.8516567349433899e-01 1.1388090997934341e-01 -1.1847785115242004e-01 -5.1438438892364502e-01 -2.8001907467842102e-01 -2.2837573289871216e-01 2.3144342005252838e-01 -1.9137793779373169e-01 6.0349635779857635e-02 5.5063787847757339e-02 -2.2472926974296570e-01 -1.4255638420581818e-01 -2.4222029745578766e-01 1.9240380823612213e-01 2.8228974342346191e-01 2.0692700147628784e-01 -2.4638768285512924e-02 8.6376346647739410e-02 -2.0041224360466003e-01 2.1830090880393982e-01 1.7018558084964752e-01 1.3342234492301941e-01 1.2094920128583908e-01 -2.3860047757625580e-01 -1.1312112957239151e-01 -2.4239623546600342e-01 5.5201303213834763e-02 -2.7425435185432434e-01 -8.6235083639621735e-02 -8.1669785082340240e-02 7.4309639632701874e-02 1.9629979133605957e-01 -7.9637534916400909e-02 2.0254608988761902e-01 -6.2358066439628601e-02 8.9194163680076599e-02 -2.7150008082389832e-01 -2.5646004825830460e-02 -2.2442692518234253e-01 3.0481210350990295e-01 -1.4334451407194138e-02 -1.8300999701023102e-01 -1.2142644822597504e-01 6.8731687963008881e-02 1.4715717174112797e-02 4.3212917447090149e-01 5.0191644579172134e-02 -8.1169813871383667e-02 1.7004597187042236e-01 2.1920536458492279e-01 4.6711243689060211e-02 -2.0859028398990631e-01 -3.2930929213762283e-02 -7.5209639035165310e-03 2.5853279232978821e-01 1.4051505923271179e-01 2.4169382452964783e-01 -2.3084747791290283e-01 1.3728153705596924e-01 -1.4211340248584747e-01 1.7172005772590637e-01 2.4683269858360291e-01 -2.0631889998912811e-01 1.4736776053905487e-01 -1.4903494715690613e-01 1.6600604355335236e-01 -2.7897253632545471e-01 2.6476866006851196e-01 -2.0498657226562500e-01 -2.5058349967002869e-01 -6.6651500761508942e-02 2.6634338498115540e-01 -8.9146740734577179e-02 -1.1859368532896042e-01 1.2139233201742172e-01 3.9897214621305466e-02 3.7254672497510910e-02 -9.4608090817928314e-02 -1.4992968738079071e-01 1.0982636362314224e-01 1.2850402295589447e-01 2.0447282493114471e-01 1.2384098768234253e-01 -2.6437077671289444e-02 -1.4891524612903595e-01 -1.2277151644229889e-01 -5.4875642061233521e-02 -2.2815485298633575e-01 -8.9941651094704866e-04 -1.7855606973171234e-01 1.2374161183834076e-01 1.4262264966964722e-01 -1.5937073156237602e-02 -8.6607281118631363e-03 2.1211117506027222e-02 -2.2204431891441345e-01 9.0802356135100126e-04 -2.5776157155632973e-02 1.0880586504936218e-01 1.6216875612735748e-01 1.8341653048992157e-01 2.9986178874969482e-01 -2.2143246233463287e-01 -2.8819057345390320e-01 -1.0919212363660336e-02 -3.0632218345999718e-02 -3.2746970653533936e-02 3.5461696982383728e-01 1.9065262377262115e-01 -2.2726297378540039e-01 2.6867887005209923e-02 -9.4792343676090240e-02 4.0954118967056274e-01 -1.7461372911930084e-01 1.5631967782974243e-01 -2.0466394722461700e-01 1.3249590992927551e-01 -3.3301648497581482e-01 -7.5221575796604156e-02 -1.8906202912330627e-01 2.3022808134555817e-01 -4.2206086218357086e-02 -1.6030153632164001e-01 -3.2983236014842987e-03 -3.3670186996459961e-02 2.9237619042396545e-01 -1.9458730518817902e-01 -3.0280444025993347e-01 3.6546461284160614e-02 3.8947200775146484e-01 1.2998563051223755e-01 2.2460922598838806e-01 3.3951375633478165e-02 8.5745774209499359e-02 -1.6710759699344635e-01 -8.8970936834812164e-02 -9.1450788080692291e-02 1.2050644308328629e-01 -1.7521482706069946e-01 -4.2688027024269104e-02 -5.6660573929548264e-02 3.4397187829017639e-01 -7.6348096132278442e-02 -7.0028647780418396e-02 5.9100992977619171e-02 -1.6267144680023193e-01 -1.5453732013702393e-01 1.8224564194679260e-01 -2.4501743912696838e-01 -1.0975654423236847e-01 -3.7178641557693481e-01 6.3361939974129200e-03 -1.4797151088714600e-01 1.9182297587394714e-01 1.6442917287349701e-01 -2.3963263630867004e-01 8.9219681918621063e-02 1.6013047099113464e-01 3.6346357315778732e-02 -1.5342935919761658e-02 -5.2466835826635361e-02 2.1312011405825615e-02 6.0244534164667130e-02 -5.5565766990184784e-02 3.8747752550989389e-03 -1.6298952698707581e-01 -1.2691958248615265e-01 -1.7628607153892517e-01 -1.8124888837337494e-01 7.7570334076881409e-02 -2.6900574564933777e-01 -1.9202293455600739e-01 -1.2827107682824135e-02 -8.1536583602428436e-03 1.3956357538700104e-01 -1.8479101359844208e-02 1.5304604172706604e-01 -3.9609774947166443e-02 -1.3497728109359741e-01 2.3346041142940521e-01 -2.2108657658100128e-01 -2.7832561731338501e-01 -1.9883526861667633e-01 7.9125463962554932e-02 6.9499619305133820e-02 -2.5317870080471039e-02 -1.0579379647970200e-01 2.0646208524703979e-01 2.6957744359970093e-01 1.6688762232661247e-02 5.0776045769453049e-02 -1.1853469163179398e-01 -3.2295736670494080e-01 6.8521268665790558e-02 1.9158567488193512e-01 -8.0519244074821472e-02 9.1550037264823914e-02 -2.0875474810600281e-01 -1.8952791392803192e-01 -8.8306233286857605e-02 -1.0385043919086456e-01 -4.5649368315935135e-02 4.4484812766313553e-02 -2.1706055104732513e-01 3.8555577397346497e-02 1.2474854476749897e-02 -3.1100670457817614e-04 8.5299097001552582e-02 -2.3577600717544556e-01 2.6355576515197754e-01 -1.3307401537895203e-01 -2.5649741291999817e-01 1.6500324010848999e-01 -1.4028872549533844e-01 -2.2691652178764343e-01 8.6215987801551819e-02 1.8510456383228302e-01 2.0370317995548248e-01 1.1593779176473618e-01 -1.0792291723191738e-02 1.7777661979198456e-01 -1.4340947568416595e-01 2.0600387454032898e-01 -1.3715130090713501e-01 1.9538711011409760e-01 2.2652530670166016e-01 -1.9105178117752075e-01 -1.5595293045043945e-01 -1.8904676660895348e-02 -6.2790445983409882e-02 7.8859860077500343e-03 -3.3165007829666138e-02 -2.3801983892917633e-01 -1.9621621072292328e-01 5.8627735823392868e-02 -5.5820349603891373e-02 -1.3286374509334564e-01 -2.5813373923301697e-01 -1.4270432293415070e-01 -2.2796294093132019e-01 2.0446144044399261e-01 -2.1954986453056335e-01 -9.3188052996993065e-03 -2.9184949398040771e-01 -1.7962962388992310e-01 6.3445128500461578e-02 1.8630442023277283e-01 -5.1083806902170181e-02 -1.5625461935997009e-01 1.3325895369052887e-01 -2.4030108749866486e-01 9.0719595551490784e-02 -1.4130912721157074e-01 -6.2236733734607697e-02 1.3402031362056732e-01 1.3010269030928612e-03 -1.1015365272760391e-01 -4.8008188605308533e-02 -2.8033640980720520e-01 1.8301787972450256e-01 3.1129163689911366e-03 1.2155532091856003e-01 2.1869067847728729e-01 1.5323325060307980e-03 -2.2421015799045563e-01 5.5718328803777695e-02 -2.7061372995376587e-01 1.4014025032520294e-01 1.0758174955844879e-01 -2.1702028810977936e-02 -2.4092689156532288e-01 1.3130757212638855e-01 -9.8952278494834900e-02 1.5264751389622688e-02 -1.6992297768592834e-01 4.8801265656948090e-02 -1.6952263191342354e-02 2.1322719752788544e-01 1.0653548687696457e-01 2.7536246925592422e-03 2.5448384881019592e-01 8.8371641933917999e-02 2.2340483963489532e-02 2.5799804925918579e-01 -1.1191751062870026e-01 -1.7914509400725365e-02 -2.7605356648564339e-02 8.1840120255947113e-02 -1.8357995152473450e-01 4.0576621890068054e-02 2.2632209956645966e-01 2.8138527274131775e-01 5.0815757364034653e-02 5.6905582547187805e-02 -2.1726876497268677e-01 7.6598301529884338e-02 -1.2696202099323273e-01 9.8424451425671577e-03 -7.4566653929650784e-03 -1.0778840631246567e-01 -2.2984004020690918e-01 2.5248229503631592e-01 -4.9435898661613464e-02 -2.7220892906188965e-01 -9.8579920828342438e-02 7.7500611543655396e-02 -1.0223654657602310e-01 1.1560862511396408e-01 2.1957120299339294e-01 -6.9758363068103790e-02 2.2007990628480911e-02 2.4829803407192230e-01 -2.5184765458106995e-01 3.6915750242769718e-03 7.5322240591049194e-02 -2.1854370832443237e-01 -1.4931038022041321e-01 1.7880804836750031e-02 1.0993161052465439e-01 3.1896743178367615e-01 -1.7641858756542206e-01 -2.1804077923297882e-01 -3.6201041936874390e-01 2.1766979992389679e-01 -3.1238282099366188e-02 -1.0010893642902374e-01 3.3938430249691010e-02 1.4642153680324554e-01 -2.0518168807029724e-01 8.8783249258995056e-02 8.7183099240064621e-03 -1.0709020495414734e-01 8.1400580704212189e-02 6.2763392925262451e-02 -2.2184461355209351e-01 -8.2661338150501251e-02 -3.5973343998193741e-02 -6.3630864024162292e-02 -1.0991443693637848e-01 -1.4326456189155579e-01 3.3664426207542419e-01 -1.5973009169101715e-01 9.6696168184280396e-02 -3.9250376820564270e-01 2.6882401108741760e-01 1.5101386606693268e-01 3.6248955875635147e-03 -1.6781829297542572e-01 8.3414576947689056e-02 -2.1833470463752747e-01 5.7167854160070419e-02 -7.5759544968605042e-02 2.3452870547771454e-01 3.3463630080223083e-01 -2.5877228379249573e-01 -2.5643816590309143e-01 1.4035643637180328e-01 -1.7366887629032135e-01 9.2877112329006195e-02 -3.1500482559204102e-01 -7.5832635164260864e-02 2.3601511120796204e-01 1.1457084119319916e-01 -1.6740100085735321e-01 -1.9536426663398743e-01 1.8247757852077484e-01 1.0080875456333160e-01 2.5989183783531189e-01 1.0384669899940491e-01 1.7810727655887604e-01 -8.1208132207393646e-02 -2.6276889443397522e-01 3.1387174129486084e-01 2.4691455066204071e-01 4.8143833875656128e-01 -1.1965747177600861e-01 -2.1021613478660583e-01 -1.9174763560295105e-01 -2.6643842458724976e-01 -8.2349963486194611e-02 3.6428321152925491e-02 5.3603512048721313e-01 -1.0757224261760712e-01 -5.8063343167304993e-02 -1.5947249531745911e-01 2.9554000496864319e-01 -2.0186191797256470e-01 -5.7069446891546249e-02 9.7049273550510406e-02 -9.2061586678028107e-02 -9.6722662448883057e-02 1.5661957859992981e-01 4.4605381786823273e-02 -8.7510339915752411e-02 1.1163854598999023e-01 2.5187098979949951e-01 6.1993338167667389e-02 6.1958562582731247e-03 1.4936645328998566e-01 -3.4954614937305450e-02 4.4355105608701706e-02 -2.6283174753189087e-01 -1.7628170549869537e-01 -9.7914738580584526e-03 6.7881986498832703e-02 -1.0891790688037872e-01 5.2025321871042252e-02 9.5454871654510498e-02 1.1793131381273270e-01 2.2638705372810364e-01 -2.3639552295207977e-01 -1.7798258364200592e-01 -1.2494624406099319e-01 2.0249201357364655e-01 1.7675644159317017e-01 9.2498309910297394e-02 -2.4531183764338493e-02 -1.9854933023452759e-01 1.5668562054634094e-01 7.6165781356394291e-03 2.3739556968212128e-01 2.9725715517997742e-02 8.0700464546680450e-02 -1.8839956820011139e-01 1.8990492820739746e-01 2.1001049876213074e-01 -1.0047241300344467e-01 2.2589562460780144e-02 3.0755427479743958e-01 -9.3430131673812866e-02 -1.6539762914180756e-01 9.7745709121227264e-02 6.9803148508071899e-03 1.4860393479466438e-02 -1.3031050562858582e-01 -2.1887221932411194e-01 -1.4266285300254822e-01 2.4719515442848206e-01 -1.5774427354335785e-01 -8.3270095288753510e-02 -5.7769451290369034e-02 -1.7403104901313782e-01 -8.0773681402206421e-02 5.5057875812053680e-02 2.6590868830680847e-01 2.6144672185182571e-02 1.4527182281017303e-01 9.8199836909770966e-02 2.3615556955337524e-01 -5.4820280522108078e-02 -1.8756498396396637e-01 -8.7009117007255554e-02 -2.5086618959903717e-02 8.9867264032363892e-02 -2.7170198038220406e-02 -2.0504029095172882e-01 -1.7346916720271111e-02 -1.1163254827260971e-01 1.8432535231113434e-01 1.1540111154317856e-02 7.2882391512393951e-02 8.0158427357673645e-02 -1.4857654273509979e-01 2.3110558092594147e-01 1.7936448752880096e-01 7.0367142558097839e-02 -9.7781859338283539e-02 -2.7698228135704994e-02 -8.7170369923114777e-02 -1.7978061735630035e-01 -2.2476360201835632e-01 -1.2546043097972870e-01 4.3788969516754150e-02 1.9310976564884186e-01 1.7653127014636993e-01 -2.1329416334629059e-01 -2.6354563236236572e-01 6.2429971992969513e-02 -2.3603211343288422e-01 -2.1364521980285645e-01 -4.2422497645020485e-03 1.5683209896087646e-01 7.5869299471378326e-02 9.1190002858638763e-02 -1.5206766128540039e-01 -2.2154085338115692e-01 1.6318394243717194e-01 9.2747233808040619e-02 -5.4894331842660904e-02 -2.5561610236763954e-02 2.0323009788990021e-01 2.4271444976329803e-01 -2.7435925602912903e-01 -2.3338836431503296e-01 1.0357015579938889e-01 5.2372985519468784e-03 1.5331979095935822e-01 2.5449755787849426e-01 2.0811157301068306e-03 4.6764217317104340e-02 1.3755369186401367e-01 6.1196960508823395e-02 1.8626688420772552e-01 -2.1492695808410645e-01 3.0738810077309608e-02 2.0579229295253754e-01 2.3328293859958649e-01 1.0270709544420242e-01 1.7771071195602417e-01 -2.1795980632305145e-01 2.9422700405120850e-01 -1.5659642219543457e-01 9.9908597767353058e-02 -2.2257137298583984e-01 -1.6979900002479553e-01 1.4873540494590998e-03 6.6300466656684875e-02 -3.0947666615247726e-02 -1.1635354161262512e-01 1.2100308388471603e-01 2.2916938364505768e-01 1.0476351529359818e-01 1.9327859580516815e-01 -1.0223980993032455e-01 -2.7752235531806946e-01 2.2899509966373444e-01 2.5215715169906616e-01 1.8480262160301208e-01 -1.6182364523410797e-01 1.9621816277503967e-01 1.9904558360576630e-01 2.9744699597358704e-02 -1.9222800433635712e-01 3.4713875502347946e-02 1.9896072149276733e-01 -1.7210595309734344e-01 -1.7635838687419891e-01 1.5724356472492218e-01 1.7847178876399994e-01 1.2282089143991470e-01 -2.1547856926918030e-01 1.1977152526378632e-01 1.3752949424088001e-02 -1.6504625976085663e-01 -1.1900732666254044e-01 1.5728844702243805e-01 5.4673831909894943e-03 -1.0492765158414841e-01 -2.7897739782929420e-03 -9.1996937990188599e-02 -1.0844524204730988e-01 2.8729218244552612e-01 9.6249289810657501e-02 -2.6687158271670341e-02 -3.0958276242017746e-02 -2.7396600693464279e-02 6.9417513906955719e-02 -8.8628321886062622e-02 4.1217144578695297e-02 9.4092249870300293e-02 2.9426014423370361e-01 -1.9268819689750671e-01 -1.1182516813278198e-01 2.0695729553699493e-01 -1.7718006670475006e-01 -4.6802509576082230e-02 -1.3719382882118225e-01 -2.7880918979644775e-01 -1.2419746816158295e-01 3.6517947912216187e-02 3.2235240936279297e-01 8.8862545788288116e-02 3.1012794375419617e-01 -2.5336673855781555e-01 1.5298871695995331e-01 -2.2936850786209106e-01 -8.3745241165161133e-02 2.4079652130603790e-01 -4.6679843217134476e-02 2.3326720297336578e-01 -3.3914813399314880e-01 2.3502972722053528e-01 -2.8696975111961365e-01 -2.9864552617073059e-01 1.6226941719651222e-02 5.7432632893323898e-02 1.2902916967868805e-01 -9.6289306879043579e-02 7.0259183645248413e-02 -1.8428909778594971e-01 9.3257114291191101e-02 -4.3082937598228455e-01 -2.5650644302368164e-01 1.7296798527240753e-01 -1.2303221970796585e-02 -1.6445903480052948e-01 4.9311019480228424e-02 1.4876784384250641e-01 -6.1554826796054840e-02 -1.5459364652633667e-01 -2.7509212493896484e-01 4.8712220042943954e-02 -8.0030886456370354e-03 -2.4777951836585999e-01 -1.6995966434478760e-01 -2.2225199639797211e-01 -2.6550579071044922e-01 1.1845986545085907e-01 2.3279663175344467e-02 1.1570669710636139e-01 -1.5396595001220703e-01 1.8375456333160400e-01 -8.3237648010253906e-02 -2.1293391287326813e-01 1.7258721590042114e-01 -1.5277828276157379e-01 -3.7114158272743225e-01 6.6871844232082367e-02 -3.3396743237972260e-02 -9.4467766582965851e-02 -2.2662448883056641e-01 -8.3277940750122070e-02 -6.7005589604377747e-02 -2.3609755933284760e-01 1.1877123266458511e-01 1.2527075596153736e-02 2.6479795575141907e-02 1.9032901525497437e-01 -5.5038146674633026e-02 -1.1767380684614182e-01 1.0657693445682526e-01 4.1855957359075546e-02 1.5492588281631470e-01 5.1795933395624161e-02 1.9286061823368073e-01 4.9041107296943665e-01 2.4368309974670410e-01 2.3055076599121094e-01 2.4203057587146759e-01 -1.7044857144355774e-01 -3.6498006433248520e-02 -2.1722312271595001e-01 2.1864154934883118e-01 5.6343976408243179e-02 -7.3095433413982391e-02 -7.9691290855407715e-02 -2.1897265315055847e-01 -9.1665633022785187e-02 2.2373348474502563e-01 -1.2434121966362000e-01 -2.3424848914146423e-02 2.2134023904800415e-01 -1.2458904832601547e-01 -9.7245678305625916e-02 -1.8986582756042480e-01 1.9430667161941528e-02 -4.7135517001152039e-02 -1.4318141341209412e-01 -8.3986856043338776e-02 -2.4122226238250732e-01 -1.1561922729015350e-01 1.9981627166271210e-01 2.5194622576236725e-02 2.0178896188735962e-01 2.3215855658054352e-01 1.9852748513221741e-01 -1.9080215692520142e-01 -2.0549744367599487e-01 6.5176367759704590e-02 -6.8686410784721375e-02 2.5737184286117554e-01 -5.5823963135480881e-02 1.3681501150131226e-01 5.7241890579462051e-02 1.4338691532611847e-01 4.2959243059158325e-02 7.0525676012039185e-02 -2.1900376677513123e-01 2.4683861434459686e-01 3.2656945288181305e-02 -1.7308376729488373e-01 -1.5818318724632263e-01 9.3032278120517731e-02 3.3772242069244385e-01 -2.1840319037437439e-01 1.5601947903633118e-01 -1.4913262426853180e-01 -1.7159065604209900e-01 -3.1235837936401367e-01 2.4980495870113373e-01 4.3906062841415405e-02 -2.3394368588924408e-02 -1.7550779879093170e-01 6.0057953000068665e-02 1.2682333588600159e-01 2.0654088258743286e-01 -2.9904988408088684e-01 3.1408879905939102e-02 -1.1282664537429810e-01 -1.0557587444782257e-01 2.1634273231029510e-02 2.9839452356100082e-02 -2.2938889265060425e-01 1.5624184906482697e-01 7.9377949237823486e-02 -1.7403198778629303e-01 -1.1904305964708328e-01 -2.0700125396251678e-01 -1.7784708738327026e-01 3.2196644693613052e-02 -9.5713306218385696e-03 2.4267388880252838e-01 1.4350926876068115e-01 -2.5044205784797668e-01 2.9625082015991211e-01 7.0239603519439697e-02 -6.7457385361194611e-02 1.7043314874172211e-01 -6.4028277993202209e-02 -2.8978353738784790e-01 -5.6927762925624847e-02 -2.0632021129131317e-01 -1.7052468657493591e-01 1.7421640455722809e-01 -1.2477704323828220e-02 4.6451199799776077e-02 1.7141337692737579e-01 1.7299951612949371e-01 2.4682427942752838e-01 -1.8330654501914978e-01 -1.5025163069367409e-02 1.3448226451873779e-01 -5.8932017534971237e-02 -1.1272209882736206e-01 -2.4753649532794952e-01 -1.3457717001438141e-01 -1.7194990813732147e-01 2.8933951258659363e-01 -1.2694402039051056e-01 -2.2404776513576508e-01 -3.7651826278306544e-04 -9.1685771942138672e-02 -1.8002425134181976e-01 1.6129288077354431e-01 -1.6579969227313995e-01 -1.3432334363460541e-01 1.4775319397449493e-01 2.6141887903213501e-01 1.8703702092170715e-01 -2.3066011071205139e-01 2.4148206412792206e-01 -2.0090517401695251e-01 2.6637699455022812e-02 2.7412804961204529e-01 1.2977442145347595e-01 5.4231148213148117e-02 8.6763665080070496e-02 2.1995961666107178e-02 1.5489834547042847e-01 1.4317750930786133e-01 3.1336534023284912e-01 -1.7633309960365295e-01 -1.5413199365139008e-01 -1.3915830291807652e-02 2.4824389815330505e-01 -3.1208816170692444e-01 1.2954777479171753e-01 5.2798852324485779e-02 -1.2501132488250732e-01 -4.1330799460411072e-02 -1.9118352234363556e-01 5.6372847408056259e-02 -1.5273346006870270e-01 2.3549097776412964e-01 1.5244941413402557e-01 1.0791910439729691e-01 1.7371371388435364e-01 2.3833112418651581e-01 -1.8221867084503174e-01 -3.3909192681312561e-01 -1.7011345922946930e-01 -1.1732222884893417e-01 -9.5366463065147400e-03 5.9448920190334320e-02 -3.3264794945716858e-01 1.9815616309642792e-02 -2.8380331397056580e-01 -2.1541722118854523e-01 -5.1707327365875244e-02 -2.6089963316917419e-01 8.6518496274948120e-02 5.6730523705482483e-02 -2.1955317258834839e-01 2.5154775381088257e-01 -1.9003771245479584e-01 1.8071350455284119e-01 1.1163054406642914e-01 3.7494163960218430e-02 2.6488667726516724e-01 1.0577181726694107e-01 -1.0767784714698792e-01 -2.2979002445936203e-02 -9.3057364225387573e-02 -4.1162765026092529e-01 -4.5417767018079758e-02 -3.2666948437690735e-01 6.5949097275733948e-02 2.4684329330921173e-01 1.0954368114471436e-01 -1.2836980819702148e-01 9.9762663245201111e-02 -9.6011072397232056e-02 -8.4673948585987091e-03 -3.5143607854843140e-01 1.0302364826202393e-01 2.5278022885322571e-01 -3.8216128945350647e-02 -1.2052016705274582e-01 1.3905753195285797e-01 5.5914390832185745e-02 -1.2770286202430725e-01 6.1682801693677902e-02 3.7227928638458252e-01 1.4284415543079376e-01 -1.2141841650009155e-01 2.6823088526725769e-01 2.8809481859207153e-01 -3.0422213673591614e-01 -2.6127770543098450e-01 -2.4411715567111969e-03 3.3495289087295532e-01 1.9479820132255554e-01 3.1938096508383751e-03 -2.0908735692501068e-01 -1.5264394879341125e-01 -1.9571406766772270e-02 3.4628637135028839e-02 -8.4303319454193115e-02 2.6173263788223267e-01 -4.8128265887498856e-02 1.9337801635265350e-01 1.0009074583649635e-02 -3.6633840203285217e-01 -8.3053338527679443e-01 2.2658413648605347e-01 -2.9494022950530052e-02 -4.2576566338539124e-02 -2.5434732437133789e-01 5.8322694152593613e-02 -2.9489764571189880e-01 1.1141867190599442e-01 3.4582182765007019e-01 1.4134670794010162e-01 -2.3566026985645294e-01 -5.7706136256456375e-02 2.1091753244400024e-01 1.5945790335536003e-02 -2.2315883636474609e-01 -1.1371692270040512e-01 6.5656346268951893e-03 -3.3714115619659424e-01 2.4857908487319946e-01 1.3935156166553497e-01 -3.9048182964324951e-01 -5.9849393367767334e-01 2.2960793972015381e-01 -3.5317188501358032e-01 1.2532663531601429e-02 -3.7865489721298218e-01 1.4962828159332275e-01 -1.9132994115352631e-02 -1.5671654045581818e-01 -1.3524505496025085e-01 -2.0252794027328491e-01 -2.0170882344245911e-01 1.9551761448383331e-01 -2.0320376381278038e-02 2.4426208436489105e-01 2.7263290248811245e-03 -2.5515374541282654e-01 -8.1194087862968445e-02 3.2441049814224243e-02 -9.6475228667259216e-02 -5.3312942385673523e-02 -2.7744030952453613e-01 -1.2954799830913544e-01 3.2303294539451599e-01 -1.5972231328487396e-01 -2.2364909946918488e-01 -3.7698145955801010e-02 -4.7466285526752472e-02 -2.4042087793350220e-01 -2.2282730042934418e-01 1.6710546612739563e-01 -1.1032986640930176e-01 1.0321211814880371e-01 8.2458615303039551e-02 -1.4643360674381256e-01 7.5413368642330170e-02 8.7006419897079468e-02 -2.5318149477243423e-02 -2.2209706902503967e-01 -1.4697275124490261e-02 9.9361620843410492e-02 -1.0854306817054749e-01 8.6555898189544678e-02 -2.2945272922515869e-01 1.0764517635107040e-01 -1.2499923259019852e-01 2.5946575403213501e-01 2.1796225011348724e-01 2.2431731224060059e-01 -1.9087146222591400e-01 2.2820134460926056e-01 -1.1042339354753494e-01 1.8560233712196350e-01 2.2304806113243103e-01 -1.4613068103790283e-01 5.8922566473484039e-02 -2.0827335119247437e-01 -1.8240975216031075e-02 2.2785355150699615e-01 3.0819249153137207e-01 2.1764916181564331e-01 2.0740438997745514e-01 5.9888724237680435e-02 1.3177533634006977e-02 1.1240669339895248e-01 2.2282911837100983e-01 -3.5027453303337097e-01 2.0563881099224091e-01 -7.2685167193412781e-02 7.0144347846508026e-02 2.3720318078994751e-01 1.5145024657249451e-01 -1.5240210294723511e-01 -2.8137016296386719e-01 2.4575930833816528e-01 2.1597295999526978e-01 2.8180915117263794e-01 1.5407212078571320e-01 1.1681193113327026e-01 1.7203895747661591e-01 -1.0435917973518372e-01 -1.0627160221338272e-01 -4.6285767108201981e-02 -1.4098478853702545e-01 -1.8037246167659760e-01 3.8441610336303711e-01 -1.2207115441560745e-01 1.6126549243927002e-01 1.6414992511272430e-01 -2.1925744414329529e-01 -2.3520398139953613e-01 2.6530653703957796e-03 1.6185332834720612e-01 -7.9587377607822418e-02 1.2574452161788940e-01 7.1745768189430237e-02 -2.3707669973373413e-01 -3.9713658392429352e-02 -7.2540044784545898e-02 -1.4758695662021637e-01 -1.9748550653457642e-01 1.5981030464172363e-01 -1.1170707643032074e-01 1.1590542271733284e-02 -1.2314712256193161e-01 2.2452010214328766e-01 5.1889162510633469e-02 1.8450407683849335e-01 -2.1540977060794830e-01 -2.1843369305133820e-01 -2.8097733855247498e-01 8.1892319023609161e-02 -7.4196897447109222e-02 1.8889831006526947e-01 -2.8474810719490051e-01 5.8606099337339401e-02 2.5839844346046448e-01 -2.2843813896179199e-01 -2.1245403587818146e-01 -2.2918535768985748e-01 -6.5989285707473755e-02 2.0493553578853607e-01 -1.6551634296774864e-02 6.7023612558841705e-02 1.0201855003833771e-01 -2.0860676467418671e-01 3.3032980561256409e-01 4.2086720466613770e-01 2.8454059362411499e-01 3.0780711770057678e-01 1.9257931411266327e-01 -2.1881489455699921e-01 -1.9749449193477631e-01 1.4094667136669159e-01 -8.4679968655109406e-02 -1.5882451832294464e-01 -8.7568774819374084e-02 -3.1669374555349350e-02 2.4190098047256470e-01 -1.0184152424335480e-01 2.4497129023075104e-01 1.0278852283954620e-01 -4.4347453862428665e-02 -2.3451887071132660e-01 -1.1411767452955246e-01 -2.2977681457996368e-01 4.7950718551874161e-02 1.8917791545391083e-01 -7.4114978313446045e-02 1.4313493669033051e-01 6.1907026916742325e-02 -1.0881220549345016e-01 -1.8148842453956604e-01 -5.0289083272218704e-02 -2.6544195413589478e-01 1.7673650383949280e-01 -1.1704552918672562e-01 -2.8863940387964249e-02 -1.7722187936306000e-01 2.4089999496936798e-01 2.5185692310333252e-01 2.2401233017444611e-01 -2.3127496242523193e-01 -5.4279051721096039e-02 -2.2907683253288269e-01 -1.0684623569250107e-01 -2.3625579476356506e-01 -1.4550586044788361e-01 -3.1970766186714172e-01 -3.9395537227392197e-02 -3.0330193042755127e-01 -2.5870549678802490e-01 -2.0129261538386345e-02 -5.5581457912921906e-02 -1.7385911941528320e-01 -9.5307655632495880e-02 4.9334418028593063e-02 1.4015319943428040e-01 -2.5271317362785339e-01 1.2612083554267883e-01 5.1831606775522232e-02 -1.5254656970500946e-01 1.1715225875377655e-01 1.6118435189127922e-02 2.7179136872291565e-01 -2.0374866202473640e-02 4.3006006628274918e-02 -2.7151736617088318e-01 1.1686466634273529e-01 2.2162273526191711e-01 -2.8461327776312828e-02 -2.2161929309368134e-01 3.9306983351707458e-01 1.2159799784421921e-01 -1.3807415030896664e-02 1.6529132425785065e-01 1.0430140793323517e-01 1.0278740525245667e-01 -2.3868719115853310e-02 -1.1513444036245346e-01 -9.7610883414745331e-02 -1.1003209277987480e-02 -9.5198117196559906e-02 4.4881474226713181e-02 1.4971636235713959e-01 -1.9240406155586243e-01 -2.4879451096057892e-01 -2.4242708086967468e-01 2.2256892919540405e-01 1.4325354993343353e-01 4.7879561781883240e-02 -3.0815553665161133e-01 8.1115581095218658e-02 -2.7162328362464905e-01 2.1964411437511444e-01 2.2632438689470291e-02 6.9288432598114014e-02 2.0778420567512512e-01 1.6233848035335541e-01 -2.0384059846401215e-01 2.7057859301567078e-01 7.5361654162406921e-02 1.0786269791424274e-02 2.6209372282028198e-01 7.0748063735663891e-03 -1.4478802680969238e-01 2.8244742751121521e-01 -2.8521209955215454e-01 -3.1213790178298950e-02 1.5364226698875427e-01 4.4038478285074234e-02 -2.8168320655822754e-01 6.3747748732566833e-02 2.4938343465328217e-01 2.5963521003723145e-01 -2.6750391721725464e-01 4.1887283325195312e-02 7.6646921224892139e-03 8.1535920500755310e-02 6.2944859266281128e-02 -1.0927419364452362e-01 2.0549030601978302e-01 -2.5372469425201416e-01 -2.1806037425994873e-01 2.0370730757713318e-01 -4.0813688188791275e-02 -1.8893082439899445e-01 -1.8712642788887024e-01 -1.0901763103902340e-02 1.2891995906829834e-01 1.4527591876685619e-02 -8.1493578851222992e-02 -1.1892233043909073e-01 3.2314845919609070e-01 2.3505659773945808e-02 3.2408985495567322e-01 2.4529196321964264e-01 -2.5597563385963440e-01 -2.6269030570983887e-01 -3.4570463001728058e-02 -1.1263730376958847e-01 -1.1234203726053238e-01 -9.7856402397155762e-02 -6.6596210002899170e-02 -1.4207974076271057e-01 1.0630701482295990e-01 1.2232382595539093e-01 -2.9027602076530457e-01 9.1918393969535828e-02 -1.3023026287555695e-01 -2.2196686267852783e-01 1.6704350709915161e-01 -1.0223776102066040e-01 1.7879474163055420e-01 -4.5224644243717194e-02 1.2978799641132355e-01 1.5371227264404297e-01 -2.0302872359752655e-01 -1.4180248975753784e-01 -2.5382208824157715e-01 1.5706370770931244e-01 -2.2227743640542030e-02 1.2858118861913681e-02 9.2921361327171326e-02 2.7770075201988220e-01 -6.5212629735469818e-02 -1.3786368072032928e-01 -1.0222625918686390e-02 1.7299610376358032e-01 1.1404323577880859e-01 -2.8170910663902760e-03 -1.1130217462778091e-01 -2.5095978379249573e-01 2.1676170825958252e-01 4.1846841573715210e-01 2.0796827971935272e-01 2.1734270453453064e-01 1.5002536773681641e-01 -2.2615571320056915e-01 3.9459723234176636e-01 2.6530167460441589e-01 3.3771097660064697e-02 2.9373735189437866e-02 -1.3171152770519257e-01 -2.6181396842002869e-01 1.4361140131950378e-01 2.2272914648056030e-01 -1.0745044052600861e-01 -7.3634661734104156e-02 1.1456768959760666e-01 -1.2076146155595779e-01 -1.2366700172424316e-01 -3.3965770155191422e-02 -8.2117825746536255e-02 5.0812412053346634e-02 -2.8845762833952904e-02 -2.1561740338802338e-01 4.1673772037029266e-02 3.2283699512481689e-01 1.6736677289009094e-01 3.5925935953855515e-02 
      </Weights>
      <Biases rows="128" cols="1">
        -3.9195105433464050e-01 -2.4956347048282623e-01 8.7400192022323608e-01 5.7716989517211914e-01 8.6106911301612854e-02 -4.4581475853919983e-01 -1.7540560662746429e-01 1.4643855392932892e-01 -2.9449610039591789e-02 1.7342495266348124e-03 2.8927189111709595e-01 -3.0969956517219543e-01 -2.4804775416851044e-01 2.8950404375791550e-02 -1.5693314373493195e-01 -2.6513120532035828e-01 2.8104397654533386e-01 -1.5725529193878174e-01 3.8574254512786865e-01 -4.9311771988868713e-02 1.2229723483324051e-01 1.3318058848381042e-01 2.6240137219429016e-01 1.3986514508724213e-01 3.4458450973033905e-02 -5.7880759239196777e-01 2.6075536012649536e-01 -7.3584578931331635e-02 1.1021383851766586e-01 -8.4496748447418213e-01 -4.1440537571907043e-01 -3.0068707466125488e-01 -3.0821308493614197e-01 2.9559192061424255e-01 1.0226792842149734e-01 4.3026140332221985e-01 -3.7118175625801086e-01 1.3979533314704895e-01 2.0558927208185196e-03 -3.0224534869194031e-01 -3.6737522482872009e-01 -9.7526818513870239e-02 8.2643933594226837e-02 -2.9911831021308899e-01 1.1694792658090591e-01 2.8568011522293091e-01 3.1636461615562439e-01 -1.6882891952991486e-01 1.7672483623027802e-01 8.9788146317005157e-02 3.1898292899131775e-01 9.1926023364067078e-02 -3.1369349360466003e-01 4.3766340613365173e-01 1.9611918926239014e-01 -5.0652629137039185e-01 1.1691735684871674e-01 -1.8086136877536774e-01 2.2310459613800049e-01 -3.6571678519248962e-01 -1.2884641997516155e-02 5.0089055299758911e-01 2.5752186775207520e-03 3.2590207457542419e-01 -5.5272191762924194e-01 1.1298632621765137e-01 7.8376775979995728e-01 1.5173922292888165e-03 -6.3917899131774902e-01 -6.7534543573856354e-02 2.1878051757812500e-01 -5.7689547538757324e-01 -1.0377112030982971e-01 3.3540827035903931e-01 -1.0554720647633076e-03 -9.1524638235569000e-02 4.3395516276359558e-01 4.3638321757316589e-01 -4.0137097239494324e-01 -3.9615195989608765e-01 -1.9303880631923676e-01 -1.0520043969154358e-01 -8.6817376315593719e-02 -4.4276110827922821e-02 2.8608560562133789e-01 1.0055437684059143e-01 -2.9248675704002380e-01 -3.9098277688026428e-01 -1.9704180955886841e-01 5.6233233213424683e-01 -1.0504537075757980e-01 4.1740471497178078e-03 9.3633934855461121e-02 -1.1324591934680939e-01 -7.8755572438240051e-02 -1.1115004308521748e-02 2.1734533831477165e-02 1.7902889847755432e-01 2.9628106951713562e-01 -2.4832575023174286e-01 -1.8454866111278534e-01 3.2863596081733704e-01 -1.6868585348129272e-01 7.1733206510543823e-02 -3.2504683732986450e-01 -2.3621331155300140e-01 4.4866289943456650e-02 1.1548176407814026e-01 -4.4267261028289795e-01 -5.3671443462371826e-01 5.1009804010391235e-01 -9.0977215766906738e-01 -8.0407375097274780e-01 -4.0645131468772888e-01 -2.0095159113407135e-01 6.8313725292682648e-02 1.9682759046554565e-01 -2.4058419466018677e-01 3.4774604439735413e-01 -5.5319175124168396e-02 -2.7565231919288635e-01 1.0892644524574280e-01 -3.1733018159866333e-01 -8.4781900048255920e-02 2.5144371390342712e-01 5.0631798803806305e-02 6.0537046194076538e-01 2.6105020195245743e-02 
      </Biases>
    </Layer>
    <Layer ActivationFunction="3">
      <Weights rows="128" cols="128">
