<?xml version="1.0"?>
<MethodSetup Method="MLP::MLP">
  <GeneralInfo>
    <Info name="TMVA Release" value="4.2.1 [262657]"/>
    <Info name="ROOT Release" value="6.12/06 [396294]"/>
    <Info name="Creator" value="boraisildak"/>
    <Info name="Date" value="Mon Aug 27 16:42:23 2018"/>
    <Info name="Host" value="Darwin ElCapitan-2.local 15.6.0 Darwin Kernel Version 15.6.0: Tue Jan 9 20:12:05 PST 2018; root:xnu-3248.73.5~1/RELEASE_X86_64 x86_64"/>
    <Info name="Dir" value="/Users/boraisildak/Documents/Github/SMCEDM/Analysis"/>
    <Info name="Training events" value="2000"/>
    <Info name="TrainingTime" value="4.67182250e+01"/>
    <Info name="AnalysisType" value="Classification"/>
  </GeneralInfo>
  <Options>
    <Option name="NCycles" modified="Yes">600</Option>
    <Option name="HiddenLayers" modified="Yes">N+5</Option>
    <Option name="NeuronType" modified="Yes">tanh</Option>
    <Option name="RandomSeed" modified="No">1</Option>
    <Option name="EstimatorType" modified="No">CE</Option>
    <Option name="NeuronInputType" modified="No">sum</Option>
    <Option name="V" modified="Yes">False</Option>
    <Option name="VerbosityLevel" modified="No">Default</Option>
    <Option name="VarTransform" modified="Yes">N</Option>
    <Option name="H" modified="Yes">True</Option>
    <Option name="CreateMVAPdfs" modified="No">False</Option>
    <Option name="IgnoreNegWeightsInTraining" modified="No">False</Option>
    <Option name="TrainingMethod" modified="No">BP</Option>
    <Option name="LearningRate" modified="No">2.000000e-02</Option>
    <Option name="DecayRate" modified="No">1.000000e-02</Option>
    <Option name="TestRate" modified="Yes">5</Option>
    <Option name="EpochMonitoring" modified="No">False</Option>
    <Option name="Sampling" modified="No">1.000000e+00</Option>
    <Option name="SamplingEpoch" modified="No">1.000000e+00</Option>
    <Option name="SamplingImportance" modified="No">1.000000e+00</Option>
    <Option name="SamplingTraining" modified="No">True</Option>
    <Option name="SamplingTesting" modified="No">False</Option>
    <Option name="ResetStep" modified="No">50</Option>
    <Option name="Tau" modified="No">3.000000e+00</Option>
    <Option name="BPMode" modified="No">sequential</Option>
    <Option name="BatchSize" modified="No">-1</Option>
    <Option name="ConvergenceImprove" modified="No">1.000000e-30</Option>
    <Option name="ConvergenceTests" modified="No">-1</Option>
    <Option name="UseRegulator" modified="Yes">False</Option>
    <Option name="UpdateLimit" modified="No">10000</Option>
    <Option name="CalculateErrors" modified="No">False</Option>
    <Option name="WeightRange" modified="No">1.000000e+00</Option>
  </Options>
  <Variables NVar="21">
    <Variable VarIndex="0" Expression="nJets" Label="nJets" Title="nJets" Unit="" Internal="nJets" Type="F" Min="2.00000000e+00" Max="1.40000000e+01"/>
    <Variable VarIndex="1" Expression="ht" Label="ht" Title="ht" Unit="" Internal="ht" Type="F" Min="4.45096207e+01" Max="1.93714246e+03"/>
    <Variable VarIndex="2" Expression="jetPt[0]" Label="jetPt[0]" Title="jetPt[0]" Unit="" Internal="jetPt_0_" Type="F" Min="2.41180973e+01" Max="7.71893127e+02"/>
    <Variable VarIndex="3" Expression="jetPt[1]" Label="jetPt[1]" Title="jetPt[1]" Unit="" Internal="jetPt_1_" Type="F" Min="2.28374901e+01" Max="6.23182190e+02"/>
    <Variable VarIndex="4" Expression="jetPt[2]" Label="jetPt[2]" Title="jetPt[2]" Unit="" Internal="jetPt_2_" Type="F" Min="0.00000000e+00" Max="2.85220459e+02"/>
    <Variable VarIndex="5" Expression="jetPt[3]" Label="jetPt[3]" Title="jetPt[3]" Unit="" Internal="jetPt_3_" Type="F" Min="0.00000000e+00" Max="2.12022690e+02"/>
    <Variable VarIndex="6" Expression="jetPt[4]" Label="jetPt[4]" Title="jetPt[4]" Unit="" Internal="jetPt_4_" Type="F" Min="0.00000000e+00" Max="1.24699615e+02"/>
    <Variable VarIndex="7" Expression="sphericity" Label="sphericity" Title="sphericity" Unit="" Internal="sphericity" Type="F" Min="7.21735239e-04" Max="8.64658773e-01"/>
    <Variable VarIndex="8" Expression="aplanarity" Label="aplanarity" Title="aplanarity" Unit="" Internal="aplanarity" Type="F" Min="-4.65982097e-08" Max="3.35540742e-01"/>
    <Variable VarIndex="9" Expression="foxWolfram[0]" Label="foxWolfram[0]" Title="foxWolfram[0]" Unit="" Internal="foxWolfram_0_" Type="F" Min="7.90046006e-02" Max="4.40202236e-01"/>
    <Variable VarIndex="10" Expression="foxWolfram[1]" Label="foxWolfram[1]" Title="foxWolfram[1]" Unit="" Internal="foxWolfram_1_" Type="F" Min="-2.48954862e-01" Max="3.16777438e-01"/>
    <Variable VarIndex="11" Expression="foxWolfram[2]" Label="foxWolfram[2]" Title="foxWolfram[2]" Unit="" Internal="foxWolfram_2_" Type="F" Min="-1.21386588e-01" Max="3.64943802e-01"/>
    <Variable VarIndex="12" Expression="foxWolfram[3]" Label="foxWolfram[3]" Title="foxWolfram[3]" Unit="" Internal="foxWolfram_3_" Type="F" Min="-2.48340532e-01" Max="3.14699084e-01"/>
    <Variable VarIndex="13" Expression="mTop" Label="mTop" Title="mTop" Unit="" Internal="mTop" Type="F" Min="-8.34194706e+27" Max="3.19336646e+03"/>
    <Variable VarIndex="14" Expression="yTop" Label="yTop" Title="yTop" Unit="" Internal="yTop" Type="F" Min="-8.34200845e+27" Max="3.01739502e+00"/>
    <Variable VarIndex="15" Expression="ptTop" Label="ptTop" Title="ptTop" Unit="" Internal="ptTop" Type="F" Min="4.59149455e-41" Max="6.76800476e+02"/>
    <Variable VarIndex="16" Expression="met" Label="met" Title="met" Unit="" Internal="met" Type="F" Min="4.51787055e-01" Max="4.33431000e+02"/>
    <Variable VarIndex="17" Expression="metPhi" Label="metPhi" Title="metPhi" Unit="" Internal="metPhi" Type="F" Min="-3.13975978e+00" Max="3.14128661e+00"/>
    <Variable VarIndex="18" Expression="nLeptons" Label="nLeptons" Title="nLeptons" Unit="" Internal="nLeptons" Type="F" Min="0.00000000e+00" Max="2.00000000e+00"/>
    <Variable VarIndex="19" Expression="mW" Label="mW" Title="mW" Unit="" Internal="mW" Type="F" Min="6.50335159e+01" Max="9.49839554e+01"/>
    <Variable VarIndex="20" Expression="nBJets" Label="nBJets" Title="nBJets" Unit="" Internal="nBJets" Type="F" Min="0.00000000e+00" Max="4.00000000e+00"/>
  </Variables>
  <Spectators NSpec="0"/>
  <Classes NClass="2">
    <Class Name="Signal" Index="0"/>
    <Class Name="Background" Index="1"/>
  </Classes>
  <Transformations NTransformations="1">
    <Transform Name="Normalize">
      <Selection>
        <Input NInputs="21">
          <Input Type="Variable" Label="nJets" Expression="nJets"/>
          <Input Type="Variable" Label="ht" Expression="ht"/>
          <Input Type="Variable" Label="jetPt[0]" Expression="jetPt[0]"/>
          <Input Type="Variable" Label="jetPt[1]" Expression="jetPt[1]"/>
          <Input Type="Variable" Label="jetPt[2]" Expression="jetPt[2]"/>
          <Input Type="Variable" Label="jetPt[3]" Expression="jetPt[3]"/>
          <Input Type="Variable" Label="jetPt[4]" Expression="jetPt[4]"/>
          <Input Type="Variable" Label="sphericity" Expression="sphericity"/>
          <Input Type="Variable" Label="aplanarity" Expression="aplanarity"/>
          <Input Type="Variable" Label="foxWolfram[0]" Expression="foxWolfram[0]"/>
          <Input Type="Variable" Label="foxWolfram[1]" Expression="foxWolfram[1]"/>
          <Input Type="Variable" Label="foxWolfram[2]" Expression="foxWolfram[2]"/>
          <Input Type="Variable" Label="foxWolfram[3]" Expression="foxWolfram[3]"/>
          <Input Type="Variable" Label="mTop" Expression="mTop"/>
          <Input Type="Variable" Label="yTop" Expression="yTop"/>
          <Input Type="Variable" Label="ptTop" Expression="ptTop"/>
          <Input Type="Variable" Label="met" Expression="met"/>
          <Input Type="Variable" Label="metPhi" Expression="metPhi"/>
          <Input Type="Variable" Label="nLeptons" Expression="nLeptons"/>
          <Input Type="Variable" Label="mW" Expression="mW"/>
          <Input Type="Variable" Label="nBJets" Expression="nBJets"/>
        </Input>
        <Output NOutputs="21">
          <Output Type="Variable" Label="nJets" Expression="nJets"/>
          <Output Type="Variable" Label="ht" Expression="ht"/>
          <Output Type="Variable" Label="jetPt[0]" Expression="jetPt[0]"/>
          <Output Type="Variable" Label="jetPt[1]" Expression="jetPt[1]"/>
          <Output Type="Variable" Label="jetPt[2]" Expression="jetPt[2]"/>
          <Output Type="Variable" Label="jetPt[3]" Expression="jetPt[3]"/>
          <Output Type="Variable" Label="jetPt[4]" Expression="jetPt[4]"/>
          <Output Type="Variable" Label="sphericity" Expression="sphericity"/>
          <Output Type="Variable" Label="aplanarity" Expression="aplanarity"/>
          <Output Type="Variable" Label="foxWolfram[0]" Expression="foxWolfram[0]"/>
          <Output Type="Variable" Label="foxWolfram[1]" Expression="foxWolfram[1]"/>
          <Output Type="Variable" Label="foxWolfram[2]" Expression="foxWolfram[2]"/>
          <Output Type="Variable" Label="foxWolfram[3]" Expression="foxWolfram[3]"/>
          <Output Type="Variable" Label="mTop" Expression="mTop"/>
          <Output Type="Variable" Label="yTop" Expression="yTop"/>
          <Output Type="Variable" Label="ptTop" Expression="ptTop"/>
          <Output Type="Variable" Label="met" Expression="met"/>
          <Output Type="Variable" Label="metPhi" Expression="metPhi"/>
          <Output Type="Variable" Label="nLeptons" Expression="nLeptons"/>
          <Output Type="Variable" Label="mW" Expression="mW"/>
          <Output Type="Variable" Label="nBJets" Expression="nBJets"/>
        </Output>
      </Selection>
      <Class ClassIndex="0">
        <Ranges>
          <Range Index="0" Min="2.0000000000000000e+00" Max="1.4000000000000000e+01"/>
          <Range Index="1" Min="1.1878989410400391e+02" Max="1.9371424560546875e+03"/>
          <Range Index="2" Min="3.5916069030761719e+01" Max="7.7189312744140625e+02"/>
          <Range Index="3" Min="3.0643133163452148e+01" Max="6.2318218994140625e+02"/>
          <Range Index="4" Min="0.0000000000000000e+00" Max="2.8522045898437500e+02"/>
          <Range Index="5" Min="0.0000000000000000e+00" Max="1.7067713928222656e+02"/>
          <Range Index="6" Min="0.0000000000000000e+00" Max="1.2469961547851562e+02"/>
          <Range Index="7" Min="2.3813499137759209e-03" Max="8.6465877294540405e-01"/>
          <Range Index="8" Min="-1.1888646511692968e-08" Max="3.3420190215110779e-01"/>
          <Range Index="9" Min="1.0946169495582581e-01" Max="4.4020223617553711e-01"/>
          <Range Index="10" Min="-1.9575169682502747e-01" Max="2.6829728484153748e-01"/>
          <Range Index="11" Min="-6.1902064830064774e-02" Max="3.6494380235671997e-01"/>
          <Range Index="12" Min="-1.8553806841373444e-01" Max="2.2340098023414612e-01"/>
          <Range Index="13" Min="8.5399467468261719e+01" Max="9.9571307373046875e+02"/>
          <Range Index="14" Min="-2.8380181789398193e+00" Max="2.9021801948547363e+00"/>
          <Range Index="15" Min="2.2337939739227295e+00" Max="6.7680047607421875e+02"/>
          <Range Index="16" Min="8.8367205858230591e-01" Max="4.3343099975585938e+02"/>
          <Range Index="17" Min="-3.1360762119293213e+00" Max="3.1397490501403809e+00"/>
          <Range Index="18" Min="0.0000000000000000e+00" Max="1.0000000000000000e+00"/>
          <Range Index="19" Min="6.5033592224121094e+01" Max="9.4983955383300781e+01"/>
          <Range Index="20" Min="0.0000000000000000e+00" Max="4.0000000000000000e+00"/>
        </Ranges>
      </Class>
      <Class ClassIndex="1">
        <Ranges>
          <Range Index="0" Min="2.0000000000000000e+00" Max="9.0000000000000000e+00"/>
          <Range Index="1" Min="4.4509620666503906e+01" Max="1.2944295654296875e+03"/>
          <Range Index="2" Min="2.4118097305297852e+01" Max="3.4239309692382812e+02"/>
          <Range Index="3" Min="2.2837490081787109e+01" Max="2.9655590820312500e+02"/>
          <Range Index="4" Min="0.0000000000000000e+00" Max="2.6743374633789062e+02"/>
          <Range Index="5" Min="0.0000000000000000e+00" Max="2.1202268981933594e+02"/>
          <Range Index="6" Min="0.0000000000000000e+00" Max="7.8596153259277344e+01"/>
          <Range Index="7" Min="7.2173523949459195e-04" Max="8.5045850276947021e-01"/>
          <Range Index="8" Min="-4.6598209735293494e-08" Max="3.3554074168205261e-01"/>
          <Range Index="9" Min="7.9004600644111633e-02" Max="4.3145501613616943e-01"/>
          <Range Index="10" Min="-2.4895486235618591e-01" Max="3.1677743792533875e-01"/>
          <Range Index="11" Min="-1.2138658761978149e-01" Max="3.3039709925651550e-01"/>
          <Range Index="12" Min="-2.4834053218364716e-01" Max="3.1469908356666565e-01"/>
          <Range Index="13" Min="-8.3419470551936394e+27" Max="3.1933664550781250e+03"/>
          <Range Index="14" Min="-8.3420084459579167e+27" Max="3.0173950195312500e+00"/>
          <Range Index="15" Min="4.5914945482066956e-41" Max="4.9329898071289062e+02"/>
          <Range Index="16" Min="4.5178705453872681e-01" Max="2.7346740722656250e+02"/>
          <Range Index="17" Min="-3.1397597789764404e+00" Max="3.1412866115570068e+00"/>
          <Range Index="18" Min="0.0000000000000000e+00" Max="2.0000000000000000e+00"/>
          <Range Index="19" Min="6.5033515930175781e+01" Max="9.4843040466308594e+01"/>
          <Range Index="20" Min="0.0000000000000000e+00" Max="2.0000000000000000e+00"/>
        </Ranges>
      </Class>
      <Class ClassIndex="2">
        <Ranges>
          <Range Index="0" Min="2.0000000000000000e+00" Max="1.4000000000000000e+01"/>
          <Range Index="1" Min="4.4509620666503906e+01" Max="1.9371424560546875e+03"/>
          <Range Index="2" Min="2.4118097305297852e+01" Max="7.7189312744140625e+02"/>
          <Range Index="3" Min="2.2837490081787109e+01" Max="6.2318218994140625e+02"/>
          <Range Index="4" Min="0.0000000000000000e+00" Max="2.8522045898437500e+02"/>
          <Range Index="5" Min="0.0000000000000000e+00" Max="2.1202268981933594e+02"/>
          <Range Index="6" Min="0.0000000000000000e+00" Max="1.2469961547851562e+02"/>
          <Range Index="7" Min="7.2173523949459195e-04" Max="8.6465877294540405e-01"/>
          <Range Index="8" Min="-4.6598209735293494e-08" Max="3.3554074168205261e-01"/>
          <Range Index="9" Min="7.9004600644111633e-02" Max="4.4020223617553711e-01"/>
          <Range Index="10" Min="-2.4895486235618591e-01" Max="3.1677743792533875e-01"/>
          <Range Index="11" Min="-1.2138658761978149e-01" Max="3.6494380235671997e-01"/>
          <Range Index="12" Min="-2.4834053218364716e-01" Max="3.1469908356666565e-01"/>
          <Range Index="13" Min="-8.3419470551936394e+27" Max="3.1933664550781250e+03"/>
          <Range Index="14" Min="-8.3420084459579167e+27" Max="3.0173950195312500e+00"/>
          <Range Index="15" Min="4.5914945482066956e-41" Max="6.7680047607421875e+02"/>
          <Range Index="16" Min="4.5178705453872681e-01" Max="4.3343099975585938e+02"/>
          <Range Index="17" Min="-3.1397597789764404e+00" Max="3.1412866115570068e+00"/>
          <Range Index="18" Min="0.0000000000000000e+00" Max="2.0000000000000000e+00"/>
          <Range Index="19" Min="6.5033515930175781e+01" Max="9.4983955383300781e+01"/>
          <Range Index="20" Min="0.0000000000000000e+00" Max="4.0000000000000000e+00"/>
        </Ranges>
      </Class>
    </Transform>
  </Transformations>
  <MVAPdfs/>
  <Weights>
    <Layout NLayers="3">
      <Layer Index="0" NNeurons="22">
        <Neuron NSynapses="26">
          2.0997818805055071e-01 2.0470365060322320e+00 1.3586563120910700e+00 1.7318273147992586e-01 -1.9458018821103924e+00 -2.1156262981383249e+00 -6.4371386142281040e-01 1.9692736355412759e+00 -1.8295921203737258e+00 -1.1685527786223129e+00 -1.8680657912035168e+00 -1.6358562633426070e+00 -6.5326501128436232e-01 -9.4071387680443308e-01 -4.8565324555325440e-01 4.3137803755451376e-01 1.3476771482866542e-01 1.7976728887270099e+00 -1.5574092036947729e+00 1.3827196290762456e+00 1.4398272505643955e-01 -1.1947116405917672e-01 -1.7238859125373526e-01 3.0932878691542742e-01 -4.2704995288964748e-01 -4.7399516691171933e-01 
        </Neuron>
        <Neuron NSynapses="26">
          1.1833319037899364e+00 -1.0309665850102943e+00 -1.8834187418570509e+00 -1.3244359334178186e+00 7.4679152973183505e-01 6.1355183793650281e-01 -2.2133638145786633e-01 -2.0686967502585277e-01 3.1396205780561082e-01 -2.2303123492490098e-01 -1.8846514908748218e+00 -3.2732716011822843e-02 -2.0257728266609427e+00 8.4907883948668073e-01 1.7438938557082524e+00 6.8429291203515064e-01 4.2868396417238191e-01 1.5880926217319862e+00 -1.7646695389324445e+00 -1.6004184593215880e+00 6.2300614326885484e-01 4.6499589082777520e-01 -2.3473995285436813e-01 1.7555591495737564e+00 1.5959874859505021e+00 5.8015712366945249e-02 
        </Neuron>
        <Neuron NSynapses="26">
          -2.0397378243444093e+00 1.3755939794469367e+00 -1.7582577366239995e+00 -1.4544498533001078e+00 -1.4268598897865186e+00 -2.4840811084247241e+00 1.6362900657236195e+00 6.3800462278982373e-01 -1.4439683349981243e+00 4.6011886030210425e-01 -9.6914734734290053e-01 -3.4947058232884115e-01 7.0528038776646718e-01 7.3420958379224155e-01 4.6757445997079727e-01 -1.3839736795520876e+00 1.0743793398144189e-02 -6.3938367398040064e-01 -1.1964488058446159e+00 -1.4050612897821615e+00 5.3344883693185052e-01 1.3756702906191867e+00 9.4104692084268504e-01 1.8950526725059411e-01 -1.8932915044822154e+00 -2.1817060888134998e+00 
        </Neuron>
        <Neuron NSynapses="26">
          8.6971428529936257e-01 5.5790520692623624e-01 1.9805029587251515e+00 1.6338944117749317e+00 9.3334105060764905e-01 -1.4022997641115515e+00 -7.9845292694574943e-01 -2.5586743022749625e-01 1.2534789003858637e+00 -1.1527719074623541e+00 -2.7291498661250189e+00 -1.5040777842046711e+00 -6.8866260175013405e-01 4.4842515784260961e-01 1.5650396525766757e+00 -1.8335479009079605e+00 -1.3390482399379398e+00 1.1573688144029801e+00 -6.6085608844182386e-01 -1.4951957879110966e+00 -1.3247520306522516e+00 6.5761238629773316e-02 -2.4532865817891802e+00 -8.2930729168928005e-02 6.5800960637136741e-01 1.2198800356868558e+00 
        </Neuron>
        <Neuron NSynapses="26">
          -1.7674707818371209e+00 1.6983554093938413e+00 -1.0283863689232491e+00 -9.2681280435591162e-01 -3.0424672077431086e-01 -9.9383779305211939e-01 -1.6769858931061972e+00 2.3280464523122305e-01 6.9437148044072783e-01 2.8698995453958592e-01 -2.7048001694295882e+00 7.9964536717999490e-01 -7.1507537146660416e-01 -1.0524728850449179e+00 9.1461859015511582e-01 -1.2231145314136456e+00 -3.3707574795514255e+00 1.3785294589565555e-01 -9.4166240818068514e-01 1.8171038158399435e+00 4.3790468147306799e-01 2.6264891319052474e-02 -2.0665264449218270e+00 7.3279661847374300e-01 -2.3857417285864018e+00 4.8776025364896758e-01 
        </Neuron>
        <Neuron NSynapses="26">
          -8.7331234233794397e-01 -1.7543470274601682e+00 2.8229925029530911e-01 -1.4011482019697985e+00 3.8650228153636679e-01 2.5545818756565564e-01 1.8671435836024242e+00 -1.9018631702700011e+00 1.4965054209447998e-01 1.3968013206760750e+00 1.0256774232438783e+00 -1.9415615411701794e+00 -1.7527555825755816e+00 -4.4344729902819296e-01 -1.0979092352927158e+00 1.3052203028506935e+00 -1.7951129119248813e-01 -1.0118499586773237e+00 -7.1959557787570716e-01 1.7280104340020339e-01 -1.9200713048568012e+00 9.0508258954592002e-01 4.3492497707256350e-01 -1.2053412046159595e+00 -6.4766757553166787e-01 -4.9023073179854479e-02 
        </Neuron>
        <Neuron NSynapses="26">
          -1.1546910335426280e-01 6.2620228414022316e-01 1.0879416461223745e+00 -1.6267309715821288e+00 1.4539422628813228e+00 7.6016204808548826e-01 6.0955422863839048e-01 5.7041452891790956e-01 3.6268015094264300e-01 -7.4455702122605860e-01 2.2074165949756144e-01 1.4787438157602739e+00 -6.3575383826548015e-01 -2.9368901790368214e+00 1.6667075039632013e+00 7.3655183618209163e-01 9.9549235833649302e-02 1.5341087678924639e+00 1.8871324289294327e+00 -1.9467439347980728e+00 1.5482101222350972e-01 6.0466701632657016e-01 -4.1550643230067297e-01 -6.2743202300200052e-01 -9.2339605841636796e-01 4.7171104152402155e-01 
        </Neuron>
        <Neuron NSynapses="26">
          1.7200288988448722e+00 -1.6692532759840324e+00 4.7014101848164364e-01 -4.0075006867464308e-01 7.6869988113219789e-01 7.9883722284870595e-01 -1.5985873372267806e-01 -4.9355904596566014e-01 -1.2305374343666269e+00 1.4393323460386933e+00 2.0262333746500372e+00 1.2354599748329158e+00 4.3760474219940937e-01 -6.5745977570686320e-01 -1.0553629081763931e+00 8.2732702529568203e-01 1.8148168064004491e-01 -2.1231370033822929e+00 -6.0881281669117160e-01 3.1233129578064345e-01 3.4164509374739793e-01 -1.9684160555781078e+00 5.9301492551132007e-01 9.0120138864724031e-01 -2.0003380572142404e-01 5.6698495157003936e-01 
        </Neuron>
        <Neuron NSynapses="26">
          2.5035235638158162e+00 1.1415591022724063e+00 1.0728421152996996e+00 1.7603661299954151e-01 -1.7578753377068816e+00 -7.3647947452878948e-01 1.9400438551497028e+00 1.3016319683109596e+00 5.5917979502631965e-01 4.6858149431674750e-01 2.7731554415440209e+00 -8.6773654057004401e-01 -4.7964093299218374e-01 3.1241552548574140e-02 -1.5929546965965302e+00 6.5542781534371564e-01 2.8757429212242016e+00 -1.5697097259774702e+00 2.5573684634397931e-01 -1.7125398821117208e-01 -2.8834108072412739e+00 -8.9147885093283119e-01 1.8278936521140983e+00 -4.8232947400622295e-01 1.4011547918717717e+00 -8.5393569190555785e-01 
        </Neuron>
        <Neuron NSynapses="26">
          8.3470636798274367e-01 -1.7782265927996548e+00 6.6540717156538376e-01 6.4507480493374258e-01 -1.2796048321159037e+00 -1.6547169797061827e+00 -1.8475290697459670e+00 -3.8549354269103281e-01 -2.0741758621059296e+00 -1.4516371172312694e+00 -1.5995372666459264e+00 -1.0195583465749924e+00 -7.1936370215127166e-01 -2.5056623587147291e+00 1.0696166616457696e+00 -8.0622713320873607e-01 1.5615383813287254e+00 -1.1515596020733752e+00 6.4659293570095366e-01 1.8946216815257917e+00 2.0807448743618155e+00 -1.4173733127921511e+00 -1.3655307769309959e+00 -9.3569435335114193e-01 -1.2781788101388694e+00 -1.4092718786552978e+00 
        </Neuron>
        <Neuron NSynapses="26">
          -1.7392349030759577e+00 2.9629711838507311e-01 1.6393054447911031e+00 -1.6151555909345912e+00 3.7128281743206526e-01 -5.3137533768410594e-01 -1.8800512289701417e+00 1.2820040249760694e+00 1.2169337736594552e+00 -6.5477992008289065e-01 -9.2660576170256304e-01 1.7643628869493260e+00 1.9836050444866233e+00 -4.0462923799301227e-02 -2.1890455962970484e-01 -3.9042572629725780e-01 3.0264102800364956e+00 5.5689981183986992e-01 -7.4261851702838266e-01 -3.0279495715117222e-01 -1.6592518132505532e+00 2.1960377454117225e-01 -6.8367303985480121e-01 -4.9799885891881036e-02 -1.0345461294544074e+00 -1.7983276680871512e+00 
        </Neuron>
        <Neuron NSynapses="26">
          -1.5421460612482099e+00 1.7472716506267836e+00 -2.3316926940212896e+00 1.5042095271145561e+00 -1.4600478647521469e+00 4.8672396827530601e-01 -9.7025626504353990e-01 4.6930353074257686e-01 4.8772836812796011e-01 -1.4276071080984967e+00 3.3254551743287253e-01 1.1317536975098780e-01 -3.0767319247832163e+00 8.2196794974725462e-01 -1.8298095971041484e+00 -7.9789388369975722e-01 1.3613260955885385e+00 1.3390028754246504e+00 -6.7168160991391368e-01 -8.8604747092998826e-01 -2.3722356725866778e+00 -1.3041708134042240e+00 -1.5203292089947156e+00 -9.9427962283950055e-01 1.1428790105449647e+00 -1.2915205016538618e+00 
        </Neuron>
        <Neuron NSynapses="26">
          -1.9560311137801030e+00 1.7604462136325025e+00 1.8647014520235630e-01 -1.1064084693959966e-02 1.8047880488301109e+00 -4.9370184366056308e-01 1.3482597637436511e+00 9.7692685036307492e-01 -1.1311436717478969e+00 -6.5477643224108317e-01 3.5322237027774600e-01 6.5283206338389377e-01 1.5736788284794543e+00 3.7718812056276665e+00 1.1972557951771294e+00 1.4606832819120830e+00 -7.6711796986493819e-01 1.0998125531506848e+00 -2.3562208657986381e+00 5.9219587868114387e-01 -1.4943145934077084e+00 -2.2075441675846585e+00 -3.0664381746439229e-01 7.3762423854285508e-01 8.4126559195660078e-01 2.3902758177734434e-01 
        </Neuron>
        <Neuron NSynapses="26">
          8.1172817237312589e-01 -2.6256072240927353e-01 -8.9440399259404779e-01 -1.7461169794003348e+00 1.9610473153471424e+00 -2.2625627297503903e+00 2.1565447819194661e-01 -1.3811980850748475e+00 -1.1266190041730813e-01 2.3823197937863992e-02 6.0976739980390005e-01 -2.0155270069596356e+00 6.2702148930997104e-01 1.0697040207474608e+00 1.1462134957099257e+00 2.0247740404865444e-01 -2.4802938144269571e+00 -8.1612375874125598e-01 -3.0850335755520679e+00 1.0878426904412526e+00 -6.4285481813008549e-01 -1.2462537794658965e+00 -1.3667564718111505e+00 -3.4330327980813435e+00 -1.6757595424047325e+00 -2.7201303367526060e+00 
        </Neuron>
        <Neuron NSynapses="26">
          1.5473446551674068e+00 -1.4348685573698245e+00 -1.8977076843389364e+00 -2.4475680369684985e+00 -9.5215690011965282e-01 -2.3186757381600924e+00 1.1156918450887792e+00 -1.3922770322985705e+00 -8.5948948045202789e-01 1.7127199573509000e+00 9.6381805285920941e-01 -5.7179123700995671e-01 -2.5563500670820516e-01 7.6251005509655134e-01 2.1685137940357269e+00 8.4703580303308668e-01 -2.4867849493014806e+00 -4.7122855969301020e-02 -3.0865285513126488e+00 9.4292280139354023e-01 8.1707223878597302e-01 -6.2420594789894630e-03 -7.9691438843157281e-01 -7.8282068526704651e-01 1.1148078426280406e+00 -2.4401828630850528e+00 
        </Neuron>
        <Neuron NSynapses="26">
          1.4445433095979396e+00 8.0223740084574724e-01 -1.7243168069854420e+00 9.4839266264410738e-01 -9.8666715990536791e-01 2.4391774157701543e-01 5.7135404200276074e-01 1.0161815143562785e+00 1.7292881195133658e+00 -7.6054229329898959e-01 8.5211995379142025e-01 2.0276533407519546e+00 1.0079181305946383e+00 -7.7277401933075296e-01 1.1224481310474332e+00 -2.1457641550349922e+00 -2.9847374525477843e-01 2.9718728886128560e+00 -1.7907998878739764e-01 -8.2496657100401971e-01 2.0807228277071943e-01 -1.4339538991226952e+00 -2.2238139413762012e-01 -5.1968888805750693e+00 7.5844524246742551e-01 5.3483314668454407e-01 
        </Neuron>
        <Neuron NSynapses="26">
          2.3485162257273293e+00 1.3076022642831437e+00 2.1372393294450895e+00 -2.0785026403228208e+00 -7.6602947386099440e-01 2.8199302198167581e-01 1.9506882180926759e+00 -1.9006774308084875e+00 -9.4824165488370837e-01 -4.0164618483428105e-01 -9.9562214397851379e-01 -2.5919245221596752e+00 -2.5101415464022230e+00 7.3386400041867250e-02 7.7346874172504498e-01 -2.1015725997482413e+00 -5.7525187308406291e+00 7.4190768733432011e-01 -1.2247126308539120e+00 1.8240086528352906e+00 9.8920213711975499e-02 2.2293094119911230e-02 -3.4774304116105017e+00 4.6163860423863674e-02 -1.7144995713172206e+00 -5.3991206180690066e+00 
        </Neuron>
        <Neuron NSynapses="26">
          -1.8534078755066841e-01 2.4884062559135809e-02 -1.0289775668613246e+00 3.8160720984300606e-01 1.3879483237997905e+00 -1.5537126577691911e+00 -4.6575049444191546e-01 -8.5728932508656375e-01 1.3508130902055373e+00 -7.8168560651543406e-01 8.2602678647911643e-01 1.4073922741156615e+00 9.6537943930907100e-01 -9.2253311552754080e-01 5.7533173593099685e-01 -1.8450630007325501e+00 5.0533295679271895e-01 4.4645769522424344e-01 7.5284019028784566e-02 -2.6032060861967277e-01 -2.0412750393420600e+00 -1.4440297572795266e+00 2.1891449009240915e+00 6.5218815077447556e-01 7.7107808640511266e-01 -1.8977116839503397e-01 
        </Neuron>
        <Neuron NSynapses="26">
          -2.4470901980722007e-01 1.7209532120367463e+00 -4.6278813992996237e-01 1.2920375413998295e-01 -2.4905987645471970e+00 4.1230173432043999e+00 2.9194462970298513e-01 -1.1455389002157672e+00 2.1902658001355291e-01 -6.6977406983042576e-01 1.4853809086880809e+00 2.4862250166028339e+00 -5.3586618376572581e-01 -2.8884280787387451e+00 2.5229651836257525e+00 9.9368984970144036e-01 1.4381423853592832e+00 8.0617737274984252e-02 -1.6955471651714500e+00 -1.2659201793074988e+00 2.3609228371187321e+00 3.4511779675883293e-02 9.7862795098007871e-01 -6.2945241819929665e-01 -1.3271754978075678e+00 -2.0794160453731205e+00 
        </Neuron>
        <Neuron NSynapses="26">
          -3.1191553911107250e-01 -1.7308434705235152e+00 1.0717450491816258e+00 -1.5154535581647350e+00 1.8024211605135585e+00 3.4867468512555450e-01 -1.8976897750782622e+00 1.4736943071693447e+00 1.5442956728728574e+00 1.9570879900768783e+00 -1.4388575726705612e+00 -1.7740486739026529e+00 1.3264214182420024e+00 -1.0938655248577405e+00 1.8752630199140901e+00 -1.2548745272418176e+00 6.9086581926692847e-01 -1.0510125772256856e-01 4.5440097240450100e-01 -3.3184565773213215e-01 1.1412138513716670e+00 -5.5873486151447449e-01 -8.7094549196092041e-01 6.9678248149898292e-01 6.4518446234245352e-01 -1.7543013513485203e-01 
        </Neuron>
        <Neuron NSynapses="26">
          1.9102056287490450e+00 -1.6167209924046146e+00 1.6267186121326760e+00 -2.7425258316465744e+00 1.1315746367875779e+00 1.0598680294749974e+00 1.0506116145669644e+00 1.5598463947766410e+00 2.4158830058031291e+00 -2.1321383825523066e+00 2.0218475084800707e+00 -1.7795313957790222e+00 1.0347811268063578e+00 6.9060397358854275e-02 -1.0684826091231883e+00 -6.3848932291299820e-01 -2.6452589957801331e-01 -1.6128739599228925e+00 -9.1929357013031365e-01 -1.9185962729189754e+00 -2.5379452417657561e-01 5.6583313409967306e-01 -2.6575599465925741e+00 -3.2210053543146016e+00 1.1243070942452946e+00 1.1772383477219477e+00 
        </Neuron>
        <Neuron NSynapses="26">
          2.5731152883869135e-01 -1.4126223337242070e+00 1.7312956710924874e+00 -2.1891155258323223e+00 7.1733438579139785e-01 3.8851903300665659e-02 -1.3090468637947448e+00 -8.6946812318051081e-01 7.3427599593709300e-02 -1.9711521199808042e+00 -2.2080459854739284e-01 -1.9981893247387577e+00 8.3623765307955389e-01 -2.4679027193456218e+00 1.9891551235364966e+00 2.0933551645150503e+00 7.5396341225972399e-02 1.7827220669938080e+00 -6.9949300565120776e-01 1.0002518687006298e-01 -1.0423542951913938e+00 -2.0313540168415312e+00 -2.8756467828834880e+00 -2.5348643732739427e+00 9.0294608162456846e-01 -9.3887231635299462e-01 
        </Neuron>
      </Layer>
      <Layer Index="1" NNeurons="27">
        <Neuron NSynapses="1">
          2.0201746989411795e+00 
        </Neuron>
        <Neuron NSynapses="1">
          2.1995798895184997e+00 
        </Neuron>
        <Neuron NSynapses="1">
          2.1408285337100206e+00 
        </Neuron>
        <Neuron NSynapses="1">
          -1.4658696520858174e+00 
        </Neuron>
        <Neuron NSynapses="1">
          5.5723373814622779e-01 
        </Neuron>
        <Neuron NSynapses="1">
          -4.1302072991796974e+00 
        </Neuron>
        <Neuron NSynapses="1">
          1.6549282794314861e+00 
        </Neuron>
        <Neuron NSynapses="1">
          -1.0446162512614225e+00 
        </Neuron>
        <Neuron NSynapses="1">
          2.0898085526069941e+00 
        </Neuron>
        <Neuron NSynapses="1">
          1.1931948740691316e+00 
        </Neuron>
        <Neuron NSynapses="1">
          3.1453293011253733e+00 
        </Neuron>
        <Neuron NSynapses="1">
          -3.2620757970003629e+00 
        </Neuron>
        <Neuron NSynapses="1">
          3.1722707397785901e+00 
        </Neuron>
        <Neuron NSynapses="1">
          -2.9805886305127096e+00 
        </Neuron>
        <Neuron NSynapses="1">
          2.0960469260692229e+00 
        </Neuron>
        <Neuron NSynapses="1">
          -3.2113337800945781e-02 
        </Neuron>
        <Neuron NSynapses="1">
          -4.0470744282667317e+00 
        </Neuron>
        <Neuron NSynapses="1">
          1.4278877085555821e+00 
        </Neuron>
        <Neuron NSynapses="1">
          -2.8742890383536550e+00 
        </Neuron>
        <Neuron NSynapses="1">
          2.7228164236230640e-01 
        </Neuron>
        <Neuron NSynapses="1">
          -3.1519401519454204e+00 
        </Neuron>
        <Neuron NSynapses="1">
          1.8154795212315982e+00 
        </Neuron>
        <Neuron NSynapses="1">
          -2.2258752444101031e+00 
        </Neuron>
        <Neuron NSynapses="1">
          -3.2439017006621440e+00 
        </Neuron>
        <Neuron NSynapses="1">
          2.7380643212964766e+00 
        </Neuron>
        <Neuron NSynapses="1">
          -3.2144571668759969e+00 
        </Neuron>
        <Neuron NSynapses="1">
          -2.0647256469255120e+00 
        </Neuron>
      </Layer>
      <Layer Index="2" NNeurons="1">
        <Neuron NSynapses="0"/>
      </Layer>
    </Layout>
  </Weights>
</MethodSetup>
